digraph Tree {
node [shape=box, style="filled", color="black", fontname="helvetica"] ;
edge [fontname="helvetica"] ;
0 [label="Age <= 33.5\nentropy = 1.0\nsamples = 5178\nvalue = [2632, 2546]\nclass = No Attrition", fillcolor="#fefbf9"] ;
1 [label="YearsAtCompany <= 2.5\nentropy = 0.953\nsamples = 2467\nvalue = [922, 1545]\nclass = Yes Attrition", fillcolor="#afd7f5"] ;
0 -> 1 [labeldistance=2.5, labelangle=45, headlabel="True"] ;
2 [label="MaritalStatus_encoded <= 1.5\nentropy = 0.704\nsamples = 968\nvalue = [185, 783]\nclass = Yes Attrition", fillcolor="#68b4eb"] ;
1 -> 2 ;
3 [label="BusinessTravel_encoded <= 0.5\nentropy = 0.899\nsamples = 397\nvalue = [125, 272]\nclass = Yes Attrition", fillcolor="#94caf1"] ;
2 -> 3 ;
4 [label="entropy = 0.0\nsamples = 24\nvalue = [24, 0]\nclass = No Attrition", fillcolor="#e58139"] ;
3 -> 4 ;
5 [label="Department_encoded <= 0.5\nentropy = 0.843\nsamples = 373\nvalue = [101, 272]\nclass = Yes Attrition", fillcolor="#83c1ef"] ;
3 -> 5 ;
6 [label="entropy = 0.0\nsamples = 43\nvalue = [0, 43]\nclass = Yes Attrition", fillcolor="#399de5"] ;
5 -> 6 ;
7 [label="MonthlyIncome <= 119375.0\nentropy = 0.889\nsamples = 330\nvalue = [101, 229]\nclass = Yes Attrition", fillcolor="#90c8f0"] ;
5 -> 7 ;
8 [label="DistanceFromHome <= 22.5\nentropy = 0.836\nsamples = 312\nvalue = [83, 229]\nclass = Yes Attrition", fillcolor="#81c1ee"] ;
7 -> 8 ;
9 [label="StockOptionLevel <= 2.5\nentropy = 0.785\nsamples = 299\nvalue = [70, 229]\nclass = Yes Attrition", fillcolor="#76bbed"] ;
8 -> 9 ;
10 [label="EnvironmentSatisfaction <= 3.5\nentropy = 0.747\nsamples = 291\nvalue = [62, 229]\nclass = Yes Attrition", fillcolor="#6fb8ec"] ;
9 -> 10 ;
11 [label="PercentSalaryHike <= 12.5\nentropy = 0.588\nsamples = 226\nvalue = [32, 194]\nclass = Yes Attrition", fillcolor="#5aade9"] ;
10 -> 11 ;
12 [label="entropy = 0.0\nsamples = 7\nvalue = [7, 0]\nclass = No Attrition", fillcolor="#e58139"] ;
11 -> 12 ;
13 [label="Education <= 4.5\nentropy = 0.512\nsamples = 219\nvalue = [25, 194]\nclass = Yes Attrition", fillcolor="#53aae8"] ;
11 -> 13 ;
14 [label="NumCompaniesWorked <= 6.5\nentropy = 0.448\nsamples = 214\nvalue = [20, 194]\nclass = Yes Attrition", fillcolor="#4da7e8"] ;
13 -> 14 ;
15 [label="NumCompaniesWorked <= 0.5\nentropy = 0.312\nsamples = 196\nvalue = [11, 185]\nclass = Yes Attrition", fillcolor="#45a3e7"] ;
14 -> 15 ;
16 [label="BusinessTravel_encoded <= 1.5\nentropy = 0.934\nsamples = 20\nvalue = [7, 13]\nclass = Yes Attrition", fillcolor="#a4d2f3"] ;
15 -> 16 ;
17 [label="entropy = 0.0\nsamples = 13\nvalue = [0, 13]\nclass = Yes Attrition", fillcolor="#399de5"] ;
16 -> 17 ;
18 [label="entropy = 0.0\nsamples = 7\nvalue = [7, 0]\nclass = No Attrition", fillcolor="#e58139"] ;
16 -> 18 ;
19 [label="Age <= 32.0\nentropy = 0.156\nsamples = 176\nvalue = [4, 172]\nclass = Yes Attrition", fillcolor="#3e9fe6"] ;
15 -> 19 ;
20 [label="PercentSalaryHike <= 13.5\nentropy = 0.091\nsamples = 174\nvalue = [2, 172]\nclass = Yes Attrition", fillcolor="#3b9ee5"] ;
19 -> 20 ;
21 [label="entropy = 0.297\nsamples = 38\nvalue = [2, 36]\nclass = Yes Attrition", fillcolor="#44a2e6"] ;
20 -> 21 ;
22 [label="entropy = 0.0\nsamples = 136\nvalue = [0, 136]\nclass = Yes Attrition", fillcolor="#399de5"] ;
20 -> 22 ;
23 [label="entropy = 0.0\nsamples = 2\nvalue = [2, 0]\nclass = No Attrition", fillcolor="#e58139"] ;
19 -> 23 ;
24 [label="PercentSalaryHike <= 22.5\nentropy = 1.0\nsamples = 18\nvalue = [9, 9]\nclass = No Attrition", fillcolor="#ffffff"] ;
14 -> 24 ;
25 [label="entropy = 0.0\nsamples = 9\nvalue = [9, 0]\nclass = No Attrition", fillcolor="#e58139"] ;
24 -> 25 ;
26 [label="entropy = 0.0\nsamples = 9\nvalue = [0, 9]\nclass = Yes Attrition", fillcolor="#399de5"] ;
24 -> 26 ;
27 [label="entropy = 0.0\nsamples = 5\nvalue = [5, 0]\nclass = No Attrition", fillcolor="#e58139"] ;
13 -> 27 ;
28 [label="YearsWithCurrManager <= 0.5\nentropy = 0.996\nsamples = 65\nvalue = [30, 35]\nclass = Yes Attrition", fillcolor="#e3f1fb"] ;
10 -> 28 ;
29 [label="JobRole_encoded <= 5.0\nentropy = 0.863\nsamples = 49\nvalue = [14, 35]\nclass = Yes Attrition", fillcolor="#88c4ef"] ;
28 -> 29 ;
30 [label="JobLevel <= 1.5\nentropy = 0.544\nsamples = 40\nvalue = [5, 35]\nclass = Yes Attrition", fillcolor="#55abe9"] ;
29 -> 30 ;
31 [label="entropy = 0.0\nsamples = 5\nvalue = [5, 0]\nclass = No Attrition", fillcolor="#e58139"] ;
30 -> 31 ;
32 [label="entropy = 0.0\nsamples = 35\nvalue = [0, 35]\nclass = Yes Attrition", fillcolor="#399de5"] ;
30 -> 32 ;
33 [label="entropy = 0.0\nsamples = 9\nvalue = [9, 0]\nclass = No Attrition", fillcolor="#e58139"] ;
29 -> 33 ;
34 [label="entropy = 0.0\nsamples = 16\nvalue = [16, 0]\nclass = No Attrition", fillcolor="#e58139"] ;
28 -> 34 ;
35 [label="entropy = 0.0\nsamples = 8\nvalue = [8, 0]\nclass = No Attrition", fillcolor="#e58139"] ;
9 -> 35 ;
36 [label="entropy = 0.0\nsamples = 13\nvalue = [13, 0]\nclass = No Attrition", fillcolor="#e58139"] ;
8 -> 36 ;
37 [label="entropy = 0.0\nsamples = 18\nvalue = [18, 0]\nclass = No Attrition", fillcolor="#e58139"] ;
7 -> 37 ;
38 [label="TrainingTimesLastYear <= 1.0\nentropy = 0.485\nsamples = 571\nvalue = [60, 511]\nclass = Yes Attrition", fillcolor="#50a9e8"] ;
2 -> 38 ;
39 [label="entropy = 0.0\nsamples = 7\nvalue = [7, 0]\nclass = No Attrition", fillcolor="#e58139"] ;
38 -> 39 ;
40 [label="JobRole_encoded <= 7.5\nentropy = 0.45\nsamples = 564\nvalue = [53, 511]\nclass = Yes Attrition", fillcolor="#4ea7e8"] ;
38 -> 40 ;
41 [label="StockOptionLevel <= 2.5\nentropy = 0.399\nsamples = 543\nvalue = [43, 500]\nclass = Yes Attrition", fillcolor="#4aa5e7"] ;
40 -> 41 ;
42 [label="WorkLifeBalance <= 2.5\nentropy = 0.354\nsamples = 524\nvalue = [35, 489]\nclass = Yes Attrition", fillcolor="#47a4e7"] ;
41 -> 42 ;
43 [label="JobLevel <= 4.5\nentropy = 0.129\nsamples = 168\nvalue = [3, 165]\nclass = Yes Attrition", fillcolor="#3d9fe5"] ;
42 -> 43 ;
44 [label="TotalWorkingYears <= 11.5\nentropy = 0.053\nsamples = 166\nvalue = [1, 165]\nclass = Yes Attrition", fillcolor="#3a9ee5"] ;
43 -> 44 ;
45 [label="entropy = 0.0\nsamples = 165\nvalue = [0, 165]\nclass = Yes Attrition", fillcolor="#399de5"] ;
44 -> 45 ;
46 [label="entropy = 0.0\nsamples = 1\nvalue = [1, 0]\nclass = No Attrition", fillcolor="#e58139"] ;
44 -> 46 ;
47 [label="entropy = 0.0\nsamples = 2\nvalue = [2, 0]\nclass = No Attrition", fillcolor="#e58139"] ;
43 -> 47 ;
48 [label="JobSatisfaction <= 2.5\nentropy = 0.436\nsamples = 356\nvalue = [32, 324]\nclass = Yes Attrition", fillcolor="#4da7e8"] ;
42 -> 48 ;
49 [label="MonthlyIncome <= 26585.0\nentropy = 0.219\nsamples = 171\nvalue = [6, 165]\nclass = Yes Attrition", fillcolor="#40a1e6"] ;
48 -> 49 ;
50 [label="entropy = 0.0\nsamples = 3\nvalue = [3, 0]\nclass = No Attrition", fillcolor="#e58139"] ;
49 -> 50 ;
51 [label="PercentSalaryHike <= 23.0\nentropy = 0.129\nsamples = 168\nvalue = [3, 165]\nclass = Yes Attrition", fillcolor="#3d9fe5"] ;
49 -> 51 ;
52 [label="MonthlyIncome <= 176305.0\nentropy = 0.094\nsamples = 167\nvalue = [2, 165]\nclass = Yes Attrition", fillcolor="#3b9ee5"] ;
51 -> 52 ;
53 [label="EmployeeID <= 4136.5\nentropy = 0.053\nsamples = 166\nvalue = [1, 165]\nclass = Yes Attrition", fillcolor="#3a9ee5"] ;
52 -> 53 ;
54 [label="entropy = 0.0\nsamples = 162\nvalue = [0, 162]\nclass = Yes Attrition", fillcolor="#399de5"] ;
53 -> 54 ;
55 [label="EmployeeID <= 4274.5\nentropy = 0.811\nsamples = 4\nvalue = [1, 3]\nclass = Yes Attrition", fillcolor="#7bbeee"] ;
53 -> 55 ;
56 [label="entropy = 0.0\nsamples = 1\nvalue = [1, 0]\nclass = No Attrition", fillcolor="#e58139"] ;
55 -> 56 ;
57 [label="entropy = 0.0\nsamples = 3\nvalue = [0, 3]\nclass = Yes Attrition", fillcolor="#399de5"] ;
55 -> 57 ;
58 [label="entropy = 0.0\nsamples = 1\nvalue = [1, 0]\nclass = No Attrition", fillcolor="#e58139"] ;
52 -> 58 ;
59 [label="entropy = 0.0\nsamples = 1\nvalue = [1, 0]\nclass = No Attrition", fillcolor="#e58139"] ;
51 -> 59 ;
60 [label="TotalWorkingYears <= 6.5\nentropy = 0.586\nsamples = 185\nvalue = [26, 159]\nclass = Yes Attrition", fillcolor="#59ade9"] ;
48 -> 60 ;
61 [label="JobRole_encoded <= 5.5\nentropy = 0.52\nsamples = 180\nvalue = [21, 159]\nclass = Yes Attrition", fillcolor="#53aae8"] ;
60 -> 61 ;
62 [label="Age <= 21.5\nentropy = 0.299\nsamples = 132\nvalue = [7, 125]\nclass = Yes Attrition", fillcolor="#44a2e6"] ;
61 -> 62 ;
63 [label="DistanceFromHome <= 4.5\nentropy = 0.607\nsamples = 47\nvalue = [7, 40]\nclass = Yes Attrition", fillcolor="#5caeea"] ;
62 -> 63 ;
64 [label="Education <= 3.5\nentropy = 0.365\nsamples = 43\nvalue = [3, 40]\nclass = Yes Attrition", fillcolor="#48a4e7"] ;
63 -> 64 ;
65 [label="entropy = 0.0\nsamples = 3\nvalue = [3, 0]\nclass = No Attrition", fillcolor="#e58139"] ;
64 -> 65 ;
66 [label="entropy = 0.0\nsamples = 40\nvalue = [0, 40]\nclass = Yes Attrition", fillcolor="#399de5"] ;
64 -> 66 ;
67 [label="entropy = 0.0\nsamples = 4\nvalue = [4, 0]\nclass = No Attrition", fillcolor="#e58139"] ;
63 -> 67 ;
68 [label="entropy = 0.0\nsamples = 85\nvalue = [0, 85]\nclass = Yes Attrition", fillcolor="#399de5"] ;
62 -> 68 ;
69 [label="DistanceFromHome <= 8.5\nentropy = 0.871\nsamples = 48\nvalue = [14, 34]\nclass = Yes Attrition", fillcolor="#8bc5f0"] ;
61 -> 69 ;
70 [label="JobInvolvement <= 2.5\nentropy = 0.659\nsamples = 41\nvalue = [7, 34]\nclass = Yes Attrition", fillcolor="#62b1ea"] ;
69 -> 70 ;
71 [label="entropy = 0.0\nsamples = 26\nvalue = [0, 26]\nclass = Yes Attrition", fillcolor="#399de5"] ;
70 -> 71 ;
72 [label="MonthlyIncome <= 57280.0\nentropy = 0.997\nsamples = 15\nvalue = [7, 8]\nclass = Yes Attrition", fillcolor="#e6f3fc"] ;
70 -> 72 ;
73 [label="entropy = 0.0\nsamples = 7\nvalue = [7, 0]\nclass = No Attrition", fillcolor="#e58139"] ;
72 -> 73 ;
74 [label="entropy = 0.0\nsamples = 8\nvalue = [0, 8]\nclass = Yes Attrition", fillcolor="#399de5"] ;
72 -> 74 ;
75 [label="entropy = 0.0\nsamples = 7\nvalue = [7, 0]\nclass = No Attrition", fillcolor="#e58139"] ;
69 -> 75 ;
76 [label="entropy = 0.0\nsamples = 5\nvalue = [5, 0]\nclass = No Attrition", fillcolor="#e58139"] ;
60 -> 76 ;
77 [label="TrainingTimesLastYear <= 2.5\nentropy = 0.982\nsamples = 19\nvalue = [8, 11]\nclass = Yes Attrition", fillcolor="#c9e4f8"] ;
41 -> 77 ;
78 [label="entropy = 0.0\nsamples = 8\nvalue = [8, 0]\nclass = No Attrition", fillcolor="#e58139"] ;
77 -> 78 ;
79 [label="entropy = 0.0\nsamples = 11\nvalue = [0, 11]\nclass = Yes Attrition", fillcolor="#399de5"] ;
77 -> 79 ;
80 [label="StockOptionLevel <= 2.5\nentropy = 0.998\nsamples = 21\nvalue = [10, 11]\nclass = Yes Attrition", fillcolor="#edf6fd"] ;
40 -> 80 ;
81 [label="entropy = 0.0\nsamples = 10\nvalue = [10, 0]\nclass = No Attrition", fillcolor="#e58139"] ;
80 -> 81 ;
82 [label="entropy = 0.0\nsamples = 11\nvalue = [0, 11]\nclass = Yes Attrition", fillcolor="#399de5"] ;
80 -> 82 ;
83 [label="NumCompaniesWorked <= 4.5\nentropy = 1.0\nsamples = 1499\nvalue = [737, 762]\nclass = Yes Attrition", fillcolor="#f9fcfe"] ;
1 -> 83 ;
84 [label="MaritalStatus_encoded <= 1.5\nentropy = 0.993\nsamples = 1198\nvalue = [656, 542]\nclass = No Attrition", fillcolor="#fae9dd"] ;
83 -> 84 ;
85 [label="JobRole_encoded <= 5.5\nentropy = 0.946\nsamples = 744\nvalue = [473, 271]\nclass = No Attrition", fillcolor="#f4c9aa"] ;
84 -> 85 ;
86 [label="PercentSalaryHike <= 13.5\nentropy = 0.577\nsamples = 284\nvalue = [245, 39]\nclass = No Attrition", fillcolor="#e99559"] ;
85 -> 86 ;
87 [label="StockOptionLevel <= 0.5\nentropy = 0.878\nsamples = 131\nvalue = [92, 39]\nclass = No Attrition", fillcolor="#f0b68d"] ;
86 -> 87 ;
88 [label="Age <= 26.5\nentropy = 1.0\nsamples = 80\nvalue = [41, 39]\nclass = No Attrition", fillcolor="#fef9f5"] ;
87 -> 88 ;
89 [label="entropy = 0.0\nsamples = 26\nvalue = [0, 26]\nclass = Yes Attrition", fillcolor="#399de5"] ;
88 -> 89 ;
90 [label="JobRole_encoded <= 0.5\nentropy = 0.796\nsamples = 54\nvalue = [41, 13]\nclass = No Attrition", fillcolor="#eda978"] ;
88 -> 90 ;
91 [label="MonthlyIncome <= 43675.0\nentropy = 0.934\nsamples = 20\nvalue = [7, 13]\nclass = Yes Attrition", fillcolor="#a4d2f3"] ;
90 -> 91 ;
92 [label="entropy = 0.0\nsamples = 13\nvalue = [0, 13]\nclass = Yes Attrition", fillcolor="#399de5"] ;
91 -> 92 ;
93 [label="entropy = 0.0\nsamples = 7\nvalue = [7, 0]\nclass = No Attrition", fillcolor="#e58139"] ;
91 -> 93 ;
94 [label="entropy = 0.0\nsamples = 34\nvalue = [34, 0]\nclass = No Attrition", fillcolor="#e58139"] ;
90 -> 94 ;
95 [label="entropy = 0.0\nsamples = 51\nvalue = [51, 0]\nclass = No Attrition", fillcolor="#e58139"] ;
87 -> 95 ;
96 [label="entropy = 0.0\nsamples = 153\nvalue = [153, 0]\nclass = No Attrition", fillcolor="#e58139"] ;
86 -> 96 ;
97 [label="JobLevel <= 3.5\nentropy = 1.0\nsamples = 460\nvalue = [228, 232]\nclass = Yes Attrition", fillcolor="#fcfdff"] ;
85 -> 97 ;
98 [label="BusinessTravel_encoded <= 0.5\nentropy = 0.991\nsamples = 417\nvalue = [185, 232]\nclass = Yes Attrition", fillcolor="#d7ebfa"] ;
97 -> 98 ;
99 [label="entropy = 0.0\nsamples = 27\nvalue = [27, 0]\nclass = No Attrition", fillcolor="#e58139"] ;
98 -> 99 ;
100 [label="MonthlyIncome <= 23100.0\nentropy = 0.974\nsamples = 390\nvalue = [158, 232]\nclass = Yes Attrition", fillcolor="#c0e0f7"] ;
98 -> 100 ;
101 [label="PercentSalaryHike <= 16.5\nentropy = 0.671\nsamples = 108\nvalue = [19, 89]\nclass = Yes Attrition", fillcolor="#63b2eb"] ;
100 -> 101 ;
102 [label="MonthlyIncome <= 22375.0\nentropy = 0.978\nsamples = 46\nvalue = [19, 27]\nclass = Yes Attrition", fillcolor="#c4e2f7"] ;
101 -> 102 ;
103 [label="entropy = 0.0\nsamples = 16\nvalue = [16, 0]\nclass = No Attrition", fillcolor="#e58139"] ;
102 -> 103 ;
104 [label="JobSatisfaction <= 2.5\nentropy = 0.469\nsamples = 30\nvalue = [3, 27]\nclass = Yes Attrition", fillcolor="#4fa8e8"] ;
102 -> 104 ;
105 [label="entropy = 0.0\nsamples = 27\nvalue = [0, 27]\nclass = Yes Attrition", fillcolor="#399de5"] ;
104 -> 105 ;
106 [label="entropy = 0.0\nsamples = 3\nvalue = [3, 0]\nclass = No Attrition", fillcolor="#e58139"] ;
104 -> 106 ;
107 [label="entropy = 0.0\nsamples = 62\nvalue = [0, 62]\nclass = Yes Attrition", fillcolor="#399de5"] ;
101 -> 107 ;
108 [label="MonthlyIncome <= 65400.0\nentropy = 1.0\nsamples = 282\nvalue = [139, 143]\nclass = Yes Attrition", fillcolor="#f9fcfe"] ;
100 -> 108 ;
109 [label="YearsSinceLastPromotion <= 5.5\nentropy = 0.862\nsamples = 123\nvalue = [88, 35]\nclass = No Attrition", fillcolor="#efb388"] ;
108 -> 109 ;
110 [label="Age <= 24.5\nentropy = 0.555\nsamples = 93\nvalue = [81, 12]\nclass = No Attrition", fillcolor="#e99456"] ;
109 -> 110 ;
111 [label="TrainingTimesLastYear <= 2.5\nentropy = 0.949\nsamples = 19\nvalue = [7, 12]\nclass = Yes Attrition", fillcolor="#acd6f4"] ;
110 -> 111 ;
112 [label="entropy = 0.0\nsamples = 7\nvalue = [7, 0]\nclass = No Attrition", fillcolor="#e58139"] ;
111 -> 112 ;
113 [label="entropy = 0.0\nsamples = 12\nvalue = [0, 12]\nclass = Yes Attrition", fillcolor="#399de5"] ;
111 -> 113 ;
114 [label="entropy = 0.0\nsamples = 74\nvalue = [74, 0]\nclass = No Attrition", fillcolor="#e58139"] ;
110 -> 114 ;
115 [label="YearsWithCurrManager <= 7.5\nentropy = 0.784\nsamples = 30\nvalue = [7, 23]\nclass = Yes Attrition", fillcolor="#75bbed"] ;
109 -> 115 ;
116 [label="entropy = 0.0\nsamples = 23\nvalue = [0, 23]\nclass = Yes Attrition", fillcolor="#399de5"] ;
115 -> 116 ;
117 [label="entropy = 0.0\nsamples = 7\nvalue = [7, 0]\nclass = No Attrition", fillcolor="#e58139"] ;
115 -> 117 ;
118 [label="MonthlyIncome <= 77470.0\nentropy = 0.905\nsamples = 159\nvalue = [51, 108]\nclass = Yes Attrition", fillcolor="#96cbf1"] ;
108 -> 118 ;
119 [label="entropy = 0.0\nsamples = 54\nvalue = [0, 54]\nclass = Yes Attrition", fillcolor="#399de5"] ;
118 -> 119 ;
120 [label="JobSatisfaction <= 1.5\nentropy = 0.999\nsamples = 105\nvalue = [51, 54]\nclass = Yes Attrition", fillcolor="#f4fafe"] ;
118 -> 120 ;
121 [label="YearsSinceLastPromotion <= 0.5\nentropy = 0.391\nsamples = 39\nvalue = [3, 36]\nclass = Yes Attrition", fillcolor="#49a5e7"] ;
120 -> 121 ;
122 [label="entropy = 0.0\nsamples = 3\nvalue = [3, 0]\nclass = No Attrition", fillcolor="#e58139"] ;
121 -> 122 ;
123 [label="entropy = 0.0\nsamples = 36\nvalue = [0, 36]\nclass = Yes Attrition", fillcolor="#399de5"] ;
121 -> 123 ;
124 [label="MonthlyIncome <= 97545.0\nentropy = 0.845\nsamples = 66\nvalue = [48, 18]\nclass = No Attrition", fillcolor="#efb083"] ;
120 -> 124 ;
125 [label="NumCompaniesWorked <= 0.5\nentropy = 0.958\nsamples = 29\nvalue = [11, 18]\nclass = Yes Attrition", fillcolor="#b2d9f5"] ;
124 -> 125 ;
126 [label="entropy = 0.0\nsamples = 8\nvalue = [8, 0]\nclass = No Attrition", fillcolor="#e58139"] ;
125 -> 126 ;
127 [label="Gender_encoded <= 0.5\nentropy = 0.592\nsamples = 21\nvalue = [3, 18]\nclass = Yes Attrition", fillcolor="#5aade9"] ;
125 -> 127 ;
128 [label="entropy = 0.0\nsamples = 18\nvalue = [0, 18]\nclass = Yes Attrition", fillcolor="#399de5"] ;
127 -> 128 ;
129 [label="entropy = 0.0\nsamples = 3\nvalue = [3, 0]\nclass = No Attrition", fillcolor="#e58139"] ;
127 -> 129 ;
130 [label="entropy = 0.0\nsamples = 37\nvalue = [37, 0]\nclass = No Attrition", fillcolor="#e58139"] ;
124 -> 130 ;
131 [label="entropy = 0.0\nsamples = 43\nvalue = [43, 0]\nclass = No Attrition", fillcolor="#e58139"] ;
97 -> 131 ;
132 [label="YearsSinceLastPromotion <= 5.5\nentropy = 0.973\nsamples = 454\nvalue = [183, 271]\nclass = Yes Attrition", fillcolor="#bfdff7"] ;
84 -> 132 ;
133 [label="JobSatisfaction <= 3.5\nentropy = 0.998\nsamples = 365\nvalue = [174, 191]\nclass = Yes Attrition", fillcolor="#edf6fd"] ;
132 -> 133 ;
134 [label="BusinessTravel_encoded <= 1.5\nentropy = 0.927\nsamples = 275\nvalue = [94, 181]\nclass = Yes Attrition", fillcolor="#a0d0f3"] ;
133 -> 134 ;
135 [label="JobRole_encoded <= 1.0\nentropy = 0.65\nsamples = 132\nvalue = [22, 110]\nclass = Yes Attrition", fillcolor="#61b1ea"] ;
134 -> 135 ;
136 [label="entropy = 0.0\nsamples = 7\nvalue = [7, 0]\nclass = No Attrition", fillcolor="#e58139"] ;
135 -> 136 ;
137 [label="EnvironmentSatisfaction <= 3.5\nentropy = 0.529\nsamples = 125\nvalue = [15, 110]\nclass = Yes Attrition", fillcolor="#54aae9"] ;
135 -> 137 ;
138 [label="PercentSalaryHike <= 16.5\nentropy = 0.346\nsamples = 108\nvalue = [7, 101]\nclass = Yes Attrition", fillcolor="#47a4e7"] ;
137 -> 138 ;
139 [label="EducationField_encoded <= 2.0\nentropy = 0.7\nsamples = 37\nvalue = [7, 30]\nclass = Yes Attrition", fillcolor="#67b4eb"] ;
138 -> 139 ;
140 [label="entropy = 0.0\nsamples = 6\nvalue = [6, 0]\nclass = No Attrition", fillcolor="#e58139"] ;
139 -> 140 ;
141 [label="PercentSalaryHike <= 14.5\nentropy = 0.206\nsamples = 31\nvalue = [1, 30]\nclass = Yes Attrition", fillcolor="#40a0e6"] ;
139 -> 141 ;
142 [label="entropy = 0.0\nsamples = 30\nvalue = [0, 30]\nclass = Yes Attrition", fillcolor="#399de5"] ;
141 -> 142 ;
143 [label="entropy = 0.0\nsamples = 1\nvalue = [1, 0]\nclass = No Attrition", fillcolor="#e58139"] ;
141 -> 143 ;
144 [label="entropy = 0.0\nsamples = 71\nvalue = [0, 71]\nclass = Yes Attrition", fillcolor="#399de5"] ;
138 -> 144 ;
145 [label="JobRole_encoded <= 6.5\nentropy = 0.998\nsamples = 17\nvalue = [8, 9]\nclass = Yes Attrition", fillcolor="#e9f4fc"] ;
137 -> 145 ;
146 [label="entropy = 0.0\nsamples = 8\nvalue = [8, 0]\nclass = No Attrition", fillcolor="#e58139"] ;
145 -> 146 ;
147 [label="entropy = 0.0\nsamples = 9\nvalue = [0, 9]\nclass = Yes Attrition", fillcolor="#399de5"] ;
145 -> 147 ;
148 [label="TotalWorkingYears <= 7.5\nentropy = 1.0\nsamples = 143\nvalue = [72, 71]\nclass = No Attrition", fillcolor="#fffdfc"] ;
134 -> 148 ;
149 [label="StockOptionLevel <= 0.5\nentropy = 0.956\nsamples = 114\nvalue = [43, 71]\nclass = Yes Attrition", fillcolor="#b1d8f5"] ;
148 -> 149 ;
150 [label="EducationField_encoded <= 2.5\nentropy = 0.7\nsamples = 74\nvalue = [14, 60]\nclass = Yes Attrition", fillcolor="#67b4eb"] ;
149 -> 150 ;
151 [label="TotalWorkingYears <= 4.5\nentropy = 0.391\nsamples = 65\nvalue = [5, 60]\nclass = Yes Attrition", fillcolor="#49a5e7"] ;
150 -> 151 ;
152 [label="WorkLifeBalance <= 2.0\nentropy = 0.831\nsamples = 19\nvalue = [5, 14]\nclass = Yes Attrition", fillcolor="#80c0ee"] ;
151 -> 152 ;
153 [label="entropy = 0.0\nsamples = 14\nvalue = [0, 14]\nclass = Yes Attrition", fillcolor="#399de5"] ;
152 -> 153 ;
154 [label="entropy = 0.0\nsamples = 5\nvalue = [5, 0]\nclass = No Attrition", fillcolor="#e58139"] ;
152 -> 154 ;
155 [label="entropy = 0.0\nsamples = 46\nvalue = [0, 46]\nclass = Yes Attrition", fillcolor="#399de5"] ;
151 -> 155 ;
156 [label="entropy = 0.0\nsamples = 9\nvalue = [9, 0]\nclass = No Attrition", fillcolor="#e58139"] ;
150 -> 156 ;
157 [label="DistanceFromHome <= 21.5\nentropy = 0.849\nsamples = 40\nvalue = [29, 11]\nclass = No Attrition", fillcolor="#efb184"] ;
149 -> 157 ;
158 [label="entropy = 0.0\nsamples = 29\nvalue = [29, 0]\nclass = No Attrition", fillcolor="#e58139"] ;
157 -> 158 ;
159 [label="entropy = 0.0\nsamples = 11\nvalue = [0, 11]\nclass = Yes Attrition", fillcolor="#399de5"] ;
157 -> 159 ;
160 [label="entropy = 0.0\nsamples = 29\nvalue = [29, 0]\nclass = No Attrition", fillcolor="#e58139"] ;
148 -> 160 ;
161 [label="Education <= 1.5\nentropy = 0.503\nsamples = 90\nvalue = [80, 10]\nclass = No Attrition", fillcolor="#e89152"] ;
133 -> 161 ;
162 [label="entropy = 0.0\nsamples = 10\nvalue = [0, 10]\nclass = Yes Attrition", fillcolor="#399de5"] ;
161 -> 162 ;
163 [label="entropy = 0.0\nsamples = 80\nvalue = [80, 0]\nclass = No Attrition", fillcolor="#e58139"] ;
161 -> 163 ;
164 [label="TrainingTimesLastYear <= 5.5\nentropy = 0.473\nsamples = 89\nvalue = [9, 80]\nclass = Yes Attrition", fillcolor="#4fa8e8"] ;
132 -> 164 ;
165 [label="TotalWorkingYears <= 11.0\nentropy = 0.323\nsamples = 85\nvalue = [5, 80]\nclass = Yes Attrition", fillcolor="#45a3e7"] ;
164 -> 165 ;
166 [label="BusinessTravel_encoded <= 0.5\nentropy = 0.096\nsamples = 81\nvalue = [1, 80]\nclass = Yes Attrition", fillcolor="#3b9ee5"] ;
165 -> 166 ;
167 [label="entropy = 0.0\nsamples = 1\nvalue = [1, 0]\nclass = No Attrition", fillcolor="#e58139"] ;
166 -> 167 ;
168 [label="entropy = 0.0\nsamples = 80\nvalue = [0, 80]\nclass = Yes Attrition", fillcolor="#399de5"] ;
166 -> 168 ;
169 [label="entropy = 0.0\nsamples = 4\nvalue = [4, 0]\nclass = No Attrition", fillcolor="#e58139"] ;
165 -> 169 ;
170 [label="entropy = 0.0\nsamples = 4\nvalue = [4, 0]\nclass = No Attrition", fillcolor="#e58139"] ;
164 -> 170 ;
171 [label="NumCompaniesWorked <= 8.5\nentropy = 0.84\nsamples = 301\nvalue = [81, 220]\nclass = Yes Attrition", fillcolor="#82c1ef"] ;
83 -> 171 ;
172 [label="EducationField_encoded <= 3.5\nentropy = 0.77\nsamples = 284\nvalue = [64, 220]\nclass = Yes Attrition", fillcolor="#73baed"] ;
171 -> 172 ;
173 [label="JobInvolvement <= 3.5\nentropy = 0.704\nsamples = 272\nvalue = [52, 220]\nclass = Yes Attrition", fillcolor="#68b4eb"] ;
172 -> 173 ;
174 [label="JobRole_encoded <= 6.5\nentropy = 0.635\nsamples = 262\nvalue = [42, 220]\nclass = Yes Attrition", fillcolor="#5fb0ea"] ;
173 -> 174 ;
175 [label="YearsAtCompany <= 9.5\nentropy = 0.463\nsamples = 224\nvalue = [22, 202]\nclass = Yes Attrition", fillcolor="#4fa8e8"] ;
174 -> 175 ;
176 [label="MonthlyIncome <= 39425.0\nentropy = 0.409\nsamples = 220\nvalue = [18, 202]\nclass = Yes Attrition", fillcolor="#4ba6e7"] ;
175 -> 176 ;
177 [label="PercentSalaryHike <= 13.5\nentropy = 0.691\nsamples = 81\nvalue = [15, 66]\nclass = Yes Attrition", fillcolor="#66b3eb"] ;
176 -> 177 ;
178 [label="entropy = 0.0\nsamples = 8\nvalue = [8, 0]\nclass = No Attrition", fillcolor="#e58139"] ;
177 -> 178 ;
179 [label="MonthlyIncome <= 34575.0\nentropy = 0.456\nsamples = 73\nvalue = [7, 66]\nclass = Yes Attrition", fillcolor="#4ea7e8"] ;
177 -> 179 ;
180 [label="Age <= 25.0\nentropy = 0.191\nsamples = 68\nvalue = [2, 66]\nclass = Yes Attrition", fillcolor="#3fa0e6"] ;
179 -> 180 ;
181 [label="entropy = 0.0\nsamples = 2\nvalue = [2, 0]\nclass = No Attrition", fillcolor="#e58139"] ;
180 -> 181 ;
182 [label="entropy = 0.0\nsamples = 66\nvalue = [0, 66]\nclass = Yes Attrition", fillcolor="#399de5"] ;
180 -> 182 ;
183 [label="entropy = 0.0\nsamples = 5\nvalue = [5, 0]\nclass = No Attrition", fillcolor="#e58139"] ;
179 -> 183 ;
184 [label="Education <= 2.0\nentropy = 0.15\nsamples = 139\nvalue = [3, 136]\nclass = Yes Attrition", fillcolor="#3d9fe6"] ;
176 -> 184 ;
185 [label="entropy = 0.0\nsamples = 3\nvalue = [3, 0]\nclass = No Attrition", fillcolor="#e58139"] ;
184 -> 185 ;
186 [label="entropy = 0.0\nsamples = 136\nvalue = [0, 136]\nclass = Yes Attrition", fillcolor="#399de5"] ;
184 -> 186 ;
187 [label="entropy = 0.0\nsamples = 4\nvalue = [4, 0]\nclass = No Attrition", fillcolor="#e58139"] ;
175 -> 187 ;
188 [label="TotalWorkingYears <= 7.0\nentropy = 0.998\nsamples = 38\nvalue = [20, 18]\nclass = No Attrition", fillcolor="#fcf2eb"] ;
174 -> 188 ;
189 [label="JobSatisfaction <= 3.5\nentropy = 0.469\nsamples = 20\nvalue = [2, 18]\nclass = Yes Attrition", fillcolor="#4fa8e8"] ;
188 -> 189 ;
190 [label="entropy = 0.0\nsamples = 2\nvalue = [2, 0]\nclass = No Attrition", fillcolor="#e58139"] ;
189 -> 190 ;
191 [label="entropy = 0.0\nsamples = 18\nvalue = [0, 18]\nclass = Yes Attrition", fillcolor="#399de5"] ;
189 -> 191 ;
192 [label="entropy = 0.0\nsamples = 18\nvalue = [18, 0]\nclass = No Attrition", fillcolor="#e58139"] ;
188 -> 192 ;
193 [label="entropy = 0.0\nsamples = 10\nvalue = [10, 0]\nclass = No Attrition", fillcolor="#e58139"] ;
173 -> 193 ;
194 [label="entropy = 0.0\nsamples = 12\nvalue = [12, 0]\nclass = No Attrition", fillcolor="#e58139"] ;
172 -> 194 ;
195 [label="entropy = 0.0\nsamples = 17\nvalue = [17, 0]\nclass = No Attrition", fillcolor="#e58139"] ;
171 -> 195 ;
196 [label="EnvironmentSatisfaction <= 1.5\nentropy = 0.95\nsamples = 2711\nvalue = [1710, 1001]\nclass = No Attrition", fillcolor="#f4cbad"] ;
0 -> 196 [labeldistance=2.5, labelangle=-45, headlabel="False"] ;
197 [label="MonthlyIncome <= 67795.0\nentropy = 0.995\nsamples = 630\nvalue = [288, 342]\nclass = Yes Attrition", fillcolor="#e0f0fb"] ;
196 -> 197 ;
198 [label="DistanceFromHome <= 21.5\nentropy = 0.963\nsamples = 521\nvalue = [202, 319]\nclass = Yes Attrition", fillcolor="#b6dbf5"] ;
197 -> 198 ;
199 [label="DistanceFromHome <= 14.5\nentropy = 0.937\nsamples = 493\nvalue = [174, 319]\nclass = Yes Attrition", fillcolor="#a5d2f3"] ;
198 -> 199 ;
200 [label="NumCompaniesWorked <= 6.5\nentropy = 0.981\nsamples = 396\nvalue = [166, 230]\nclass = Yes Attrition", fillcolor="#c8e4f8"] ;
199 -> 200 ;
201 [label="EducationField_encoded <= 3.5\nentropy = 0.998\nsamples = 316\nvalue = [150, 166]\nclass = Yes Attrition", fillcolor="#ecf6fc"] ;
200 -> 201 ;
202 [label="TrainingTimesLastYear <= 4.5\nentropy = 0.989\nsamples = 295\nvalue = [129, 166]\nclass = Yes Attrition", fillcolor="#d3e9f9"] ;
201 -> 202 ;
203 [label="TotalWorkingYears <= 5.5\nentropy = 0.977\nsamples = 282\nvalue = [116, 166]\nclass = Yes Attrition", fillcolor="#c3e1f7"] ;
202 -> 203 ;
204 [label="EducationField_encoded <= 2.5\nentropy = 0.503\nsamples = 54\nvalue = [6, 48]\nclass = Yes Attrition", fillcolor="#52a9e8"] ;
203 -> 204 ;
205 [label="entropy = 0.0\nsamples = 4\nvalue = [4, 0]\nclass = No Attrition", fillcolor="#e58139"] ;
204 -> 205 ;
206 [label="TrainingTimesLastYear <= 1.5\nentropy = 0.242\nsamples = 50\nvalue = [2, 48]\nclass = Yes Attrition", fillcolor="#41a1e6"] ;
204 -> 206 ;
207 [label="entropy = 0.0\nsamples = 2\nvalue = [2, 0]\nclass = No Attrition", fillcolor="#e58139"] ;
206 -> 207 ;
208 [label="entropy = 0.0\nsamples = 48\nvalue = [0, 48]\nclass = Yes Attrition", fillcolor="#399de5"] ;
206 -> 208 ;
209 [label="DistanceFromHome <= 3.5\nentropy = 0.999\nsamples = 228\nvalue = [110, 118]\nclass = Yes Attrition", fillcolor="#f2f8fd"] ;
203 -> 209 ;
210 [label="BusinessTravel_encoded <= 1.5\nentropy = 0.884\nsamples = 96\nvalue = [67, 29]\nclass = No Attrition", fillcolor="#f0b88f"] ;
209 -> 210 ;
211 [label="YearsWithCurrManager <= 0.5\nentropy = 0.994\nsamples = 53\nvalue = [24, 29]\nclass = Yes Attrition", fillcolor="#ddeefb"] ;
210 -> 211 ;
212 [label="entropy = 0.0\nsamples = 18\nvalue = [0, 18]\nclass = Yes Attrition", fillcolor="#399de5"] ;
211 -> 212 ;
213 [label="YearsSinceLastPromotion <= 6.5\nentropy = 0.898\nsamples = 35\nvalue = [24, 11]\nclass = No Attrition", fillcolor="#f1bb94"] ;
211 -> 213 ;
214 [label="entropy = 0.0\nsamples = 22\nvalue = [22, 0]\nclass = No Attrition", fillcolor="#e58139"] ;
213 -> 214 ;
215 [label="YearsSinceLastPromotion <= 10.5\nentropy = 0.619\nsamples = 13\nvalue = [2, 11]\nclass = Yes Attrition", fillcolor="#5dafea"] ;
213 -> 215 ;
216 [label="entropy = 0.0\nsamples = 11\nvalue = [0, 11]\nclass = Yes Attrition", fillcolor="#399de5"] ;
215 -> 216 ;
217 [label="entropy = 0.0\nsamples = 2\nvalue = [2, 0]\nclass = No Attrition", fillcolor="#e58139"] ;
215 -> 217 ;
218 [label="entropy = 0.0\nsamples = 43\nvalue = [43, 0]\nclass = No Attrition", fillcolor="#e58139"] ;
210 -> 218 ;
219 [label="PercentSalaryHike <= 18.5\nentropy = 0.911\nsamples = 132\nvalue = [43, 89]\nclass = Yes Attrition", fillcolor="#99ccf2"] ;
209 -> 219 ;
220 [label="BusinessTravel_encoded <= 0.5\nentropy = 0.804\nsamples = 118\nvalue = [29, 89]\nclass = Yes Attrition", fillcolor="#7abded"] ;
219 -> 220 ;
221 [label="entropy = 0.0\nsamples = 9\nvalue = [9, 0]\nclass = No Attrition", fillcolor="#e58139"] ;
220 -> 221 ;
222 [label="YearsAtCompany <= 2.5\nentropy = 0.688\nsamples = 109\nvalue = [20, 89]\nclass = Yes Attrition", fillcolor="#65b3eb"] ;
220 -> 222 ;
223 [label="entropy = 0.0\nsamples = 8\nvalue = [8, 0]\nclass = No Attrition", fillcolor="#e58139"] ;
222 -> 223 ;
224 [label="Age <= 52.5\nentropy = 0.526\nsamples = 101\nvalue = [12, 89]\nclass = Yes Attrition", fillcolor="#54aae9"] ;
222 -> 224 ;
225 [label="YearsWithCurrManager <= 11.5\nentropy = 0.411\nsamples = 97\nvalue = [8, 89]\nclass = Yes Attrition", fillcolor="#4ba6e7"] ;
224 -> 225 ;
226 [label="entropy = 0.3\nsamples = 94\nvalue = [5, 89]\nclass = Yes Attrition", fillcolor="#44a3e6"] ;
225 -> 226 ;
227 [label="entropy = 0.0\nsamples = 3\nvalue = [3, 0]\nclass = No Attrition", fillcolor="#e58139"] ;
225 -> 227 ;
228 [label="entropy = 0.0\nsamples = 4\nvalue = [4, 0]\nclass = No Attrition", fillcolor="#e58139"] ;
224 -> 228 ;
229 [label="entropy = 0.0\nsamples = 14\nvalue = [14, 0]\nclass = No Attrition", fillcolor="#e58139"] ;
219 -> 229 ;
230 [label="entropy = 0.0\nsamples = 13\nvalue = [13, 0]\nclass = No Attrition", fillcolor="#e58139"] ;
202 -> 230 ;
231 [label="entropy = 0.0\nsamples = 21\nvalue = [21, 0]\nclass = No Attrition", fillcolor="#e58139"] ;
201 -> 231 ;
232 [label="MonthlyIncome <= 44520.0\nentropy = 0.722\nsamples = 80\nvalue = [16, 64]\nclass = Yes Attrition", fillcolor="#6ab6ec"] ;
200 -> 232 ;
233 [label="entropy = 0.0\nsamples = 11\nvalue = [11, 0]\nclass = No Attrition", fillcolor="#e58139"] ;
232 -> 233 ;
234 [label="PercentSalaryHike <= 16.5\nentropy = 0.375\nsamples = 69\nvalue = [5, 64]\nclass = Yes Attrition", fillcolor="#48a5e7"] ;
232 -> 234 ;
235 [label="entropy = 0.0\nsamples = 50\nvalue = [0, 50]\nclass = Yes Attrition", fillcolor="#399de5"] ;
234 -> 235 ;
236 [label="MonthlyIncome <= 54730.0\nentropy = 0.831\nsamples = 19\nvalue = [5, 14]\nclass = Yes Attrition", fillcolor="#80c0ee"] ;
234 -> 236 ;
237 [label="entropy = 0.0\nsamples = 5\nvalue = [5, 0]\nclass = No Attrition", fillcolor="#e58139"] ;
236 -> 237 ;
238 [label="entropy = 0.0\nsamples = 14\nvalue = [0, 14]\nclass = Yes Attrition", fillcolor="#399de5"] ;
236 -> 238 ;
239 [label="MonthlyIncome <= 25695.0\nentropy = 0.411\nsamples = 97\nvalue = [8, 89]\nclass = Yes Attrition", fillcolor="#4ba6e7"] ;
199 -> 239 ;
240 [label="entropy = 0.0\nsamples = 5\nvalue = [5, 0]\nclass = No Attrition", fillcolor="#e58139"] ;
239 -> 240 ;
241 [label="TrainingTimesLastYear <= 5.5\nentropy = 0.207\nsamples = 92\nvalue = [3, 89]\nclass = Yes Attrition", fillcolor="#40a0e6"] ;
239 -> 241 ;
242 [label="JobRole_encoded <= 6.5\nentropy = 0.088\nsamples = 90\nvalue = [1, 89]\nclass = Yes Attrition", fillcolor="#3b9ee5"] ;
241 -> 242 ;
243 [label="entropy = 0.0\nsamples = 89\nvalue = [0, 89]\nclass = Yes Attrition", fillcolor="#399de5"] ;
242 -> 243 ;
244 [label="entropy = 0.0\nsamples = 1\nvalue = [1, 0]\nclass = No Attrition", fillcolor="#e58139"] ;
242 -> 244 ;
245 [label="entropy = 0.0\nsamples = 2\nvalue = [2, 0]\nclass = No Attrition", fillcolor="#e58139"] ;
241 -> 245 ;
246 [label="entropy = 0.0\nsamples = 28\nvalue = [28, 0]\nclass = No Attrition", fillcolor="#e58139"] ;
198 -> 246 ;
247 [label="MonthlyIncome <= 171355.0\nentropy = 0.743\nsamples = 109\nvalue = [86, 23]\nclass = No Attrition", fillcolor="#eca36e"] ;
197 -> 247 ;
248 [label="entropy = 0.0\nsamples = 74\nvalue = [74, 0]\nclass = No Attrition", fillcolor="#e58139"] ;
247 -> 248 ;
249 [label="DistanceFromHome <= 8.5\nentropy = 0.928\nsamples = 35\nvalue = [12, 23]\nclass = Yes Attrition", fillcolor="#a0d0f3"] ;
247 -> 249 ;
250 [label="entropy = 0.0\nsamples = 12\nvalue = [12, 0]\nclass = No Attrition", fillcolor="#e58139"] ;
249 -> 250 ;
251 [label="entropy = 0.0\nsamples = 23\nvalue = [0, 23]\nclass = Yes Attrition", fillcolor="#399de5"] ;
249 -> 251 ;
252 [label="TrainingTimesLastYear <= 3.5\nentropy = 0.901\nsamples = 2081\nvalue = [1422, 659]\nclass = No Attrition", fillcolor="#f1bb95"] ;
196 -> 252 ;
253 [label="DistanceFromHome <= 24.5\nentropy = 0.936\nsamples = 1757\nvalue = [1138, 619]\nclass = No Attrition", fillcolor="#f3c6a5"] ;
252 -> 253 ;
254 [label="BusinessTravel_encoded <= 0.5\nentropy = 0.958\nsamples = 1631\nvalue = [1012, 619]\nclass = No Attrition", fillcolor="#f5ceb2"] ;
253 -> 254 ;
255 [label="JobRole_encoded <= 1.5\nentropy = 0.356\nsamples = 104\nvalue = [97, 7]\nclass = No Attrition", fillcolor="#e78a47"] ;
254 -> 255 ;
256 [label="EducationField_encoded <= 2.0\nentropy = 1.0\nsamples = 14\nvalue = [7, 7]\nclass = No Attrition", fillcolor="#ffffff"] ;
255 -> 256 ;
257 [label="entropy = 0.0\nsamples = 7\nvalue = [0, 7]\nclass = Yes Attrition", fillcolor="#399de5"] ;
256 -> 257 ;
258 [label="entropy = 0.0\nsamples = 7\nvalue = [7, 0]\nclass = No Attrition", fillcolor="#e58139"] ;
256 -> 258 ;
259 [label="entropy = 0.0\nsamples = 90\nvalue = [90, 0]\nclass = No Attrition", fillcolor="#e58139"] ;
255 -> 259 ;
260 [label="TotalWorkingYears <= 39.0\nentropy = 0.971\nsamples = 1527\nvalue = [915, 612]\nclass = No Attrition", fillcolor="#f6d5bd"] ;
254 -> 260 ;
261 [label="TotalWorkingYears <= 19.5\nentropy = 0.965\nsamples = 1499\nvalue = [915, 584]\nclass = No Attrition", fillcolor="#f6d1b7"] ;
260 -> 261 ;
262 [label="YearsWithCurrManager <= 0.5\nentropy = 0.99\nsamples = 1155\nvalue = [645, 510]\nclass = No Attrition", fillcolor="#fae5d6"] ;
261 -> 262 ;
263 [label="EnvironmentSatisfaction <= 3.5\nentropy = 0.968\nsamples = 284\nvalue = [112, 172]\nclass = Yes Attrition", fillcolor="#baddf6"] ;
262 -> 263 ;
264 [label="MonthlyIncome <= 73085.0\nentropy = 0.97\nsamples = 123\nvalue = [74, 49]\nclass = No Attrition", fillcolor="#f6d4bc"] ;
263 -> 264 ;
265 [label="DistanceFromHome <= 22.5\nentropy = 0.622\nsamples = 71\nvalue = [60, 11]\nclass = No Attrition", fillcolor="#ea985d"] ;
264 -> 265 ;
266 [label="entropy = 0.0\nsamples = 56\nvalue = [56, 0]\nclass = No Attrition", fillcolor="#e58139"] ;
265 -> 266 ;
267 [label="JobRole_encoded <= 5.0\nentropy = 0.837\nsamples = 15\nvalue = [4, 11]\nclass = Yes Attrition", fillcolor="#81c1ee"] ;
265 -> 267 ;
268 [label="entropy = 0.0\nsamples = 4\nvalue = [4, 0]\nclass = No Attrition", fillcolor="#e58139"] ;
267 -> 268 ;
269 [label="entropy = 0.0\nsamples = 11\nvalue = [0, 11]\nclass = Yes Attrition", fillcolor="#399de5"] ;
267 -> 269 ;
270 [label="PercentSalaryHike <= 11.5\nentropy = 0.84\nsamples = 52\nvalue = [14, 38]\nclass = Yes Attrition", fillcolor="#82c1ef"] ;
264 -> 270 ;
271 [label="entropy = 0.0\nsamples = 7\nvalue = [7, 0]\nclass = No Attrition", fillcolor="#e58139"] ;
270 -> 271 ;
272 [label="MonthlyIncome <= 130875.0\nentropy = 0.624\nsamples = 45\nvalue = [7, 38]\nclass = Yes Attrition", fillcolor="#5dafea"] ;
270 -> 272 ;
273 [label="MaritalStatus_encoded <= 1.5\nentropy = 0.172\nsamples = 39\nvalue = [1, 38]\nclass = Yes Attrition", fillcolor="#3ea0e6"] ;
272 -> 273 ;
274 [label="entropy = 0.0\nsamples = 38\nvalue = [0, 38]\nclass = Yes Attrition", fillcolor="#399de5"] ;
273 -> 274 ;
275 [label="entropy = 0.0\nsamples = 1\nvalue = [1, 0]\nclass = No Attrition", fillcolor="#e58139"] ;
273 -> 275 ;
276 [label="entropy = 0.0\nsamples = 6\nvalue = [6, 0]\nclass = No Attrition", fillcolor="#e58139"] ;
272 -> 276 ;
277 [label="DistanceFromHome <= 9.5\nentropy = 0.788\nsamples = 161\nvalue = [38, 123]\nclass = Yes Attrition", fillcolor="#76bbed"] ;
263 -> 277 ;
278 [label="EducationField_encoded <= 2.5\nentropy = 0.628\nsamples = 146\nvalue = [23, 123]\nclass = Yes Attrition", fillcolor="#5eafea"] ;
277 -> 278 ;
279 [label="Age <= 37.5\nentropy = 0.926\nsamples = 41\nvalue = [14, 27]\nclass = Yes Attrition", fillcolor="#a0d0f2"] ;
278 -> 279 ;
280 [label="TrainingTimesLastYear <= 2.5\nentropy = 0.362\nsamples = 29\nvalue = [2, 27]\nclass = Yes Attrition", fillcolor="#48a4e7"] ;
279 -> 280 ;
281 [label="entropy = 0.0\nsamples = 27\nvalue = [0, 27]\nclass = Yes Attrition", fillcolor="#399de5"] ;
280 -> 281 ;
282 [label="entropy = 0.0\nsamples = 2\nvalue = [2, 0]\nclass = No Attrition", fillcolor="#e58139"] ;
280 -> 282 ;
283 [label="entropy = 0.0\nsamples = 12\nvalue = [12, 0]\nclass = No Attrition", fillcolor="#e58139"] ;
279 -> 283 ;
284 [label="PercentSalaryHike <= 16.0\nentropy = 0.422\nsamples = 105\nvalue = [9, 96]\nclass = Yes Attrition", fillcolor="#4ca6e7"] ;
278 -> 284 ;
285 [label="YearsAtCompany <= 7.0\nentropy = 0.1\nsamples = 77\nvalue = [1, 76]\nclass = Yes Attrition", fillcolor="#3c9ee5"] ;
284 -> 285 ;
286 [label="entropy = 0.0\nsamples = 76\nvalue = [0, 76]\nclass = Yes Attrition", fillcolor="#399de5"] ;
285 -> 286 ;
287 [label="entropy = 0.0\nsamples = 1\nvalue = [1, 0]\nclass = No Attrition", fillcolor="#e58139"] ;
285 -> 287 ;
288 [label="WorkLifeBalance <= 2.5\nentropy = 0.863\nsamples = 28\nvalue = [8, 20]\nclass = Yes Attrition", fillcolor="#88c4ef"] ;
284 -> 288 ;
289 [label="entropy = 0.0\nsamples = 20\nvalue = [0, 20]\nclass = Yes Attrition", fillcolor="#399de5"] ;
288 -> 289 ;
290 [label="entropy = 0.0\nsamples = 8\nvalue = [8, 0]\nclass = No Attrition", fillcolor="#e58139"] ;
288 -> 290 ;
291 [label="entropy = 0.0\nsamples = 15\nvalue = [15, 0]\nclass = No Attrition", fillcolor="#e58139"] ;
277 -> 291 ;
292 [label="PercentSalaryHike <= 18.5\nentropy = 0.964\nsamples = 871\nvalue = [533, 338]\nclass = No Attrition", fillcolor="#f5d1b7"] ;
262 -> 292 ;
293 [label="PercentSalaryHike <= 13.5\nentropy = 0.9\nsamples = 639\nvalue = [437, 202]\nclass = No Attrition", fillcolor="#f1bb95"] ;
292 -> 293 ;
294 [label="YearsWithCurrManager <= 8.5\nentropy = 0.974\nsamples = 372\nvalue = [221, 151]\nclass = No Attrition", fillcolor="#f7d7c0"] ;
293 -> 294 ;
295 [label="EducationField_encoded <= 3.5\nentropy = 0.991\nsamples = 341\nvalue = [190, 151]\nclass = No Attrition", fillcolor="#fae5d6"] ;
294 -> 295 ;
296 [label="BusinessTravel_encoded <= 1.5\nentropy = 1.0\nsamples = 279\nvalue = [136, 143]\nclass = Yes Attrition", fillcolor="#f5fafe"] ;
295 -> 296 ;
297 [label="JobLevel <= 1.5\nentropy = 0.631\nsamples = 63\nvalue = [10, 53]\nclass = Yes Attrition", fillcolor="#5eafea"] ;
296 -> 297 ;
298 [label="YearsAtCompany <= 3.5\nentropy = 0.367\nsamples = 57\nvalue = [4, 53]\nclass = Yes Attrition", fillcolor="#48a4e7"] ;
297 -> 298 ;
299 [label="entropy = 0.0\nsamples = 2\nvalue = [2, 0]\nclass = No Attrition", fillcolor="#e58139"] ;
298 -> 299 ;
300 [label="entropy = 0.225\nsamples = 55\nvalue = [2, 53]\nclass = Yes Attrition", fillcolor="#40a1e6"] ;
298 -> 300 ;
301 [label="entropy = 0.0\nsamples = 6\nvalue = [6, 0]\nclass = No Attrition", fillcolor="#e58139"] ;
297 -> 301 ;
302 [label="MonthlyIncome <= 22545.0\nentropy = 0.98\nsamples = 216\nvalue = [126, 90]\nclass = No Attrition", fillcolor="#f8dbc6"] ;
296 -> 302 ;
303 [label="MonthlyIncome <= 20390.0\nentropy = 0.503\nsamples = 36\nvalue = [4, 32]\nclass = Yes Attrition", fillcolor="#52a9e8"] ;
302 -> 303 ;
304 [label="entropy = 0.0\nsamples = 4\nvalue = [4, 0]\nclass = No Attrition", fillcolor="#e58139"] ;
303 -> 304 ;
305 [label="entropy = 0.0\nsamples = 32\nvalue = [0, 32]\nclass = Yes Attrition", fillcolor="#399de5"] ;
303 -> 305 ;
306 [label="MonthlyIncome <= 43670.0\nentropy = 0.907\nsamples = 180\nvalue = [122, 58]\nclass = No Attrition", fillcolor="#f1bd97"] ;
302 -> 306 ;
307 [label="entropy = 0.0\nsamples = 58\nvalue = [58, 0]\nclass = No Attrition", fillcolor="#e58139"] ;
306 -> 307 ;
308 [label="entropy = 0.998\nsamples = 122\nvalue = [64, 58]\nclass = No Attrition", fillcolor="#fdf3ec"] ;
306 -> 308 ;
309 [label="YearsSinceLastPromotion <= 6.5\nentropy = 0.555\nsamples = 62\nvalue = [54, 8]\nclass = No Attrition", fillcolor="#e99456"] ;
295 -> 309 ;
310 [label="entropy = 0.0\nsamples = 54\nvalue = [54, 0]\nclass = No Attrition", fillcolor="#e58139"] ;
309 -> 310 ;
311 [label="entropy = 0.0\nsamples = 8\nvalue = [0, 8]\nclass = Yes Attrition", fillcolor="#399de5"] ;
309 -> 311 ;
312 [label="entropy = 0.0\nsamples = 31\nvalue = [31, 0]\nclass = No Attrition", fillcolor="#e58139"] ;
294 -> 312 ;
313 [label="Age <= 48.0\nentropy = 0.704\nsamples = 267\nvalue = [216, 51]\nclass = No Attrition", fillcolor="#eb9f68"] ;
293 -> 313 ;
314 [label="YearsSinceLastPromotion <= 13.5\nentropy = 0.307\nsamples = 200\nvalue = [189, 11]\nclass = No Attrition", fillcolor="#e78845"] ;
313 -> 314 ;
315 [label="entropy = 0.0\nsamples = 189\nvalue = [189, 0]\nclass = No Attrition", fillcolor="#e58139"] ;
314 -> 315 ;
316 [label="entropy = 0.0\nsamples = 11\nvalue = [0, 11]\nclass = Yes Attrition", fillcolor="#399de5"] ;
314 -> 316 ;
317 [label="Education <= 2.5\nentropy = 0.973\nsamples = 67\nvalue = [27, 40]\nclass = Yes Attrition", fillcolor="#bfdff7"] ;
313 -> 317 ;
318 [label="YearsWithCurrManager <= 7.5\nentropy = 0.559\nsamples = 46\nvalue = [6, 40]\nclass = Yes Attrition", fillcolor="#57ace9"] ;
317 -> 318 ;
319 [label="entropy = 0.0\nsamples = 40\nvalue = [0, 40]\nclass = Yes Attrition", fillcolor="#399de5"] ;
318 -> 319 ;
320 [label="entropy = 0.0\nsamples = 6\nvalue = [6, 0]\nclass = No Attrition", fillcolor="#e58139"] ;
318 -> 320 ;
321 [label="entropy = 0.0\nsamples = 21\nvalue = [21, 0]\nclass = No Attrition", fillcolor="#e58139"] ;
317 -> 321 ;
322 [label="MonthlyIncome <= 25275.0\nentropy = 0.978\nsamples = 232\nvalue = [96, 136]\nclass = Yes Attrition", fillcolor="#c5e2f7"] ;
292 -> 322 ;
323 [label="entropy = 0.0\nsamples = 18\nvalue = [18, 0]\nclass = No Attrition", fillcolor="#e58139"] ;
322 -> 323 ;
324 [label="MonthlyIncome <= 61260.0\nentropy = 0.946\nsamples = 214\nvalue = [78, 136]\nclass = Yes Attrition", fillcolor="#abd5f4"] ;
322 -> 324 ;
325 [label="YearsSinceLastPromotion <= 1.5\nentropy = 0.803\nsamples = 151\nvalue = [37, 114]\nclass = Yes Attrition", fillcolor="#79bded"] ;
324 -> 325 ;
326 [label="TotalWorkingYears <= 7.5\nentropy = 0.998\nsamples = 72\nvalue = [34, 38]\nclass = Yes Attrition", fillcolor="#eaf5fc"] ;
325 -> 326 ;
327 [label="JobInvolvement <= 1.5\nentropy = 0.439\nsamples = 33\nvalue = [3, 30]\nclass = Yes Attrition", fillcolor="#4da7e8"] ;
326 -> 327 ;
328 [label="entropy = 0.0\nsamples = 3\nvalue = [3, 0]\nclass = No Attrition", fillcolor="#e58139"] ;
327 -> 328 ;
329 [label="entropy = 0.0\nsamples = 30\nvalue = [0, 30]\nclass = Yes Attrition", fillcolor="#399de5"] ;
327 -> 329 ;
330 [label="MonthlyIncome <= 27810.0\nentropy = 0.732\nsamples = 39\nvalue = [31, 8]\nclass = No Attrition", fillcolor="#eca26c"] ;
326 -> 330 ;
331 [label="NumCompaniesWorked <= 2.5\nentropy = 0.722\nsamples = 10\nvalue = [2, 8]\nclass = Yes Attrition", fillcolor="#6ab6ec"] ;
330 -> 331 ;
332 [label="entropy = 0.0\nsamples = 2\nvalue = [2, 0]\nclass = No Attrition", fillcolor="#e58139"] ;
331 -> 332 ;
333 [label="entropy = 0.0\nsamples = 8\nvalue = [0, 8]\nclass = Yes Attrition", fillcolor="#399de5"] ;
331 -> 333 ;
334 [label="entropy = 0.0\nsamples = 29\nvalue = [29, 0]\nclass = No Attrition", fillcolor="#e58139"] ;
330 -> 334 ;
335 [label="YearsAtCompany <= 10.5\nentropy = 0.233\nsamples = 79\nvalue = [3, 76]\nclass = Yes Attrition", fillcolor="#41a1e6"] ;
325 -> 335 ;
336 [label="entropy = 0.0\nsamples = 76\nvalue = [0, 76]\nclass = Yes Attrition", fillcolor="#399de5"] ;
335 -> 336 ;
337 [label="entropy = 0.0\nsamples = 3\nvalue = [3, 0]\nclass = No Attrition", fillcolor="#e58139"] ;
335 -> 337 ;
338 [label="Education <= 2.5\nentropy = 0.933\nsamples = 63\nvalue = [41, 22]\nclass = No Attrition", fillcolor="#f3c5a3"] ;
324 -> 338 ;
339 [label="YearsWithCurrManager <= 6.0\nentropy = 0.918\nsamples = 33\nvalue = [11, 22]\nclass = Yes Attrition", fillcolor="#9ccef2"] ;
338 -> 339 ;
340 [label="entropy = 0.0\nsamples = 8\nvalue = [8, 0]\nclass = No Attrition", fillcolor="#e58139"] ;
339 -> 340 ;
341 [label="JobRole_encoded <= 2.0\nentropy = 0.529\nsamples = 25\nvalue = [3, 22]\nclass = Yes Attrition", fillcolor="#54aae9"] ;
339 -> 341 ;
342 [label="entropy = 0.0\nsamples = 3\nvalue = [3, 0]\nclass = No Attrition", fillcolor="#e58139"] ;
341 -> 342 ;
343 [label="entropy = 0.0\nsamples = 22\nvalue = [0, 22]\nclass = Yes Attrition", fillcolor="#399de5"] ;
341 -> 343 ;
344 [label="entropy = 0.0\nsamples = 30\nvalue = [30, 0]\nclass = No Attrition", fillcolor="#e58139"] ;
338 -> 344 ;
345 [label="JobSatisfaction <= 1.5\nentropy = 0.751\nsamples = 344\nvalue = [270, 74]\nclass = No Attrition", fillcolor="#eca46f"] ;
261 -> 345 ;
346 [label="Education <= 2.5\nentropy = 0.995\nsamples = 85\nvalue = [39, 46]\nclass = Yes Attrition", fillcolor="#e1f0fb"] ;
345 -> 346 ;
347 [label="entropy = 0.0\nsamples = 22\nvalue = [22, 0]\nclass = No Attrition", fillcolor="#e58139"] ;
346 -> 347 ;
348 [label="MonthlyIncome <= 23085.0\nentropy = 0.841\nsamples = 63\nvalue = [17, 46]\nclass = Yes Attrition", fillcolor="#82c1ef"] ;
346 -> 348 ;
349 [label="entropy = 0.0\nsamples = 30\nvalue = [0, 30]\nclass = Yes Attrition", fillcolor="#399de5"] ;
348 -> 349 ;
350 [label="YearsWithCurrManager <= 4.5\nentropy = 0.999\nsamples = 33\nvalue = [17, 16]\nclass = No Attrition", fillcolor="#fdf8f3"] ;
348 -> 350 ;
351 [label="JobInvolvement <= 2.0\nentropy = 0.323\nsamples = 17\nvalue = [1, 16]\nclass = Yes Attrition", fillcolor="#45a3e7"] ;
350 -> 351 ;
352 [label="entropy = 0.0\nsamples = 1\nvalue = [1, 0]\nclass = No Attrition", fillcolor="#e58139"] ;
351 -> 352 ;
353 [label="entropy = 0.0\nsamples = 16\nvalue = [0, 16]\nclass = Yes Attrition", fillcolor="#399de5"] ;
351 -> 353 ;
354 [label="entropy = 0.0\nsamples = 16\nvalue = [16, 0]\nclass = No Attrition", fillcolor="#e58139"] ;
350 -> 354 ;
355 [label="YearsAtCompany <= 21.5\nentropy = 0.494\nsamples = 259\nvalue = [231, 28]\nclass = No Attrition", fillcolor="#e89051"] ;
345 -> 355 ;
356 [label="entropy = 0.0\nsamples = 181\nvalue = [181, 0]\nclass = No Attrition", fillcolor="#e58139"] ;
355 -> 356 ;
357 [label="MonthlyIncome <= 97085.0\nentropy = 0.942\nsamples = 78\nvalue = [50, 28]\nclass = No Attrition", fillcolor="#f4c8a8"] ;
355 -> 357 ;
358 [label="PercentSalaryHike <= 23.0\nentropy = 0.605\nsamples = 54\nvalue = [46, 8]\nclass = No Attrition", fillcolor="#ea975b"] ;
357 -> 358 ;
359 [label="entropy = 0.0\nsamples = 46\nvalue = [46, 0]\nclass = No Attrition", fillcolor="#e58139"] ;
358 -> 359 ;
360 [label="entropy = 0.0\nsamples = 8\nvalue = [0, 8]\nclass = Yes Attrition", fillcolor="#399de5"] ;
358 -> 360 ;
361 [label="Age <= 47.5\nentropy = 0.65\nsamples = 24\nvalue = [4, 20]\nclass = Yes Attrition", fillcolor="#61b1ea"] ;
357 -> 361 ;
362 [label="entropy = 0.0\nsamples = 20\nvalue = [0, 20]\nclass = Yes Attrition", fillcolor="#399de5"] ;
361 -> 362 ;
363 [label="entropy = 0.0\nsamples = 4\nvalue = [4, 0]\nclass = No Attrition", fillcolor="#e58139"] ;
361 -> 363 ;
364 [label="entropy = 0.0\nsamples = 28\nvalue = [0, 28]\nclass = Yes Attrition", fillcolor="#399de5"] ;
260 -> 364 ;
365 [label="entropy = 0.0\nsamples = 126\nvalue = [126, 0]\nclass = No Attrition", fillcolor="#e58139"] ;
253 -> 365 ;
366 [label="DistanceFromHome <= 8.5\nentropy = 0.539\nsamples = 324\nvalue = [284, 40]\nclass = No Attrition", fillcolor="#e99355"] ;
252 -> 366 ;
367 [label="entropy = 0.0\nsamples = 185\nvalue = [185, 0]\nclass = No Attrition", fillcolor="#e58139"] ;
366 -> 367 ;
368 [label="Age <= 37.5\nentropy = 0.866\nsamples = 139\nvalue = [99, 40]\nclass = No Attrition", fillcolor="#f0b489"] ;
366 -> 368 ;
369 [label="JobSatisfaction <= 1.5\nentropy = 0.993\nsamples = 73\nvalue = [33, 40]\nclass = Yes Attrition", fillcolor="#dceefa"] ;
368 -> 369 ;
370 [label="EducationField_encoded <= 2.5\nentropy = 0.544\nsamples = 40\nvalue = [5, 35]\nclass = Yes Attrition", fillcolor="#55abe9"] ;
369 -> 370 ;
371 [label="Education <= 3.5\nentropy = 0.183\nsamples = 36\nvalue = [1, 35]\nclass = Yes Attrition", fillcolor="#3fa0e6"] ;
370 -> 371 ;
372 [label="entropy = 0.0\nsamples = 35\nvalue = [0, 35]\nclass = Yes Attrition", fillcolor="#399de5"] ;
371 -> 372 ;
373 [label="entropy = 0.0\nsamples = 1\nvalue = [1, 0]\nclass = No Attrition", fillcolor="#e58139"] ;
371 -> 373 ;
374 [label="entropy = 0.0\nsamples = 4\nvalue = [4, 0]\nclass = No Attrition", fillcolor="#e58139"] ;
370 -> 374 ;
375 [label="MonthlyIncome <= 20245.0\nentropy = 0.614\nsamples = 33\nvalue = [28, 5]\nclass = No Attrition", fillcolor="#ea985c"] ;
369 -> 375 ;
376 [label="entropy = 0.0\nsamples = 5\nvalue = [0, 5]\nclass = Yes Attrition", fillcolor="#399de5"] ;
375 -> 376 ;
377 [label="entropy = 0.0\nsamples = 28\nvalue = [28, 0]\nclass = No Attrition", fillcolor="#e58139"] ;
375 -> 377 ;
378 [label="entropy = 0.0\nsamples = 66\nvalue = [66, 0]\nclass = No Attrition", fillcolor="#e58139"] ;
368 -> 378 ;
}
