digraph Tree {
node [shape=box, style="filled", color="black", fontname="helvetica"] ;
edge [fontname="helvetica"] ;
0 [label="JobSatisfaction <= 3.999\ngini = 0.5\nsamples = 5178\nvalue = [2573, 2605]\nclass = Yes Attrition", fillcolor="#fdfeff"] ;
1 [label="YearsWithCurrManager <= 6.5\ngini = 0.487\nsamples = 4098\nvalue = [1722, 2376]\nclass = Yes Attrition", fillcolor="#c8e4f8"] ;
0 -> 1 [labeldistance=2.5, labelangle=45, headlabel="True"] ;
2 [label="EnvironmentSatisfaction <= 4.0\ngini = 0.453\nsamples = 3210\nvalue = [1114, 2096]\nclass = Yes Attrition", fillcolor="#a2d1f3"] ;
1 -> 2 ;
3 [label="EnvironmentSatisfaction <= 3.001\ngini = 0.411\nsamples = 2639\nvalue = [762, 1877]\nclass = Yes Attrition", fillcolor="#89c5f0"] ;
2 -> 3 ;
4 [label="EnvironmentSatisfaction <= 3.0\ngini = 0.447\nsamples = 2258\nvalue = [762, 1496]\nclass = Yes Attrition", fillcolor="#9ecff2"] ;
3 -> 4 ;
5 [label="EnvironmentSatisfaction <= 2.002\ngini = 0.362\nsamples = 1679\nvalue = [398, 1281]\nclass = Yes Attrition", fillcolor="#77bbed"] ;
4 -> 5 ;
6 [label="EnvironmentSatisfaction <= 2.0\ngini = 0.441\nsamples = 1215\nvalue = [398, 817]\nclass = Yes Attrition", fillcolor="#99cdf2"] ;
5 -> 6 ;
7 [label="EnvironmentSatisfaction <= 1.001\ngini = 0.333\nsamples = 895\nvalue = [189, 706]\nclass = Yes Attrition", fillcolor="#6eb7ec"] ;
6 -> 7 ;
8 [label="YearsWithCurrManager <= 1.5\ngini = 0.48\nsamples = 473\nvalue = [189, 284]\nclass = Yes Attrition", fillcolor="#bddef6"] ;
7 -> 8 ;
9 [label="DistanceFromHome <= 1.5\ngini = 0.305\nsamples = 197\nvalue = [37, 160]\nclass = Yes Attrition", fillcolor="#67b4eb"] ;
8 -> 9 ;
10 [label="JobInvolvement <= 2.5\ngini = 0.198\nsamples = 9\nvalue = [8, 1]\nclass = No Attrition", fillcolor="#e89152"] ;
9 -> 10 ;
11 [label="gini = 0.0\nsamples = 1\nvalue = [0, 1]\nclass = Yes Attrition", fillcolor="#399de5"] ;
10 -> 11 ;
12 [label="gini = 0.0\nsamples = 8\nvalue = [8, 0]\nclass = No Attrition", fillcolor="#e58139"] ;
10 -> 12 ;
13 [label="Age <= 39.5\ngini = 0.261\nsamples = 188\nvalue = [29, 159]\nclass = Yes Attrition", fillcolor="#5dafea"] ;
9 -> 13 ;
14 [label="StockOptionLevel <= 2.5\ngini = 0.154\nsamples = 155\nvalue = [13, 142]\nclass = Yes Attrition", fillcolor="#4ba6e7"] ;
13 -> 14 ;
15 [label="YearsAtCompany <= 7.5\ngini = 0.079\nsamples = 146\nvalue = [6, 140]\nclass = Yes Attrition", fillcolor="#41a1e6"] ;
14 -> 15 ;
16 [label="Education <= 3.5\ngini = 0.054\nsamples = 144\nvalue = [4, 140]\nclass = Yes Attrition", fillcolor="#3fa0e6"] ;
15 -> 16 ;
17 [label="YearsSinceLastPromotion <= 1.5\ngini = 0.015\nsamples = 133\nvalue = [1, 132]\nclass = Yes Attrition", fillcolor="#3b9ee5"] ;
16 -> 17 ;
18 [label="gini = 0.0\nsamples = 126\nvalue = [0, 126]\nclass = Yes Attrition", fillcolor="#399de5"] ;
17 -> 18 ;
19 [label="DistanceFromHome <= 5.0\ngini = 0.245\nsamples = 7\nvalue = [1, 6]\nclass = Yes Attrition", fillcolor="#5aade9"] ;
17 -> 19 ;
20 [label="gini = 0.0\nsamples = 1\nvalue = [1, 0]\nclass = No Attrition", fillcolor="#e58139"] ;
19 -> 20 ;
21 [label="gini = 0.0\nsamples = 6\nvalue = [0, 6]\nclass = Yes Attrition", fillcolor="#399de5"] ;
19 -> 21 ;
22 [label="PercentSalaryHike <= 15.5\ngini = 0.397\nsamples = 11\nvalue = [3, 8]\nclass = Yes Attrition", fillcolor="#83c2ef"] ;
16 -> 22 ;
23 [label="gini = 0.0\nsamples = 8\nvalue = [0, 8]\nclass = Yes Attrition", fillcolor="#399de5"] ;
22 -> 23 ;
24 [label="gini = 0.0\nsamples = 3\nvalue = [3, 0]\nclass = No Attrition", fillcolor="#e58139"] ;
22 -> 24 ;
25 [label="gini = 0.0\nsamples = 2\nvalue = [2, 0]\nclass = No Attrition", fillcolor="#e58139"] ;
15 -> 25 ;
26 [label="TrainingTimesLastYear <= 1.5\ngini = 0.346\nsamples = 9\nvalue = [7, 2]\nclass = No Attrition", fillcolor="#eca572"] ;
14 -> 26 ;
27 [label="gini = 0.0\nsamples = 2\nvalue = [0, 2]\nclass = Yes Attrition", fillcolor="#399de5"] ;
26 -> 27 ;
28 [label="gini = 0.0\nsamples = 7\nvalue = [7, 0]\nclass = No Attrition", fillcolor="#e58139"] ;
26 -> 28 ;
29 [label="Department_encoded <= 1.5\ngini = 0.5\nsamples = 33\nvalue = [16, 17]\nclass = Yes Attrition", fillcolor="#f3f9fd"] ;
13 -> 29 ;
30 [label="Department_encoded <= 0.5\ngini = 0.308\nsamples = 21\nvalue = [4, 17]\nclass = Yes Attrition", fillcolor="#68b4eb"] ;
29 -> 30 ;
31 [label="gini = 0.0\nsamples = 2\nvalue = [2, 0]\nclass = No Attrition", fillcolor="#e58139"] ;
30 -> 31 ;
32 [label="WorkLifeBalance <= 3.5\ngini = 0.188\nsamples = 19\nvalue = [2, 17]\nclass = Yes Attrition", fillcolor="#50a9e8"] ;
30 -> 32 ;
33 [label="JobLevel <= 4.0\ngini = 0.105\nsamples = 18\nvalue = [1, 17]\nclass = Yes Attrition", fillcolor="#45a3e7"] ;
32 -> 33 ;
34 [label="gini = 0.0\nsamples = 17\nvalue = [0, 17]\nclass = Yes Attrition", fillcolor="#399de5"] ;
33 -> 34 ;
35 [label="gini = 0.0\nsamples = 1\nvalue = [1, 0]\nclass = No Attrition", fillcolor="#e58139"] ;
33 -> 35 ;
36 [label="gini = 0.0\nsamples = 1\nvalue = [1, 0]\nclass = No Attrition", fillcolor="#e58139"] ;
32 -> 36 ;
37 [label="gini = 0.0\nsamples = 12\nvalue = [12, 0]\nclass = No Attrition", fillcolor="#e58139"] ;
29 -> 37 ;
38 [label="MonthlyIncome <= 29950.5\ngini = 0.495\nsamples = 276\nvalue = [152, 124]\nclass = No Attrition", fillcolor="#fae8db"] ;
8 -> 38 ;
39 [label="Age <= 34.5\ngini = 0.298\nsamples = 66\nvalue = [54, 12]\nclass = No Attrition", fillcolor="#eb9d65"] ;
38 -> 39 ;
40 [label="Education <= 2.5\ngini = 0.466\nsamples = 27\nvalue = [17, 10]\nclass = No Attrition", fillcolor="#f4cbad"] ;
39 -> 40 ;
41 [label="gini = 0.0\nsamples = 6\nvalue = [0, 6]\nclass = Yes Attrition", fillcolor="#399de5"] ;
40 -> 41 ;
42 [label="TotalWorkingYears <= 5.5\ngini = 0.308\nsamples = 21\nvalue = [17, 4]\nclass = No Attrition", fillcolor="#eb9f68"] ;
40 -> 42 ;
43 [label="StockOptionLevel <= 1.5\ngini = 0.444\nsamples = 6\nvalue = [2, 4]\nclass = Yes Attrition", fillcolor="#9ccef2"] ;
42 -> 43 ;
44 [label="gini = 0.0\nsamples = 4\nvalue = [0, 4]\nclass = Yes Attrition", fillcolor="#399de5"] ;
43 -> 44 ;
45 [label="gini = 0.0\nsamples = 2\nvalue = [2, 0]\nclass = No Attrition", fillcolor="#e58139"] ;
43 -> 45 ;
46 [label="gini = 0.0\nsamples = 15\nvalue = [15, 0]\nclass = No Attrition", fillcolor="#e58139"] ;
42 -> 46 ;
47 [label="EmployeeID <= 814.5\ngini = 0.097\nsamples = 39\nvalue = [37, 2]\nclass = No Attrition", fillcolor="#e68844"] ;
39 -> 47 ;
48 [label="EmployeeID <= 715.0\ngini = 0.408\nsamples = 7\nvalue = [5, 2]\nclass = No Attrition", fillcolor="#efb388"] ;
47 -> 48 ;
49 [label="gini = 0.0\nsamples = 5\nvalue = [5, 0]\nclass = No Attrition", fillcolor="#e58139"] ;
48 -> 49 ;
50 [label="gini = 0.0\nsamples = 2\nvalue = [0, 2]\nclass = Yes Attrition", fillcolor="#399de5"] ;
48 -> 50 ;
51 [label="gini = 0.0\nsamples = 32\nvalue = [32, 0]\nclass = No Attrition", fillcolor="#e58139"] ;
47 -> 51 ;
52 [label="NumCompaniesWorked <= 0.098\ngini = 0.498\nsamples = 210\nvalue = [98, 112]\nclass = Yes Attrition", fillcolor="#e6f3fc"] ;
38 -> 52 ;
53 [label="JobSatisfaction <= 1.5\ngini = 0.159\nsamples = 23\nvalue = [21, 2]\nclass = No Attrition", fillcolor="#e78d4c"] ;
52 -> 53 ;
54 [label="PercentSalaryHike <= 19.0\ngini = 0.5\nsamples = 4\nvalue = [2, 2]\nclass = No Attrition", fillcolor="#ffffff"] ;
53 -> 54 ;
55 [label="gini = 0.0\nsamples = 2\nvalue = [0, 2]\nclass = Yes Attrition", fillcolor="#399de5"] ;
54 -> 55 ;
56 [label="gini = 0.0\nsamples = 2\nvalue = [2, 0]\nclass = No Attrition", fillcolor="#e58139"] ;
54 -> 56 ;
57 [label="gini = 0.0\nsamples = 19\nvalue = [19, 0]\nclass = No Attrition", fillcolor="#e58139"] ;
53 -> 57 ;
58 [label="YearsAtCompany <= 2.5\ngini = 0.484\nsamples = 187\nvalue = [77, 110]\nclass = Yes Attrition", fillcolor="#c4e2f7"] ;
52 -> 58 ;
59 [label="BusinessTravel_encoded <= 1.5\ngini = 0.34\nsamples = 23\nvalue = [18, 5]\nclass = No Attrition", fillcolor="#eca470"] ;
58 -> 59 ;
60 [label="gini = 0.0\nsamples = 2\nvalue = [0, 2]\nclass = Yes Attrition", fillcolor="#399de5"] ;
59 -> 60 ;
61 [label="MonthlyIncome <= 37280.0\ngini = 0.245\nsamples = 21\nvalue = [18, 3]\nclass = No Attrition", fillcolor="#e9965a"] ;
59 -> 61 ;
62 [label="Department_encoded <= 1.5\ngini = 0.5\nsamples = 6\nvalue = [3, 3]\nclass = No Attrition", fillcolor="#ffffff"] ;
61 -> 62 ;
63 [label="gini = 0.0\nsamples = 3\nvalue = [0, 3]\nclass = Yes Attrition", fillcolor="#399de5"] ;
62 -> 63 ;
64 [label="gini = 0.0\nsamples = 3\nvalue = [3, 0]\nclass = No Attrition", fillcolor="#e58139"] ;
62 -> 64 ;
65 [label="gini = 0.0\nsamples = 15\nvalue = [15, 0]\nclass = No Attrition", fillcolor="#e58139"] ;
61 -> 65 ;
66 [label="JobRole_encoded <= 6.5\ngini = 0.461\nsamples = 164\nvalue = [59, 105]\nclass = Yes Attrition", fillcolor="#a8d4f4"] ;
58 -> 66 ;
67 [label="JobRole_encoded <= 3.5\ngini = 0.424\nsamples = 144\nvalue = [44, 100]\nclass = Yes Attrition", fillcolor="#90c8f0"] ;
66 -> 67 ;
68 [label="Age <= 31.5\ngini = 0.5\nsamples = 51\nvalue = [26, 25]\nclass = No Attrition", fillcolor="#fefaf7"] ;
67 -> 68 ;
69 [label="gini = 0.0\nsamples = 14\nvalue = [14, 0]\nclass = No Attrition", fillcolor="#e58139"] ;
68 -> 69 ;
70 [label="Education <= 1.5\ngini = 0.438\nsamples = 37\nvalue = [12, 25]\nclass = Yes Attrition", fillcolor="#98ccf1"] ;
68 -> 70 ;
71 [label="gini = 0.0\nsamples = 5\nvalue = [5, 0]\nclass = No Attrition", fillcolor="#e58139"] ;
70 -> 71 ;
72 [label="TotalWorkingYears <= 5.5\ngini = 0.342\nsamples = 32\nvalue = [7, 25]\nclass = Yes Attrition", fillcolor="#70b8ec"] ;
70 -> 72 ;
73 [label="gini = 0.0\nsamples = 2\nvalue = [2, 0]\nclass = No Attrition", fillcolor="#e58139"] ;
72 -> 73 ;
74 [label="gini = 0.278\nsamples = 30\nvalue = [5, 25]\nclass = Yes Attrition", fillcolor="#61b1ea"] ;
72 -> 74 ;
75 [label="EducationField_encoded <= 1.5\ngini = 0.312\nsamples = 93\nvalue = [18, 75]\nclass = Yes Attrition", fillcolor="#69b5eb"] ;
67 -> 75 ;
76 [label="JobSatisfaction <= 1.965\ngini = 0.499\nsamples = 25\nvalue = [12, 13]\nclass = Yes Attrition", fillcolor="#f0f7fd"] ;
75 -> 76 ;
77 [label="BusinessTravel_encoded <= 0.5\ngini = 0.142\nsamples = 13\nvalue = [1, 12]\nclass = Yes Attrition", fillcolor="#49a5e7"] ;
76 -> 77 ;
78 [label="gini = 0.0\nsamples = 1\nvalue = [1, 0]\nclass = No Attrition", fillcolor="#e58139"] ;
77 -> 78 ;
79 [label="gini = 0.0\nsamples = 12\nvalue = [0, 12]\nclass = Yes Attrition", fillcolor="#399de5"] ;
77 -> 79 ;
80 [label="DistanceFromHome <= 9.0\ngini = 0.153\nsamples = 12\nvalue = [11, 1]\nclass = No Attrition", fillcolor="#e78c4b"] ;
76 -> 80 ;
81 [label="gini = 0.0\nsamples = 11\nvalue = [11, 0]\nclass = No Attrition", fillcolor="#e58139"] ;
80 -> 81 ;
82 [label="gini = 0.0\nsamples = 1\nvalue = [0, 1]\nclass = Yes Attrition", fillcolor="#399de5"] ;
80 -> 82 ;
83 [label="EducationField_encoded <= 3.5\ngini = 0.161\nsamples = 68\nvalue = [6, 62]\nclass = Yes Attrition", fillcolor="#4ca6e8"] ;
75 -> 83 ;
84 [label="EmployeeID <= 4213.0\ngini = 0.061\nsamples = 63\nvalue = [2, 61]\nclass = Yes Attrition", fillcolor="#3fa0e6"] ;
83 -> 84 ;
85 [label="gini = 0.032\nsamples = 62\nvalue = [1, 61]\nclass = Yes Attrition", fillcolor="#3c9fe5"] ;
84 -> 85 ;
86 [label="gini = 0.0\nsamples = 1\nvalue = [1, 0]\nclass = No Attrition", fillcolor="#e58139"] ;
84 -> 86 ;
87 [label="JobInvolvement <= 2.0\ngini = 0.32\nsamples = 5\nvalue = [4, 1]\nclass = No Attrition", fillcolor="#eca06a"] ;
83 -> 87 ;
88 [label="gini = 0.0\nsamples = 1\nvalue = [0, 1]\nclass = Yes Attrition", fillcolor="#399de5"] ;
87 -> 88 ;
89 [label="gini = 0.0\nsamples = 4\nvalue = [4, 0]\nclass = No Attrition", fillcolor="#e58139"] ;
87 -> 89 ;
90 [label="NumCompaniesWorked <= 6.744\ngini = 0.375\nsamples = 20\nvalue = [15, 5]\nclass = No Attrition", fillcolor="#eeab7b"] ;
66 -> 90 ;
91 [label="YearsWithCurrManager <= 5.0\ngini = 0.208\nsamples = 17\nvalue = [15, 2]\nclass = No Attrition", fillcolor="#e89253"] ;
90 -> 91 ;
92 [label="gini = 0.0\nsamples = 15\nvalue = [15, 0]\nclass = No Attrition", fillcolor="#e58139"] ;
91 -> 92 ;
93 [label="gini = 0.0\nsamples = 2\nvalue = [0, 2]\nclass = Yes Attrition", fillcolor="#399de5"] ;
91 -> 93 ;
94 [label="gini = 0.0\nsamples = 3\nvalue = [0, 3]\nclass = Yes Attrition", fillcolor="#399de5"] ;
90 -> 94 ;
95 [label="gini = 0.0\nsamples = 422\nvalue = [0, 422]\nclass = Yes Attrition", fillcolor="#399de5"] ;
7 -> 95 ;
96 [label="JobSatisfaction <= 1.998\ngini = 0.453\nsamples = 320\nvalue = [209, 111]\nclass = No Attrition", fillcolor="#f3c4a2"] ;
6 -> 96 ;
97 [label="MonthlyIncome <= 64543.5\ngini = 0.48\nsamples = 100\nvalue = [40, 60]\nclass = Yes Attrition", fillcolor="#bddef6"] ;
96 -> 97 ;
98 [label="YearsSinceLastPromotion <= 1.5\ngini = 0.416\nsamples = 44\nvalue = [31, 13]\nclass = No Attrition", fillcolor="#f0b68c"] ;
97 -> 98 ;
99 [label="JobInvolvement <= 3.5\ngini = 0.117\nsamples = 32\nvalue = [30, 2]\nclass = No Attrition", fillcolor="#e78946"] ;
98 -> 99 ;
100 [label="gini = 0.0\nsamples = 30\nvalue = [30, 0]\nclass = No Attrition", fillcolor="#e58139"] ;
99 -> 100 ;
101 [label="gini = 0.0\nsamples = 2\nvalue = [0, 2]\nclass = Yes Attrition", fillcolor="#399de5"] ;
99 -> 101 ;
102 [label="NumCompaniesWorked <= 4.0\ngini = 0.153\nsamples = 12\nvalue = [1, 11]\nclass = Yes Attrition", fillcolor="#4ba6e7"] ;
98 -> 102 ;
103 [label="gini = 0.0\nsamples = 1\nvalue = [1, 0]\nclass = No Attrition", fillcolor="#e58139"] ;
102 -> 103 ;
104 [label="gini = 0.0\nsamples = 11\nvalue = [0, 11]\nclass = Yes Attrition", fillcolor="#399de5"] ;
102 -> 104 ;
105 [label="Age <= 40.0\ngini = 0.27\nsamples = 56\nvalue = [9, 47]\nclass = Yes Attrition", fillcolor="#5fb0ea"] ;
97 -> 105 ;
106 [label="DistanceFromHome <= 23.0\ngini = 0.113\nsamples = 50\nvalue = [3, 47]\nclass = Yes Attrition", fillcolor="#46a3e7"] ;
105 -> 106 ;
107 [label="YearsWithCurrManager <= 4.0\ngini = 0.041\nsamples = 48\nvalue = [1, 47]\nclass = Yes Attrition", fillcolor="#3d9fe6"] ;
106 -> 107 ;
108 [label="gini = 0.0\nsamples = 44\nvalue = [0, 44]\nclass = Yes Attrition", fillcolor="#399de5"] ;
107 -> 108 ;
109 [label="EducationField_encoded <= 2.5\ngini = 0.375\nsamples = 4\nvalue = [1, 3]\nclass = Yes Attrition", fillcolor="#7bbeee"] ;
107 -> 109 ;
110 [label="gini = 0.0\nsamples = 3\nvalue = [0, 3]\nclass = Yes Attrition", fillcolor="#399de5"] ;
109 -> 110 ;
111 [label="gini = 0.0\nsamples = 1\nvalue = [1, 0]\nclass = No Attrition", fillcolor="#e58139"] ;
109 -> 111 ;
112 [label="gini = 0.0\nsamples = 2\nvalue = [2, 0]\nclass = No Attrition", fillcolor="#e58139"] ;
106 -> 112 ;
113 [label="gini = 0.0\nsamples = 6\nvalue = [6, 0]\nclass = No Attrition", fillcolor="#e58139"] ;
105 -> 113 ;
114 [label="StockOptionLevel <= 0.5\ngini = 0.356\nsamples = 220\nvalue = [169, 51]\nclass = No Attrition", fillcolor="#eda775"] ;
96 -> 114 ;
115 [label="YearsAtCompany <= 3.5\ngini = 0.468\nsamples = 107\nvalue = [67, 40]\nclass = No Attrition", fillcolor="#f5ccaf"] ;
114 -> 115 ;
116 [label="Age <= 37.5\ngini = 0.495\nsamples = 58\nvalue = [26, 32]\nclass = Yes Attrition", fillcolor="#daedfa"] ;
115 -> 116 ;
117 [label="DistanceFromHome <= 16.0\ngini = 0.332\nsamples = 38\nvalue = [8, 30]\nclass = Yes Attrition", fillcolor="#6eb7ec"] ;
116 -> 117 ;
118 [label="DistanceFromHome <= 1.5\ngini = 0.165\nsamples = 33\nvalue = [3, 30]\nclass = Yes Attrition", fillcolor="#4da7e8"] ;
117 -> 118 ;
119 [label="Department_encoded <= 1.5\ngini = 0.5\nsamples = 6\nvalue = [3, 3]\nclass = No Attrition", fillcolor="#ffffff"] ;
118 -> 119 ;
120 [label="gini = 0.0\nsamples = 3\nvalue = [3, 0]\nclass = No Attrition", fillcolor="#e58139"] ;
119 -> 120 ;
121 [label="gini = 0.0\nsamples = 3\nvalue = [0, 3]\nclass = Yes Attrition", fillcolor="#399de5"] ;
119 -> 121 ;
122 [label="gini = 0.0\nsamples = 27\nvalue = [0, 27]\nclass = Yes Attrition", fillcolor="#399de5"] ;
118 -> 122 ;
123 [label="gini = 0.0\nsamples = 5\nvalue = [5, 0]\nclass = No Attrition", fillcolor="#e58139"] ;
117 -> 123 ;
124 [label="TotalWorkingYears <= 21.0\ngini = 0.18\nsamples = 20\nvalue = [18, 2]\nclass = No Attrition", fillcolor="#e88f4f"] ;
116 -> 124 ;
125 [label="gini = 0.0\nsamples = 18\nvalue = [18, 0]\nclass = No Attrition", fillcolor="#e58139"] ;
124 -> 125 ;
126 [label="gini = 0.0\nsamples = 2\nvalue = [0, 2]\nclass = Yes Attrition", fillcolor="#399de5"] ;
124 -> 126 ;
127 [label="NumCompaniesWorked <= 7.558\ngini = 0.273\nsamples = 49\nvalue = [41, 8]\nclass = No Attrition", fillcolor="#ea9a60"] ;
115 -> 127 ;
128 [label="Age <= 47.0\ngini = 0.046\nsamples = 42\nvalue = [41, 1]\nclass = No Attrition", fillcolor="#e6843e"] ;
127 -> 128 ;
129 [label="gini = 0.0\nsamples = 41\nvalue = [41, 0]\nclass = No Attrition", fillcolor="#e58139"] ;
128 -> 129 ;
130 [label="gini = 0.0\nsamples = 1\nvalue = [0, 1]\nclass = Yes Attrition", fillcolor="#399de5"] ;
128 -> 130 ;
131 [label="gini = 0.0\nsamples = 7\nvalue = [0, 7]\nclass = Yes Attrition", fillcolor="#399de5"] ;
127 -> 131 ;
132 [label="BusinessTravel_encoded <= 1.5\ngini = 0.176\nsamples = 113\nvalue = [102, 11]\nclass = No Attrition", fillcolor="#e88f4e"] ;
114 -> 132 ;
133 [label="Age <= 46.0\ngini = 0.401\nsamples = 36\nvalue = [26, 10]\nclass = No Attrition", fillcolor="#efb185"] ;
132 -> 133 ;
134 [label="EducationField_encoded <= 4.5\ngini = 0.147\nsamples = 25\nvalue = [23, 2]\nclass = No Attrition", fillcolor="#e78c4a"] ;
133 -> 134 ;
135 [label="gini = 0.0\nsamples = 21\nvalue = [21, 0]\nclass = No Attrition", fillcolor="#e58139"] ;
134 -> 135 ;
136 [label="MaritalStatus_encoded <= 1.0\ngini = 0.5\nsamples = 4\nvalue = [2, 2]\nclass = No Attrition", fillcolor="#ffffff"] ;
134 -> 136 ;
137 [label="gini = 0.0\nsamples = 2\nvalue = [2, 0]\nclass = No Attrition", fillcolor="#e58139"] ;
136 -> 137 ;
138 [label="gini = 0.0\nsamples = 2\nvalue = [0, 2]\nclass = Yes Attrition", fillcolor="#399de5"] ;
136 -> 138 ;
139 [label="YearsAtCompany <= 2.0\ngini = 0.397\nsamples = 11\nvalue = [3, 8]\nclass = Yes Attrition", fillcolor="#83c2ef"] ;
133 -> 139 ;
140 [label="gini = 0.0\nsamples = 2\nvalue = [2, 0]\nclass = No Attrition", fillcolor="#e58139"] ;
139 -> 140 ;
141 [label="Age <= 50.5\ngini = 0.198\nsamples = 9\nvalue = [1, 8]\nclass = Yes Attrition", fillcolor="#52a9e8"] ;
139 -> 141 ;
142 [label="gini = 0.0\nsamples = 8\nvalue = [0, 8]\nclass = Yes Attrition", fillcolor="#399de5"] ;
141 -> 142 ;
143 [label="gini = 0.0\nsamples = 1\nvalue = [1, 0]\nclass = No Attrition", fillcolor="#e58139"] ;
141 -> 143 ;
144 [label="PercentSalaryHike <= 23.0\ngini = 0.026\nsamples = 77\nvalue = [76, 1]\nclass = No Attrition", fillcolor="#e5833c"] ;
132 -> 144 ;
145 [label="gini = 0.0\nsamples = 76\nvalue = [76, 0]\nclass = No Attrition", fillcolor="#e58139"] ;
144 -> 145 ;
146 [label="gini = 0.0\nsamples = 1\nvalue = [0, 1]\nclass = Yes Attrition", fillcolor="#399de5"] ;
144 -> 146 ;
147 [label="gini = 0.0\nsamples = 464\nvalue = [0, 464]\nclass = Yes Attrition", fillcolor="#399de5"] ;
5 -> 147 ;
148 [label="Age <= 30.5\ngini = 0.467\nsamples = 579\nvalue = [364, 215]\nclass = No Attrition", fillcolor="#f4cbae"] ;
4 -> 148 ;
149 [label="JobInvolvement <= 2.5\ngini = 0.472\nsamples = 220\nvalue = [84, 136]\nclass = Yes Attrition", fillcolor="#b3daf5"] ;
148 -> 149 ;
150 [label="NumCompaniesWorked <= 7.411\ngini = 0.187\nsamples = 86\nvalue = [9, 77]\nclass = Yes Attrition", fillcolor="#50a8e8"] ;
149 -> 150 ;
151 [label="YearsSinceLastPromotion <= 0.5\ngini = 0.115\nsamples = 82\nvalue = [5, 77]\nclass = Yes Attrition", fillcolor="#46a3e7"] ;
150 -> 151 ;
152 [label="gini = 0.0\nsamples = 64\nvalue = [0, 64]\nclass = Yes Attrition", fillcolor="#399de5"] ;
151 -> 152 ;
153 [label="MonthlyIncome <= 38042.5\ngini = 0.401\nsamples = 18\nvalue = [5, 13]\nclass = Yes Attrition", fillcolor="#85c3ef"] ;
151 -> 153 ;
154 [label="gini = 0.0\nsamples = 12\nvalue = [0, 12]\nclass = Yes Attrition", fillcolor="#399de5"] ;
153 -> 154 ;
155 [label="TotalWorkingYears <= 6.5\ngini = 0.278\nsamples = 6\nvalue = [5, 1]\nclass = No Attrition", fillcolor="#ea9a61"] ;
153 -> 155 ;
156 [label="gini = 0.0\nsamples = 5\nvalue = [5, 0]\nclass = No Attrition", fillcolor="#e58139"] ;
155 -> 156 ;
157 [label="gini = 0.0\nsamples = 1\nvalue = [0, 1]\nclass = Yes Attrition", fillcolor="#399de5"] ;
155 -> 157 ;
158 [label="gini = 0.0\nsamples = 4\nvalue = [4, 0]\nclass = No Attrition", fillcolor="#e58139"] ;
150 -> 158 ;
159 [label="MaritalStatus_encoded <= 1.5\ngini = 0.493\nsamples = 134\nvalue = [75, 59]\nclass = No Attrition", fillcolor="#f9e4d5"] ;
149 -> 159 ;
160 [label="JobSatisfaction <= 3.016\ngini = 0.365\nsamples = 79\nvalue = [60, 19]\nclass = No Attrition", fillcolor="#eda978"] ;
159 -> 160 ;
161 [label="Department_encoded <= 0.5\ngini = 0.278\nsamples = 72\nvalue = [60, 12]\nclass = No Attrition", fillcolor="#ea9a61"] ;
160 -> 161 ;
162 [label="gini = 0.0\nsamples = 3\nvalue = [0, 3]\nclass = Yes Attrition", fillcolor="#399de5"] ;
161 -> 162 ;
163 [label="Age <= 22.5\ngini = 0.227\nsamples = 69\nvalue = [60, 9]\nclass = No Attrition", fillcolor="#e99457"] ;
161 -> 163 ;
164 [label="gini = 0.0\nsamples = 2\nvalue = [0, 2]\nclass = Yes Attrition", fillcolor="#399de5"] ;
163 -> 164 ;
165 [label="Education <= 2.5\ngini = 0.187\nsamples = 67\nvalue = [60, 7]\nclass = No Attrition", fillcolor="#e89050"] ;
163 -> 165 ;
166 [label="BusinessTravel_encoded <= 1.5\ngini = 0.457\nsamples = 17\nvalue = [11, 6]\nclass = No Attrition", fillcolor="#f3c6a5"] ;
165 -> 166 ;
167 [label="gini = 0.0\nsamples = 6\nvalue = [0, 6]\nclass = Yes Attrition", fillcolor="#399de5"] ;
166 -> 167 ;
168 [label="gini = 0.0\nsamples = 11\nvalue = [11, 0]\nclass = No Attrition", fillcolor="#e58139"] ;
166 -> 168 ;
169 [label="DistanceFromHome <= 25.0\ngini = 0.039\nsamples = 50\nvalue = [49, 1]\nclass = No Attrition", fillcolor="#e6843d"] ;
165 -> 169 ;
170 [label="gini = 0.0\nsamples = 49\nvalue = [49, 0]\nclass = No Attrition", fillcolor="#e58139"] ;
169 -> 170 ;
171 [label="gini = 0.0\nsamples = 1\nvalue = [0, 1]\nclass = Yes Attrition", fillcolor="#399de5"] ;
169 -> 171 ;
172 [label="gini = 0.0\nsamples = 7\nvalue = [0, 7]\nclass = Yes Attrition", fillcolor="#399de5"] ;
160 -> 172 ;
173 [label="JobRole_encoded <= 5.5\ngini = 0.397\nsamples = 55\nvalue = [15, 40]\nclass = Yes Attrition", fillcolor="#83c2ef"] ;
159 -> 173 ;
174 [label="MonthlyIncome <= 150810.0\ngini = 0.198\nsamples = 36\nvalue = [4, 32]\nclass = Yes Attrition", fillcolor="#52a9e8"] ;
173 -> 174 ;
175 [label="WorkLifeBalance <= 1.384\ngini = 0.111\nsamples = 34\nvalue = [2, 32]\nclass = Yes Attrition", fillcolor="#45a3e7"] ;
174 -> 175 ;
176 [label="gini = 0.0\nsamples = 2\nvalue = [2, 0]\nclass = No Attrition", fillcolor="#e58139"] ;
175 -> 176 ;
177 [label="gini = 0.0\nsamples = 32\nvalue = [0, 32]\nclass = Yes Attrition", fillcolor="#399de5"] ;
175 -> 177 ;
178 [label="gini = 0.0\nsamples = 2\nvalue = [2, 0]\nclass = No Attrition", fillcolor="#e58139"] ;
174 -> 178 ;
179 [label="MonthlyIncome <= 58730.0\ngini = 0.488\nsamples = 19\nvalue = [11, 8]\nclass = No Attrition", fillcolor="#f8ddc9"] ;
173 -> 179 ;
180 [label="Age <= 27.0\ngini = 0.397\nsamples = 11\nvalue = [3, 8]\nclass = Yes Attrition", fillcolor="#83c2ef"] ;
179 -> 180 ;
181 [label="gini = 0.0\nsamples = 3\nvalue = [3, 0]\nclass = No Attrition", fillcolor="#e58139"] ;
180 -> 181 ;
182 [label="gini = 0.0\nsamples = 8\nvalue = [0, 8]\nclass = Yes Attrition", fillcolor="#399de5"] ;
180 -> 182 ;
183 [label="gini = 0.0\nsamples = 8\nvalue = [8, 0]\nclass = No Attrition", fillcolor="#e58139"] ;
179 -> 183 ;
184 [label="EducationField_encoded <= 0.5\ngini = 0.343\nsamples = 359\nvalue = [280, 79]\nclass = No Attrition", fillcolor="#eca571"] ;
148 -> 184 ;
185 [label="MonthlyIncome <= 95804.0\ngini = 0.117\nsamples = 16\nvalue = [1, 15]\nclass = Yes Attrition", fillcolor="#46a4e7"] ;
184 -> 185 ;
186 [label="gini = 0.0\nsamples = 15\nvalue = [0, 15]\nclass = Yes Attrition", fillcolor="#399de5"] ;
185 -> 186 ;
187 [label="gini = 0.0\nsamples = 1\nvalue = [1, 0]\nclass = No Attrition", fillcolor="#e58139"] ;
185 -> 187 ;
188 [label="JobSatisfaction <= 3.068\ngini = 0.304\nsamples = 343\nvalue = [279, 64]\nclass = No Attrition", fillcolor="#eb9e66"] ;
184 -> 188 ;
189 [label="MonthlyIncome <= 28585.5\ngini = 0.278\nsamples = 335\nvalue = [279, 56]\nclass = No Attrition", fillcolor="#ea9a61"] ;
188 -> 189 ;
190 [label="BusinessTravel_encoded <= 1.5\ngini = 0.447\nsamples = 95\nvalue = [63, 32]\nclass = No Attrition", fillcolor="#f2c19e"] ;
189 -> 190 ;
191 [label="TrainingTimesLastYear <= 2.5\ngini = 0.43\nsamples = 32\nvalue = [10, 22]\nclass = Yes Attrition", fillcolor="#93caf1"] ;
190 -> 191 ;
192 [label="NumCompaniesWorked <= 8.448\ngini = 0.302\nsamples = 27\nvalue = [5, 22]\nclass = Yes Attrition", fillcolor="#66b3eb"] ;
191 -> 192 ;
193 [label="DistanceFromHome <= 1.5\ngini = 0.153\nsamples = 24\nvalue = [2, 22]\nclass = Yes Attrition", fillcolor="#4ba6e7"] ;
192 -> 193 ;
194 [label="YearsSinceLastPromotion <= 1.5\ngini = 0.444\nsamples = 6\nvalue = [2, 4]\nclass = Yes Attrition", fillcolor="#9ccef2"] ;
193 -> 194 ;
195 [label="gini = 0.0\nsamples = 2\nvalue = [2, 0]\nclass = No Attrition", fillcolor="#e58139"] ;
194 -> 195 ;
196 [label="gini = 0.0\nsamples = 4\nvalue = [0, 4]\nclass = Yes Attrition", fillcolor="#399de5"] ;
194 -> 196 ;
197 [label="gini = 0.0\nsamples = 18\nvalue = [0, 18]\nclass = Yes Attrition", fillcolor="#399de5"] ;
193 -> 197 ;
198 [label="gini = 0.0\nsamples = 3\nvalue = [3, 0]\nclass = No Attrition", fillcolor="#e58139"] ;
192 -> 198 ;
199 [label="gini = 0.0\nsamples = 5\nvalue = [5, 0]\nclass = No Attrition", fillcolor="#e58139"] ;
191 -> 199 ;
200 [label="MonthlyIncome <= 27305.0\ngini = 0.267\nsamples = 63\nvalue = [53, 10]\nclass = No Attrition", fillcolor="#ea995e"] ;
190 -> 200 ;
201 [label="StockOptionLevel <= 2.5\ngini = 0.08\nsamples = 48\nvalue = [46, 2]\nclass = No Attrition", fillcolor="#e68642"] ;
200 -> 201 ;
202 [label="gini = 0.0\nsamples = 46\nvalue = [46, 0]\nclass = No Attrition", fillcolor="#e58139"] ;
201 -> 202 ;
203 [label="gini = 0.0\nsamples = 2\nvalue = [0, 2]\nclass = Yes Attrition", fillcolor="#399de5"] ;
201 -> 203 ;
204 [label="StockOptionLevel <= 0.5\ngini = 0.498\nsamples = 15\nvalue = [7, 8]\nclass = Yes Attrition", fillcolor="#e6f3fc"] ;
200 -> 204 ;
205 [label="gini = 0.0\nsamples = 8\nvalue = [0, 8]\nclass = Yes Attrition", fillcolor="#399de5"] ;
204 -> 205 ;
206 [label="gini = 0.0\nsamples = 7\nvalue = [7, 0]\nclass = No Attrition", fillcolor="#e58139"] ;
204 -> 206 ;
207 [label="EmployeeID <= 29.0\ngini = 0.18\nsamples = 240\nvalue = [216, 24]\nclass = No Attrition", fillcolor="#e88f4f"] ;
189 -> 207 ;
208 [label="gini = 0.0\nsamples = 2\nvalue = [0, 2]\nclass = Yes Attrition", fillcolor="#399de5"] ;
207 -> 208 ;
209 [label="JobLevel <= 1.5\ngini = 0.168\nsamples = 238\nvalue = [216, 22]\nclass = No Attrition", fillcolor="#e88e4d"] ;
207 -> 209 ;
210 [label="PercentSalaryHike <= 19.5\ngini = 0.291\nsamples = 85\nvalue = [70, 15]\nclass = No Attrition", fillcolor="#eb9c63"] ;
209 -> 210 ;
211 [label="Age <= 36.5\ngini = 0.155\nsamples = 71\nvalue = [65, 6]\nclass = No Attrition", fillcolor="#e78d4b"] ;
210 -> 211 ;
212 [label="NumCompaniesWorked <= 5.309\ngini = 0.298\nsamples = 33\nvalue = [27, 6]\nclass = No Attrition", fillcolor="#eb9d65"] ;
211 -> 212 ;
213 [label="EducationField_encoded <= 4.0\ngini = 0.18\nsamples = 30\nvalue = [27, 3]\nclass = No Attrition", fillcolor="#e88f4f"] ;
212 -> 213 ;
214 [label="WorkLifeBalance <= 2.718\ngini = 0.069\nsamples = 28\nvalue = [27, 1]\nclass = No Attrition", fillcolor="#e68640"] ;
213 -> 214 ;
215 [label="YearsAtCompany <= 4.5\ngini = 0.278\nsamples = 6\nvalue = [5, 1]\nclass = No Attrition", fillcolor="#ea9a61"] ;
214 -> 215 ;
216 [label="gini = 0.0\nsamples = 1\nvalue = [0, 1]\nclass = Yes Attrition", fillcolor="#399de5"] ;
215 -> 216 ;
217 [label="gini = 0.0\nsamples = 5\nvalue = [5, 0]\nclass = No Attrition", fillcolor="#e58139"] ;
215 -> 217 ;
218 [label="gini = 0.0\nsamples = 22\nvalue = [22, 0]\nclass = No Attrition", fillcolor="#e58139"] ;
214 -> 218 ;
219 [label="gini = 0.0\nsamples = 2\nvalue = [0, 2]\nclass = Yes Attrition", fillcolor="#399de5"] ;
213 -> 219 ;
220 [label="gini = 0.0\nsamples = 3\nvalue = [0, 3]\nclass = Yes Attrition", fillcolor="#399de5"] ;
212 -> 220 ;
221 [label="gini = 0.0\nsamples = 38\nvalue = [38, 0]\nclass = No Attrition", fillcolor="#e58139"] ;
211 -> 221 ;
222 [label="JobInvolvement <= 2.5\ngini = 0.459\nsamples = 14\nvalue = [5, 9]\nclass = Yes Attrition", fillcolor="#a7d3f3"] ;
210 -> 222 ;
223 [label="gini = 0.0\nsamples = 7\nvalue = [0, 7]\nclass = Yes Attrition", fillcolor="#399de5"] ;
222 -> 223 ;
224 [label="Education <= 1.5\ngini = 0.408\nsamples = 7\nvalue = [5, 2]\nclass = No Attrition", fillcolor="#efb388"] ;
222 -> 224 ;
225 [label="gini = 0.0\nsamples = 2\nvalue = [0, 2]\nclass = Yes Attrition", fillcolor="#399de5"] ;
224 -> 225 ;
226 [label="gini = 0.0\nsamples = 5\nvalue = [5, 0]\nclass = No Attrition", fillcolor="#e58139"] ;
224 -> 226 ;
227 [label="Department_encoded <= 0.5\ngini = 0.087\nsamples = 153\nvalue = [146, 7]\nclass = No Attrition", fillcolor="#e68742"] ;
209 -> 227 ;
228 [label="DistanceFromHome <= 10.0\ngini = 0.48\nsamples = 5\nvalue = [2, 3]\nclass = Yes Attrition", fillcolor="#bddef6"] ;
227 -> 228 ;
229 [label="gini = 0.0\nsamples = 3\nvalue = [0, 3]\nclass = Yes Attrition", fillcolor="#399de5"] ;
228 -> 229 ;
230 [label="gini = 0.0\nsamples = 2\nvalue = [2, 0]\nclass = No Attrition", fillcolor="#e58139"] ;
228 -> 230 ;
231 [label="NumCompaniesWorked <= 8.5\ngini = 0.053\nsamples = 148\nvalue = [144, 4]\nclass = No Attrition", fillcolor="#e6843e"] ;
227 -> 231 ;
232 [label="EmployeeID <= 3761.5\ngini = 0.015\nsamples = 136\nvalue = [135, 1]\nclass = No Attrition", fillcolor="#e5823a"] ;
231 -> 232 ;
233 [label="gini = 0.0\nsamples = 115\nvalue = [115, 0]\nclass = No Attrition", fillcolor="#e58139"] ;
232 -> 233 ;
234 [label="EmployeeID <= 3810.0\ngini = 0.091\nsamples = 21\nvalue = [20, 1]\nclass = No Attrition", fillcolor="#e68743"] ;
232 -> 234 ;
235 [label="gini = 0.0\nsamples = 1\nvalue = [0, 1]\nclass = Yes Attrition", fillcolor="#399de5"] ;
234 -> 235 ;
236 [label="gini = 0.0\nsamples = 20\nvalue = [20, 0]\nclass = No Attrition", fillcolor="#e58139"] ;
234 -> 236 ;
237 [label="EducationField_encoded <= 3.5\ngini = 0.375\nsamples = 12\nvalue = [9, 3]\nclass = No Attrition", fillcolor="#eeab7b"] ;
231 -> 237 ;
238 [label="gini = 0.0\nsamples = 9\nvalue = [9, 0]\nclass = No Attrition", fillcolor="#e58139"] ;
237 -> 238 ;
239 [label="gini = 0.0\nsamples = 3\nvalue = [0, 3]\nclass = Yes Attrition", fillcolor="#399de5"] ;
237 -> 239 ;
240 [label="gini = 0.0\nsamples = 8\nvalue = [0, 8]\nclass = Yes Attrition", fillcolor="#399de5"] ;
188 -> 240 ;
241 [label="gini = 0.0\nsamples = 381\nvalue = [0, 381]\nclass = Yes Attrition", fillcolor="#399de5"] ;
3 -> 241 ;
242 [label="MonthlyIncome <= 55330.0\ngini = 0.473\nsamples = 571\nvalue = [352, 219]\nclass = No Attrition", fillcolor="#f5cfb4"] ;
2 -> 242 ;
243 [label="JobSatisfaction <= 3.021\ngini = 0.383\nsamples = 333\nvalue = [247, 86]\nclass = No Attrition", fillcolor="#eead7e"] ;
242 -> 243 ;
244 [label="WorkLifeBalance <= 1.93\ngini = 0.341\nsamples = 316\nvalue = [247, 69]\nclass = No Attrition", fillcolor="#eca470"] ;
243 -> 244 ;
245 [label="NumCompaniesWorked <= 5.219\ngini = 0.375\nsamples = 20\nvalue = [5, 15]\nclass = Yes Attrition", fillcolor="#7bbeee"] ;
244 -> 245 ;
246 [label="TrainingTimesLastYear <= 1.0\ngini = 0.117\nsamples = 16\nvalue = [1, 15]\nclass = Yes Attrition", fillcolor="#46a4e7"] ;
245 -> 246 ;
247 [label="gini = 0.0\nsamples = 1\nvalue = [1, 0]\nclass = No Attrition", fillcolor="#e58139"] ;
246 -> 247 ;
248 [label="gini = 0.0\nsamples = 15\nvalue = [0, 15]\nclass = Yes Attrition", fillcolor="#399de5"] ;
246 -> 248 ;
249 [label="gini = 0.0\nsamples = 4\nvalue = [4, 0]\nclass = No Attrition", fillcolor="#e58139"] ;
245 -> 249 ;
250 [label="YearsWithCurrManager <= 0.5\ngini = 0.298\nsamples = 296\nvalue = [242, 54]\nclass = No Attrition", fillcolor="#eb9d65"] ;
244 -> 250 ;
251 [label="DistanceFromHome <= 6.5\ngini = 0.456\nsamples = 94\nvalue = [61, 33]\nclass = No Attrition", fillcolor="#f3c5a4"] ;
250 -> 251 ;
252 [label="TrainingTimesLastYear <= 2.5\ngini = 0.491\nsamples = 44\nvalue = [19, 25]\nclass = Yes Attrition", fillcolor="#cfe7f9"] ;
251 -> 252 ;
253 [label="Age <= 39.5\ngini = 0.238\nsamples = 29\nvalue = [4, 25]\nclass = Yes Attrition", fillcolor="#59ade9"] ;
252 -> 253 ;
254 [label="gini = 0.0\nsamples = 24\nvalue = [0, 24]\nclass = Yes Attrition", fillcolor="#399de5"] ;
253 -> 254 ;
255 [label="WorkLifeBalance <= 2.543\ngini = 0.32\nsamples = 5\nvalue = [4, 1]\nclass = No Attrition", fillcolor="#eca06a"] ;
253 -> 255 ;
256 [label="gini = 0.0\nsamples = 1\nvalue = [0, 1]\nclass = Yes Attrition", fillcolor="#399de5"] ;
255 -> 256 ;
257 [label="gini = 0.0\nsamples = 4\nvalue = [4, 0]\nclass = No Attrition", fillcolor="#e58139"] ;
255 -> 257 ;
258 [label="gini = 0.0\nsamples = 15\nvalue = [15, 0]\nclass = No Attrition", fillcolor="#e58139"] ;
252 -> 258 ;
259 [label="StockOptionLevel <= 1.5\ngini = 0.269\nsamples = 50\nvalue = [42, 8]\nclass = No Attrition", fillcolor="#ea995f"] ;
251 -> 259 ;
260 [label="TrainingTimesLastYear <= 4.5\ngini = 0.13\nsamples = 43\nvalue = [40, 3]\nclass = No Attrition", fillcolor="#e78a48"] ;
259 -> 260 ;
261 [label="WorkLifeBalance <= 2.998\ngini = 0.048\nsamples = 41\nvalue = [40, 1]\nclass = No Attrition", fillcolor="#e6843e"] ;
260 -> 261 ;
262 [label="PercentSalaryHike <= 13.0\ngini = 0.444\nsamples = 3\nvalue = [2, 1]\nclass = No Attrition", fillcolor="#f2c09c"] ;
261 -> 262 ;
263 [label="gini = 0.0\nsamples = 1\nvalue = [0, 1]\nclass = Yes Attrition", fillcolor="#399de5"] ;
262 -> 263 ;
264 [label="gini = 0.0\nsamples = 2\nvalue = [2, 0]\nclass = No Attrition", fillcolor="#e58139"] ;
262 -> 264 ;
265 [label="gini = 0.0\nsamples = 38\nvalue = [38, 0]\nclass = No Attrition", fillcolor="#e58139"] ;
261 -> 265 ;
266 [label="gini = 0.0\nsamples = 2\nvalue = [0, 2]\nclass = Yes Attrition", fillcolor="#399de5"] ;
260 -> 266 ;
267 [label="Education <= 3.0\ngini = 0.408\nsamples = 7\nvalue = [2, 5]\nclass = Yes Attrition", fillcolor="#88c4ef"] ;
259 -> 267 ;
268 [label="gini = 0.0\nsamples = 5\nvalue = [0, 5]\nclass = Yes Attrition", fillcolor="#399de5"] ;
267 -> 268 ;
269 [label="gini = 0.0\nsamples = 2\nvalue = [2, 0]\nclass = No Attrition", fillcolor="#e58139"] ;
267 -> 269 ;
270 [label="YearsSinceLastPromotion <= 3.5\ngini = 0.186\nsamples = 202\nvalue = [181, 21]\nclass = No Attrition", fillcolor="#e89050"] ;
250 -> 270 ;
271 [label="Age <= 26.5\ngini = 0.098\nsamples = 174\nvalue = [165, 9]\nclass = No Attrition", fillcolor="#e68844"] ;
270 -> 271 ;
272 [label="JobRole_encoded <= 2.5\ngini = 0.365\nsamples = 25\nvalue = [19, 6]\nclass = No Attrition", fillcolor="#eda978"] ;
271 -> 272 ;
273 [label="Department_encoded <= 1.5\ngini = 0.5\nsamples = 12\nvalue = [6, 6]\nclass = No Attrition", fillcolor="#ffffff"] ;
272 -> 273 ;
274 [label="gini = 0.0\nsamples = 6\nvalue = [0, 6]\nclass = Yes Attrition", fillcolor="#399de5"] ;
273 -> 274 ;
275 [label="gini = 0.0\nsamples = 6\nvalue = [6, 0]\nclass = No Attrition", fillcolor="#e58139"] ;
273 -> 275 ;
276 [label="gini = 0.0\nsamples = 13\nvalue = [13, 0]\nclass = No Attrition", fillcolor="#e58139"] ;
272 -> 276 ;
277 [label="BusinessTravel_encoded <= 0.5\ngini = 0.039\nsamples = 149\nvalue = [146, 3]\nclass = No Attrition", fillcolor="#e6843d"] ;
271 -> 277 ;
278 [label="PercentSalaryHike <= 21.5\ngini = 0.346\nsamples = 9\nvalue = [7, 2]\nclass = No Attrition", fillcolor="#eca572"] ;
277 -> 278 ;
279 [label="gini = 0.0\nsamples = 7\nvalue = [7, 0]\nclass = No Attrition", fillcolor="#e58139"] ;
278 -> 279 ;
280 [label="gini = 0.0\nsamples = 2\nvalue = [0, 2]\nclass = Yes Attrition", fillcolor="#399de5"] ;
278 -> 280 ;
281 [label="YearsSinceLastPromotion <= 2.5\ngini = 0.014\nsamples = 140\nvalue = [139, 1]\nclass = No Attrition", fillcolor="#e5823a"] ;
277 -> 281 ;
282 [label="gini = 0.0\nsamples = 133\nvalue = [133, 0]\nclass = No Attrition", fillcolor="#e58139"] ;
281 -> 282 ;
283 [label="Age <= 40.5\ngini = 0.245\nsamples = 7\nvalue = [6, 1]\nclass = No Attrition", fillcolor="#e9965a"] ;
281 -> 283 ;
284 [label="gini = 0.0\nsamples = 6\nvalue = [6, 0]\nclass = No Attrition", fillcolor="#e58139"] ;
283 -> 284 ;
285 [label="gini = 0.0\nsamples = 1\nvalue = [0, 1]\nclass = Yes Attrition", fillcolor="#399de5"] ;
283 -> 285 ;
286 [label="YearsSinceLastPromotion <= 6.5\ngini = 0.49\nsamples = 28\nvalue = [16, 12]\nclass = No Attrition", fillcolor="#f8e0ce"] ;
270 -> 286 ;
287 [label="YearsAtCompany <= 5.5\ngini = 0.391\nsamples = 15\nvalue = [4, 11]\nclass = Yes Attrition", fillcolor="#81c1ee"] ;
286 -> 287 ;
288 [label="gini = 0.0\nsamples = 4\nvalue = [4, 0]\nclass = No Attrition", fillcolor="#e58139"] ;
287 -> 288 ;
289 [label="gini = 0.0\nsamples = 11\nvalue = [0, 11]\nclass = Yes Attrition", fillcolor="#399de5"] ;
287 -> 289 ;
290 [label="YearsAtCompany <= 22.0\ngini = 0.142\nsamples = 13\nvalue = [12, 1]\nclass = No Attrition", fillcolor="#e78c49"] ;
286 -> 290 ;
291 [label="gini = 0.0\nsamples = 12\nvalue = [12, 0]\nclass = No Attrition", fillcolor="#e58139"] ;
290 -> 291 ;
292 [label="gini = 0.0\nsamples = 1\nvalue = [0, 1]\nclass = Yes Attrition", fillcolor="#399de5"] ;
290 -> 292 ;
293 [label="gini = 0.0\nsamples = 17\nvalue = [0, 17]\nclass = Yes Attrition", fillcolor="#399de5"] ;
243 -> 293 ;
294 [label="StockOptionLevel <= 0.5\ngini = 0.493\nsamples = 238\nvalue = [105, 133]\nclass = Yes Attrition", fillcolor="#d5eafa"] ;
242 -> 294 ;
295 [label="YearsAtCompany <= 1.5\ngini = 0.449\nsamples = 94\nvalue = [62, 32]\nclass = No Attrition", fillcolor="#f2c29f"] ;
294 -> 295 ;
296 [label="MonthlyIncome <= 179514.0\ngini = 0.208\nsamples = 17\nvalue = [2, 15]\nclass = Yes Attrition", fillcolor="#53aae8"] ;
295 -> 296 ;
297 [label="gini = 0.0\nsamples = 15\nvalue = [0, 15]\nclass = Yes Attrition", fillcolor="#399de5"] ;
296 -> 297 ;
298 [label="gini = 0.0\nsamples = 2\nvalue = [2, 0]\nclass = No Attrition", fillcolor="#e58139"] ;
296 -> 298 ;
299 [label="EducationField_encoded <= 0.5\ngini = 0.344\nsamples = 77\nvalue = [60, 17]\nclass = No Attrition", fillcolor="#eca571"] ;
295 -> 299 ;
300 [label="gini = 0.0\nsamples = 6\nvalue = [0, 6]\nclass = Yes Attrition", fillcolor="#399de5"] ;
299 -> 300 ;
301 [label="MonthlyIncome <= 55695.0\ngini = 0.262\nsamples = 71\nvalue = [60, 11]\nclass = No Attrition", fillcolor="#ea985d"] ;
299 -> 301 ;
302 [label="gini = 0.0\nsamples = 3\nvalue = [0, 3]\nclass = Yes Attrition", fillcolor="#399de5"] ;
301 -> 302 ;
303 [label="YearsAtCompany <= 2.5\ngini = 0.208\nsamples = 68\nvalue = [60, 8]\nclass = No Attrition", fillcolor="#e89253"] ;
301 -> 303 ;
304 [label="MonthlyIncome <= 72999.0\ngini = 0.49\nsamples = 14\nvalue = [8, 6]\nclass = No Attrition", fillcolor="#f8e0ce"] ;
303 -> 304 ;
305 [label="gini = 0.0\nsamples = 5\nvalue = [0, 5]\nclass = Yes Attrition", fillcolor="#399de5"] ;
304 -> 305 ;
306 [label="DistanceFromHome <= 3.5\ngini = 0.198\nsamples = 9\nvalue = [8, 1]\nclass = No Attrition", fillcolor="#e89152"] ;
304 -> 306 ;
307 [label="gini = 0.0\nsamples = 1\nvalue = [0, 1]\nclass = Yes Attrition", fillcolor="#399de5"] ;
306 -> 307 ;
308 [label="gini = 0.0\nsamples = 8\nvalue = [8, 0]\nclass = No Attrition", fillcolor="#e58139"] ;
306 -> 308 ;
309 [label="NumCompaniesWorked <= 0.777\ngini = 0.071\nsamples = 54\nvalue = [52, 2]\nclass = No Attrition", fillcolor="#e68641"] ;
303 -> 309 ;
310 [label="DistanceFromHome <= 1.5\ngini = 0.245\nsamples = 14\nvalue = [12, 2]\nclass = No Attrition", fillcolor="#e9965a"] ;
309 -> 310 ;
311 [label="gini = 0.0\nsamples = 1\nvalue = [0, 1]\nclass = Yes Attrition", fillcolor="#399de5"] ;
310 -> 311 ;
312 [label="NumCompaniesWorked <= 0.277\ngini = 0.142\nsamples = 13\nvalue = [12, 1]\nclass = No Attrition", fillcolor="#e78c49"] ;
310 -> 312 ;
313 [label="gini = 0.0\nsamples = 12\nvalue = [12, 0]\nclass = No Attrition", fillcolor="#e58139"] ;
312 -> 313 ;
314 [label="gini = 0.0\nsamples = 1\nvalue = [0, 1]\nclass = Yes Attrition", fillcolor="#399de5"] ;
312 -> 314 ;
315 [label="gini = 0.0\nsamples = 40\nvalue = [40, 0]\nclass = No Attrition", fillcolor="#e58139"] ;
309 -> 315 ;
316 [label="NumCompaniesWorked <= 4.5\ngini = 0.419\nsamples = 144\nvalue = [43, 101]\nclass = Yes Attrition", fillcolor="#8dc7f0"] ;
294 -> 316 ;
317 [label="Education <= 3.5\ngini = 0.31\nsamples = 125\nvalue = [24, 101]\nclass = Yes Attrition", fillcolor="#68b4eb"] ;
316 -> 317 ;
318 [label="BusinessTravel_encoded <= 0.5\ngini = 0.21\nsamples = 109\nvalue = [13, 96]\nclass = Yes Attrition", fillcolor="#54aae9"] ;
317 -> 318 ;
319 [label="gini = 0.0\nsamples = 3\nvalue = [3, 0]\nclass = No Attrition", fillcolor="#e58139"] ;
318 -> 319 ;
320 [label="TrainingTimesLastYear <= 0.5\ngini = 0.171\nsamples = 106\nvalue = [10, 96]\nclass = Yes Attrition", fillcolor="#4ea7e8"] ;
318 -> 320 ;
321 [label="gini = 0.0\nsamples = 2\nvalue = [2, 0]\nclass = No Attrition", fillcolor="#e58139"] ;
320 -> 321 ;
322 [label="JobRole_encoded <= 0.5\ngini = 0.142\nsamples = 104\nvalue = [8, 96]\nclass = Yes Attrition", fillcolor="#49a5e7"] ;
320 -> 322 ;
323 [label="NumCompaniesWorked <= 1.466\ngini = 0.48\nsamples = 5\nvalue = [3, 2]\nclass = No Attrition", fillcolor="#f6d5bd"] ;
322 -> 323 ;
324 [label="gini = 0.0\nsamples = 3\nvalue = [3, 0]\nclass = No Attrition", fillcolor="#e58139"] ;
323 -> 324 ;
325 [label="gini = 0.0\nsamples = 2\nvalue = [0, 2]\nclass = Yes Attrition", fillcolor="#399de5"] ;
323 -> 325 ;
326 [label="YearsAtCompany <= 11.0\ngini = 0.096\nsamples = 99\nvalue = [5, 94]\nclass = Yes Attrition", fillcolor="#44a2e6"] ;
322 -> 326 ;
327 [label="WorkLifeBalance <= 3.5\ngini = 0.078\nsamples = 98\nvalue = [4, 94]\nclass = Yes Attrition", fillcolor="#41a1e6"] ;
326 -> 327 ;
328 [label="PercentSalaryHike <= 11.5\ngini = 0.023\nsamples = 86\nvalue = [1, 85]\nclass = Yes Attrition", fillcolor="#3b9ee5"] ;
327 -> 328 ;
329 [label="Age <= 23.0\ngini = 0.245\nsamples = 7\nvalue = [1, 6]\nclass = Yes Attrition", fillcolor="#5aade9"] ;
328 -> 329 ;
330 [label="gini = 0.0\nsamples = 6\nvalue = [0, 6]\nclass = Yes Attrition", fillcolor="#399de5"] ;
329 -> 330 ;
331 [label="gini = 0.0\nsamples = 1\nvalue = [1, 0]\nclass = No Attrition", fillcolor="#e58139"] ;
329 -> 331 ;
332 [label="gini = 0.0\nsamples = 79\nvalue = [0, 79]\nclass = Yes Attrition", fillcolor="#399de5"] ;
328 -> 332 ;
333 [label="MaritalStatus_encoded <= 1.5\ngini = 0.375\nsamples = 12\nvalue = [3, 9]\nclass = Yes Attrition", fillcolor="#7bbeee"] ;
327 -> 333 ;
334 [label="gini = 0.0\nsamples = 3\nvalue = [3, 0]\nclass = No Attrition", fillcolor="#e58139"] ;
333 -> 334 ;
335 [label="gini = 0.0\nsamples = 9\nvalue = [0, 9]\nclass = Yes Attrition", fillcolor="#399de5"] ;
333 -> 335 ;
336 [label="gini = 0.0\nsamples = 1\nvalue = [1, 0]\nclass = No Attrition", fillcolor="#e58139"] ;
326 -> 336 ;
337 [label="YearsAtCompany <= 5.5\ngini = 0.43\nsamples = 16\nvalue = [11, 5]\nclass = No Attrition", fillcolor="#f1ba93"] ;
317 -> 337 ;
338 [label="gini = 0.0\nsamples = 11\nvalue = [11, 0]\nclass = No Attrition", fillcolor="#e58139"] ;
337 -> 338 ;
339 [label="gini = 0.0\nsamples = 5\nvalue = [0, 5]\nclass = Yes Attrition", fillcolor="#399de5"] ;
337 -> 339 ;
340 [label="gini = 0.0\nsamples = 19\nvalue = [19, 0]\nclass = No Attrition", fillcolor="#e58139"] ;
316 -> 340 ;
341 [label="WorkLifeBalance <= 2.997\ngini = 0.432\nsamples = 888\nvalue = [608, 280]\nclass = No Attrition", fillcolor="#f1bb94"] ;
1 -> 341 ;
342 [label="WorkLifeBalance <= 2.003\ngini = 0.499\nsamples = 298\nvalue = [143, 155]\nclass = Yes Attrition", fillcolor="#f0f7fd"] ;
341 -> 342 ;
343 [label="WorkLifeBalance <= 1.984\ngini = 0.489\nsamples = 249\nvalue = [143, 106]\nclass = No Attrition", fillcolor="#f8decc"] ;
342 -> 343 ;
344 [label="EnvironmentSatisfaction <= 2.219\ngini = 0.421\nsamples = 73\nvalue = [22, 51]\nclass = Yes Attrition", fillcolor="#8ec7f0"] ;
343 -> 344 ;
345 [label="Age <= 30.0\ngini = 0.397\nsamples = 22\nvalue = [16, 6]\nclass = No Attrition", fillcolor="#efb083"] ;
344 -> 345 ;
346 [label="gini = 0.0\nsamples = 3\nvalue = [0, 3]\nclass = Yes Attrition", fillcolor="#399de5"] ;
345 -> 346 ;
347 [label="YearsSinceLastPromotion <= 9.0\ngini = 0.266\nsamples = 19\nvalue = [16, 3]\nclass = No Attrition", fillcolor="#ea995e"] ;
345 -> 347 ;
348 [label="gini = 0.0\nsamples = 14\nvalue = [14, 0]\nclass = No Attrition", fillcolor="#e58139"] ;
347 -> 348 ;
349 [label="JobInvolvement <= 2.5\ngini = 0.48\nsamples = 5\nvalue = [2, 3]\nclass = Yes Attrition", fillcolor="#bddef6"] ;
347 -> 349 ;
350 [label="gini = 0.0\nsamples = 3\nvalue = [0, 3]\nclass = Yes Attrition", fillcolor="#399de5"] ;
349 -> 350 ;
351 [label="gini = 0.0\nsamples = 2\nvalue = [2, 0]\nclass = No Attrition", fillcolor="#e58139"] ;
349 -> 351 ;
352 [label="TotalWorkingYears <= 26.0\ngini = 0.208\nsamples = 51\nvalue = [6, 45]\nclass = Yes Attrition", fillcolor="#53aae8"] ;
344 -> 352 ;
353 [label="TrainingTimesLastYear <= 5.5\ngini = 0.117\nsamples = 48\nvalue = [3, 45]\nclass = Yes Attrition", fillcolor="#46a4e7"] ;
352 -> 353 ;
354 [label="NumCompaniesWorked <= 0.154\ngini = 0.043\nsamples = 46\nvalue = [1, 45]\nclass = Yes Attrition", fillcolor="#3d9fe6"] ;
353 -> 354 ;
355 [label="gini = 0.0\nsamples = 1\nvalue = [1, 0]\nclass = No Attrition", fillcolor="#e58139"] ;
354 -> 355 ;
356 [label="gini = 0.0\nsamples = 45\nvalue = [0, 45]\nclass = Yes Attrition", fillcolor="#399de5"] ;
354 -> 356 ;
357 [label="gini = 0.0\nsamples = 2\nvalue = [2, 0]\nclass = No Attrition", fillcolor="#e58139"] ;
353 -> 357 ;
358 [label="gini = 0.0\nsamples = 3\nvalue = [3, 0]\nclass = No Attrition", fillcolor="#e58139"] ;
352 -> 358 ;
359 [label="JobInvolvement <= 3.5\ngini = 0.43\nsamples = 176\nvalue = [121, 55]\nclass = No Attrition", fillcolor="#f1ba93"] ;
343 -> 359 ;
360 [label="MonthlyIncome <= 59203.5\ngini = 0.373\nsamples = 157\nvalue = [118, 39]\nclass = No Attrition", fillcolor="#eeab7a"] ;
359 -> 360 ;
361 [label="EnvironmentSatisfaction <= 2.941\ngini = 0.465\nsamples = 106\nvalue = [67, 39]\nclass = No Attrition", fillcolor="#f4caac"] ;
360 -> 361 ;
362 [label="EnvironmentSatisfaction <= 1.013\ngini = 0.494\nsamples = 54\nvalue = [24, 30]\nclass = Yes Attrition", fillcolor="#d7ebfa"] ;
361 -> 362 ;
363 [label="Education <= 1.5\ngini = 0.266\nsamples = 19\nvalue = [16, 3]\nclass = No Attrition", fillcolor="#ea995e"] ;
362 -> 363 ;
364 [label="gini = 0.0\nsamples = 3\nvalue = [0, 3]\nclass = Yes Attrition", fillcolor="#399de5"] ;
363 -> 364 ;
365 [label="gini = 0.0\nsamples = 16\nvalue = [16, 0]\nclass = No Attrition", fillcolor="#e58139"] ;
363 -> 365 ;
366 [label="JobLevel <= 4.5\ngini = 0.353\nsamples = 35\nvalue = [8, 27]\nclass = Yes Attrition", fillcolor="#74baed"] ;
362 -> 366 ;
367 [label="Age <= 56.0\ngini = 0.18\nsamples = 30\nvalue = [3, 27]\nclass = Yes Attrition", fillcolor="#4fa8e8"] ;
366 -> 367 ;
368 [label="JobInvolvement <= 1.5\ngini = 0.069\nsamples = 28\nvalue = [1, 27]\nclass = Yes Attrition", fillcolor="#40a1e6"] ;
367 -> 368 ;
369 [label="YearsAtCompany <= 11.0\ngini = 0.5\nsamples = 2\nvalue = [1, 1]\nclass = No Attrition", fillcolor="#ffffff"] ;
368 -> 369 ;
370 [label="gini = 0.0\nsamples = 1\nvalue = [1, 0]\nclass = No Attrition", fillcolor="#e58139"] ;
369 -> 370 ;
371 [label="gini = 0.0\nsamples = 1\nvalue = [0, 1]\nclass = Yes Attrition", fillcolor="#399de5"] ;
369 -> 371 ;
372 [label="gini = 0.0\nsamples = 26\nvalue = [0, 26]\nclass = Yes Attrition", fillcolor="#399de5"] ;
368 -> 372 ;
373 [label="gini = 0.0\nsamples = 2\nvalue = [2, 0]\nclass = No Attrition", fillcolor="#e58139"] ;
367 -> 373 ;
374 [label="gini = 0.0\nsamples = 5\nvalue = [5, 0]\nclass = No Attrition", fillcolor="#e58139"] ;
366 -> 374 ;
375 [label="YearsSinceLastPromotion <= 5.5\ngini = 0.286\nsamples = 52\nvalue = [43, 9]\nclass = No Attrition", fillcolor="#ea9b62"] ;
361 -> 375 ;
376 [label="gini = 0.0\nsamples = 27\nvalue = [27, 0]\nclass = No Attrition", fillcolor="#e58139"] ;
375 -> 376 ;
377 [label="DistanceFromHome <= 7.5\ngini = 0.461\nsamples = 25\nvalue = [16, 9]\nclass = No Attrition", fillcolor="#f4c8a8"] ;
375 -> 377 ;
378 [label="TotalWorkingYears <= 24.0\ngini = 0.397\nsamples = 11\nvalue = [3, 8]\nclass = Yes Attrition", fillcolor="#83c2ef"] ;
377 -> 378 ;
379 [label="gini = 0.0\nsamples = 8\nvalue = [0, 8]\nclass = Yes Attrition", fillcolor="#399de5"] ;
378 -> 379 ;
380 [label="gini = 0.0\nsamples = 3\nvalue = [3, 0]\nclass = No Attrition", fillcolor="#e58139"] ;
378 -> 380 ;
381 [label="EmployeeID <= 3447.5\ngini = 0.133\nsamples = 14\nvalue = [13, 1]\nclass = No Attrition", fillcolor="#e78b48"] ;
377 -> 381 ;
382 [label="gini = 0.0\nsamples = 12\nvalue = [12, 0]\nclass = No Attrition", fillcolor="#e58139"] ;
381 -> 382 ;
383 [label="DistanceFromHome <= 20.0\ngini = 0.5\nsamples = 2\nvalue = [1, 1]\nclass = No Attrition", fillcolor="#ffffff"] ;
381 -> 383 ;
384 [label="gini = 0.0\nsamples = 1\nvalue = [0, 1]\nclass = Yes Attrition", fillcolor="#399de5"] ;
383 -> 384 ;
385 [label="gini = 0.0\nsamples = 1\nvalue = [1, 0]\nclass = No Attrition", fillcolor="#e58139"] ;
383 -> 385 ;
386 [label="gini = 0.0\nsamples = 51\nvalue = [51, 0]\nclass = No Attrition", fillcolor="#e58139"] ;
360 -> 386 ;
387 [label="NumCompaniesWorked <= 2.5\ngini = 0.266\nsamples = 19\nvalue = [3, 16]\nclass = Yes Attrition", fillcolor="#5eafea"] ;
359 -> 387 ;
388 [label="JobSatisfaction <= 2.5\ngini = 0.375\nsamples = 4\nvalue = [3, 1]\nclass = No Attrition", fillcolor="#eeab7b"] ;
387 -> 388 ;
389 [label="gini = 0.0\nsamples = 1\nvalue = [0, 1]\nclass = Yes Attrition", fillcolor="#399de5"] ;
388 -> 389 ;
390 [label="gini = 0.0\nsamples = 3\nvalue = [3, 0]\nclass = No Attrition", fillcolor="#e58139"] ;
388 -> 390 ;
391 [label="gini = 0.0\nsamples = 15\nvalue = [0, 15]\nclass = Yes Attrition", fillcolor="#399de5"] ;
387 -> 391 ;
392 [label="gini = 0.0\nsamples = 49\nvalue = [0, 49]\nclass = Yes Attrition", fillcolor="#399de5"] ;
342 -> 392 ;
393 [label="YearsSinceLastPromotion <= 5.5\ngini = 0.334\nsamples = 590\nvalue = [465, 125]\nclass = No Attrition", fillcolor="#eca36e"] ;
341 -> 393 ;
394 [label="MonthlyIncome <= 20855.0\ngini = 0.231\nsamples = 376\nvalue = [326, 50]\nclass = No Attrition", fillcolor="#e99457"] ;
393 -> 394 ;
395 [label="YearsWithCurrManager <= 9.0\ngini = 0.231\nsamples = 15\nvalue = [2, 13]\nclass = Yes Attrition", fillcolor="#57ace9"] ;
394 -> 395 ;
396 [label="gini = 0.0\nsamples = 13\nvalue = [0, 13]\nclass = Yes Attrition", fillcolor="#399de5"] ;
395 -> 396 ;
397 [label="gini = 0.0\nsamples = 2\nvalue = [2, 0]\nclass = No Attrition", fillcolor="#e58139"] ;
395 -> 397 ;
398 [label="JobSatisfaction <= 3.026\ngini = 0.184\nsamples = 361\nvalue = [324, 37]\nclass = No Attrition", fillcolor="#e88f50"] ;
394 -> 398 ;
399 [label="EducationField_encoded <= 0.5\ngini = 0.164\nsamples = 356\nvalue = [324, 32]\nclass = No Attrition", fillcolor="#e88d4d"] ;
398 -> 399 ;
400 [label="gini = 0.0\nsamples = 4\nvalue = [0, 4]\nclass = Yes Attrition", fillcolor="#399de5"] ;
399 -> 400 ;
401 [label="JobRole_encoded <= 7.5\ngini = 0.146\nsamples = 352\nvalue = [324, 28]\nclass = No Attrition", fillcolor="#e78c4a"] ;
399 -> 401 ;
402 [label="EnvironmentSatisfaction <= 1.71\ngini = 0.126\nsamples = 341\nvalue = [318, 23]\nclass = No Attrition", fillcolor="#e78a47"] ;
401 -> 402 ;
403 [label="NumCompaniesWorked <= 6.5\ngini = 0.353\nsamples = 48\nvalue = [37, 11]\nclass = No Attrition", fillcolor="#eda674"] ;
402 -> 403 ;
404 [label="Gender_encoded <= 0.5\ngini = 0.24\nsamples = 43\nvalue = [37, 6]\nclass = No Attrition", fillcolor="#e99559"] ;
403 -> 404 ;
405 [label="YearsWithCurrManager <= 8.5\ngini = 0.5\nsamples = 12\nvalue = [6, 6]\nclass = No Attrition", fillcolor="#ffffff"] ;
404 -> 405 ;
406 [label="gini = 0.0\nsamples = 6\nvalue = [0, 6]\nclass = Yes Attrition", fillcolor="#399de5"] ;
405 -> 406 ;
407 [label="gini = 0.0\nsamples = 6\nvalue = [6, 0]\nclass = No Attrition", fillcolor="#e58139"] ;
405 -> 407 ;
408 [label="gini = 0.0\nsamples = 31\nvalue = [31, 0]\nclass = No Attrition", fillcolor="#e58139"] ;
404 -> 408 ;
409 [label="gini = 0.0\nsamples = 5\nvalue = [0, 5]\nclass = Yes Attrition", fillcolor="#399de5"] ;
403 -> 409 ;
410 [label="YearsSinceLastPromotion <= 1.5\ngini = 0.079\nsamples = 293\nvalue = [281, 12]\nclass = No Attrition", fillcolor="#e68641"] ;
402 -> 410 ;
411 [label="gini = 0.0\nsamples = 164\nvalue = [164, 0]\nclass = No Attrition", fillcolor="#e58139"] ;
410 -> 411 ;
412 [label="MonthlyIncome <= 25860.0\ngini = 0.169\nsamples = 129\nvalue = [117, 12]\nclass = No Attrition", fillcolor="#e88e4d"] ;
410 -> 412 ;
413 [label="JobRole_encoded <= 3.5\ngini = 0.469\nsamples = 16\nvalue = [10, 6]\nclass = No Attrition", fillcolor="#f5cdb0"] ;
412 -> 413 ;
414 [label="gini = 0.0\nsamples = 10\nvalue = [10, 0]\nclass = No Attrition", fillcolor="#e58139"] ;
413 -> 414 ;
415 [label="gini = 0.0\nsamples = 6\nvalue = [0, 6]\nclass = Yes Attrition", fillcolor="#399de5"] ;
413 -> 415 ;
416 [label="YearsAtCompany <= 10.5\ngini = 0.101\nsamples = 113\nvalue = [107, 6]\nclass = No Attrition", fillcolor="#e68844"] ;
412 -> 416 ;
417 [label="YearsSinceLastPromotion <= 3.5\ngini = 0.264\nsamples = 32\nvalue = [27, 5]\nclass = No Attrition", fillcolor="#ea985e"] ;
416 -> 417 ;
418 [label="TotalWorkingYears <= 9.409\ngini = 0.486\nsamples = 12\nvalue = [7, 5]\nclass = No Attrition", fillcolor="#f8dbc6"] ;
417 -> 418 ;
419 [label="gini = 0.0\nsamples = 7\nvalue = [7, 0]\nclass = No Attrition", fillcolor="#e58139"] ;
418 -> 419 ;
420 [label="gini = 0.0\nsamples = 5\nvalue = [0, 5]\nclass = Yes Attrition", fillcolor="#399de5"] ;
418 -> 420 ;
421 [label="gini = 0.0\nsamples = 20\nvalue = [20, 0]\nclass = No Attrition", fillcolor="#e58139"] ;
417 -> 421 ;
422 [label="EmployeeID <= 3628.5\ngini = 0.024\nsamples = 81\nvalue = [80, 1]\nclass = No Attrition", fillcolor="#e5833b"] ;
416 -> 422 ;
423 [label="gini = 0.0\nsamples = 67\nvalue = [67, 0]\nclass = No Attrition", fillcolor="#e58139"] ;
422 -> 423 ;
424 [label="EmployeeID <= 3708.5\ngini = 0.133\nsamples = 14\nvalue = [13, 1]\nclass = No Attrition", fillcolor="#e78b48"] ;
422 -> 424 ;
425 [label="gini = 0.0\nsamples = 1\nvalue = [0, 1]\nclass = Yes Attrition", fillcolor="#399de5"] ;
424 -> 425 ;
426 [label="gini = 0.0\nsamples = 13\nvalue = [13, 0]\nclass = No Attrition", fillcolor="#e58139"] ;
424 -> 426 ;
427 [label="Age <= 34.5\ngini = 0.496\nsamples = 11\nvalue = [6, 5]\nclass = No Attrition", fillcolor="#fbeade"] ;
401 -> 427 ;
428 [label="gini = 0.0\nsamples = 6\nvalue = [6, 0]\nclass = No Attrition", fillcolor="#e58139"] ;
427 -> 428 ;
429 [label="gini = 0.0\nsamples = 5\nvalue = [0, 5]\nclass = Yes Attrition", fillcolor="#399de5"] ;
427 -> 429 ;
430 [label="gini = 0.0\nsamples = 5\nvalue = [0, 5]\nclass = Yes Attrition", fillcolor="#399de5"] ;
398 -> 430 ;
431 [label="Age <= 36.5\ngini = 0.455\nsamples = 214\nvalue = [139, 75]\nclass = No Attrition", fillcolor="#f3c5a4"] ;
393 -> 431 ;
432 [label="JobRole_encoded <= 3.5\ngini = 0.49\nsamples = 91\nvalue = [39, 52]\nclass = Yes Attrition", fillcolor="#cee6f8"] ;
431 -> 432 ;
433 [label="YearsSinceLastPromotion <= 8.5\ngini = 0.365\nsamples = 25\nvalue = [19, 6]\nclass = No Attrition", fillcolor="#eda978"] ;
432 -> 433 ;
434 [label="NumCompaniesWorked <= 0.885\ngini = 0.236\nsamples = 22\nvalue = [19, 3]\nclass = No Attrition", fillcolor="#e99558"] ;
433 -> 434 ;
435 [label="gini = 0.0\nsamples = 1\nvalue = [0, 1]\nclass = Yes Attrition", fillcolor="#399de5"] ;
434 -> 435 ;
436 [label="YearsSinceLastPromotion <= 6.5\ngini = 0.172\nsamples = 21\nvalue = [19, 2]\nclass = No Attrition", fillcolor="#e88e4e"] ;
434 -> 436 ;
437 [label="gini = 0.0\nsamples = 1\nvalue = [0, 1]\nclass = Yes Attrition", fillcolor="#399de5"] ;
436 -> 437 ;
438 [label="Age <= 34.5\ngini = 0.095\nsamples = 20\nvalue = [19, 1]\nclass = No Attrition", fillcolor="#e68843"] ;
436 -> 438 ;
439 [label="gini = 0.0\nsamples = 16\nvalue = [16, 0]\nclass = No Attrition", fillcolor="#e58139"] ;
438 -> 439 ;
440 [label="EnvironmentSatisfaction <= 3.5\ngini = 0.375\nsamples = 4\nvalue = [3, 1]\nclass = No Attrition", fillcolor="#eeab7b"] ;
438 -> 440 ;
441 [label="gini = 0.0\nsamples = 3\nvalue = [3, 0]\nclass = No Attrition", fillcolor="#e58139"] ;
440 -> 441 ;
442 [label="gini = 0.0\nsamples = 1\nvalue = [0, 1]\nclass = Yes Attrition", fillcolor="#399de5"] ;
440 -> 442 ;
443 [label="gini = 0.0\nsamples = 3\nvalue = [0, 3]\nclass = Yes Attrition", fillcolor="#399de5"] ;
433 -> 443 ;
444 [label="NumCompaniesWorked <= 3.5\ngini = 0.422\nsamples = 66\nvalue = [20, 46]\nclass = Yes Attrition", fillcolor="#8fc8f0"] ;
432 -> 444 ;
445 [label="BusinessTravel_encoded <= 0.5\ngini = 0.286\nsamples = 52\nvalue = [9, 43]\nclass = Yes Attrition", fillcolor="#62b2ea"] ;
444 -> 445 ;
446 [label="gini = 0.0\nsamples = 5\nvalue = [5, 0]\nclass = No Attrition", fillcolor="#e58139"] ;
445 -> 446 ;
447 [label="Education <= 2.5\ngini = 0.156\nsamples = 47\nvalue = [4, 43]\nclass = Yes Attrition", fillcolor="#4ba6e7"] ;
445 -> 447 ;
448 [label="EnvironmentSatisfaction <= 2.293\ngini = 0.463\nsamples = 11\nvalue = [4, 7]\nclass = Yes Attrition", fillcolor="#aad5f4"] ;
447 -> 448 ;
449 [label="gini = 0.0\nsamples = 7\nvalue = [0, 7]\nclass = Yes Attrition", fillcolor="#399de5"] ;
448 -> 449 ;
450 [label="gini = 0.0\nsamples = 4\nvalue = [4, 0]\nclass = No Attrition", fillcolor="#e58139"] ;
448 -> 450 ;
451 [label="gini = 0.0\nsamples = 36\nvalue = [0, 36]\nclass = Yes Attrition", fillcolor="#399de5"] ;
447 -> 451 ;
452 [label="TotalWorkingYears <= 12.759\ngini = 0.337\nsamples = 14\nvalue = [11, 3]\nclass = No Attrition", fillcolor="#eca36f"] ;
444 -> 452 ;
453 [label="gini = 0.0\nsamples = 10\nvalue = [10, 0]\nclass = No Attrition", fillcolor="#e58139"] ;
452 -> 453 ;
454 [label="NumCompaniesWorked <= 8.0\ngini = 0.375\nsamples = 4\nvalue = [1, 3]\nclass = Yes Attrition", fillcolor="#7bbeee"] ;
452 -> 454 ;
455 [label="gini = 0.0\nsamples = 3\nvalue = [0, 3]\nclass = Yes Attrition", fillcolor="#399de5"] ;
454 -> 455 ;
456 [label="gini = 0.0\nsamples = 1\nvalue = [1, 0]\nclass = No Attrition", fillcolor="#e58139"] ;
454 -> 456 ;
457 [label="Department_encoded <= 0.5\ngini = 0.304\nsamples = 123\nvalue = [100, 23]\nclass = No Attrition", fillcolor="#eb9e67"] ;
431 -> 457 ;
458 [label="gini = 0.0\nsamples = 5\nvalue = [0, 5]\nclass = Yes Attrition", fillcolor="#399de5"] ;
457 -> 458 ;
459 [label="JobRole_encoded <= 1.5\ngini = 0.259\nsamples = 118\nvalue = [100, 18]\nclass = No Attrition", fillcolor="#ea985d"] ;
457 -> 459 ;
460 [label="gini = 0.0\nsamples = 4\nvalue = [0, 4]\nclass = Yes Attrition", fillcolor="#399de5"] ;
459 -> 460 ;
461 [label="DistanceFromHome <= 15.0\ngini = 0.215\nsamples = 114\nvalue = [100, 14]\nclass = No Attrition", fillcolor="#e99355"] ;
459 -> 461 ;
462 [label="WorkLifeBalance <= 3.235\ngini = 0.074\nsamples = 78\nvalue = [75, 3]\nclass = No Attrition", fillcolor="#e68641"] ;
461 -> 462 ;
463 [label="gini = 0.0\nsamples = 73\nvalue = [73, 0]\nclass = No Attrition", fillcolor="#e58139"] ;
462 -> 463 ;
464 [label="YearsWithCurrManager <= 10.0\ngini = 0.48\nsamples = 5\nvalue = [2, 3]\nclass = Yes Attrition", fillcolor="#bddef6"] ;
462 -> 464 ;
465 [label="gini = 0.0\nsamples = 3\nvalue = [0, 3]\nclass = Yes Attrition", fillcolor="#399de5"] ;
464 -> 465 ;
466 [label="gini = 0.0\nsamples = 2\nvalue = [2, 0]\nclass = No Attrition", fillcolor="#e58139"] ;
464 -> 466 ;
467 [label="YearsWithCurrManager <= 8.5\ngini = 0.424\nsamples = 36\nvalue = [25, 11]\nclass = No Attrition", fillcolor="#f0b890"] ;
461 -> 467 ;
468 [label="MonthlyIncome <= 27995.0\ngini = 0.499\nsamples = 21\nvalue = [10, 11]\nclass = Yes Attrition", fillcolor="#edf6fd"] ;
467 -> 468 ;
469 [label="gini = 0.0\nsamples = 6\nvalue = [6, 0]\nclass = No Attrition", fillcolor="#e58139"] ;
468 -> 469 ;
470 [label="PercentSalaryHike <= 18.5\ngini = 0.391\nsamples = 15\nvalue = [4, 11]\nclass = Yes Attrition", fillcolor="#81c1ee"] ;
468 -> 470 ;
471 [label="NumCompaniesWorked <= 0.5\ngini = 0.153\nsamples = 12\nvalue = [1, 11]\nclass = Yes Attrition", fillcolor="#4ba6e7"] ;
470 -> 471 ;
472 [label="gini = 0.0\nsamples = 1\nvalue = [1, 0]\nclass = No Attrition", fillcolor="#e58139"] ;
471 -> 472 ;
473 [label="gini = 0.0\nsamples = 11\nvalue = [0, 11]\nclass = Yes Attrition", fillcolor="#399de5"] ;
471 -> 473 ;
474 [label="gini = 0.0\nsamples = 3\nvalue = [3, 0]\nclass = No Attrition", fillcolor="#e58139"] ;
470 -> 474 ;
475 [label="gini = 0.0\nsamples = 15\nvalue = [15, 0]\nclass = No Attrition", fillcolor="#e58139"] ;
467 -> 475 ;
476 [label="TotalWorkingYears <= 1.992\ngini = 0.334\nsamples = 1080\nvalue = [851, 229]\nclass = No Attrition", fillcolor="#eca36e"] ;
0 -> 476 [labeldistance=2.5, labelangle=-45, headlabel="False"] ;
477 [label="Age <= 33.0\ngini = 0.464\nsamples = 60\nvalue = [22, 38]\nclass = Yes Attrition", fillcolor="#acd6f4"] ;
476 -> 477 ;
478 [label="JobLevel <= 2.5\ngini = 0.33\nsamples = 48\nvalue = [10, 38]\nclass = Yes Attrition", fillcolor="#6db7ec"] ;
477 -> 478 ;
479 [label="TotalWorkingYears <= 0.5\ngini = 0.236\nsamples = 44\nvalue = [6, 38]\nclass = Yes Attrition", fillcolor="#58ace9"] ;
478 -> 479 ;
480 [label="Education <= 4.5\ngini = 0.444\nsamples = 6\nvalue = [4, 2]\nclass = No Attrition", fillcolor="#f2c09c"] ;
479 -> 480 ;
481 [label="gini = 0.0\nsamples = 4\nvalue = [4, 0]\nclass = No Attrition", fillcolor="#e58139"] ;
480 -> 481 ;
482 [label="gini = 0.0\nsamples = 2\nvalue = [0, 2]\nclass = Yes Attrition", fillcolor="#399de5"] ;
480 -> 482 ;
483 [label="TrainingTimesLastYear <= 5.5\ngini = 0.1\nsamples = 38\nvalue = [2, 36]\nclass = Yes Attrition", fillcolor="#44a2e6"] ;
479 -> 483 ;
484 [label="gini = 0.0\nsamples = 36\nvalue = [0, 36]\nclass = Yes Attrition", fillcolor="#399de5"] ;
483 -> 484 ;
485 [label="gini = 0.0\nsamples = 2\nvalue = [2, 0]\nclass = No Attrition", fillcolor="#e58139"] ;
483 -> 485 ;
486 [label="gini = 0.0\nsamples = 4\nvalue = [4, 0]\nclass = No Attrition", fillcolor="#e58139"] ;
478 -> 486 ;
487 [label="gini = 0.0\nsamples = 12\nvalue = [12, 0]\nclass = No Attrition", fillcolor="#e58139"] ;
477 -> 487 ;
488 [label="MonthlyIncome <= 19585.0\ngini = 0.304\nsamples = 1020\nvalue = [829, 191]\nclass = No Attrition", fillcolor="#eb9e67"] ;
476 -> 488 ;
489 [label="Gender_encoded <= 0.5\ngini = 0.476\nsamples = 59\nvalue = [23, 36]\nclass = Yes Attrition", fillcolor="#b8dcf6"] ;
488 -> 489 ;
490 [label="gini = 0.0\nsamples = 27\nvalue = [0, 27]\nclass = Yes Attrition", fillcolor="#399de5"] ;
489 -> 490 ;
491 [label="PercentSalaryHike <= 17.5\ngini = 0.404\nsamples = 32\nvalue = [23, 9]\nclass = No Attrition", fillcolor="#efb286"] ;
489 -> 491 ;
492 [label="gini = 0.0\nsamples = 18\nvalue = [18, 0]\nclass = No Attrition", fillcolor="#e58139"] ;
491 -> 492 ;
493 [label="MonthlyIncome <= 11155.0\ngini = 0.459\nsamples = 14\nvalue = [5, 9]\nclass = Yes Attrition", fillcolor="#a7d3f3"] ;
491 -> 493 ;
494 [label="gini = 0.0\nsamples = 5\nvalue = [5, 0]\nclass = No Attrition", fillcolor="#e58139"] ;
493 -> 494 ;
495 [label="gini = 0.0\nsamples = 9\nvalue = [0, 9]\nclass = Yes Attrition", fillcolor="#399de5"] ;
493 -> 495 ;
496 [label="WorkLifeBalance <= 2.992\ngini = 0.271\nsamples = 961\nvalue = [806, 155]\nclass = No Attrition", fillcolor="#ea995f"] ;
488 -> 496 ;
497 [label="WorkLifeBalance <= 2.003\ngini = 0.387\nsamples = 320\nvalue = [236, 84]\nclass = No Attrition", fillcolor="#eeae7f"] ;
496 -> 497 ;
498 [label="NumCompaniesWorked <= 3.075\ngini = 0.336\nsamples = 300\nvalue = [236, 64]\nclass = No Attrition", fillcolor="#eca36f"] ;
497 -> 498 ;
499 [label="YearsSinceLastPromotion <= 6.5\ngini = 0.175\nsamples = 196\nvalue = [177, 19]\nclass = No Attrition", fillcolor="#e88f4e"] ;
498 -> 499 ;
500 [label="YearsWithCurrManager <= 1.5\ngini = 0.093\nsamples = 163\nvalue = [155, 8]\nclass = No Attrition", fillcolor="#e68843"] ;
499 -> 500 ;
501 [label="TotalWorkingYears <= 7.5\ngini = 0.383\nsamples = 31\nvalue = [23, 8]\nclass = No Attrition", fillcolor="#eead7e"] ;
500 -> 501 ;
502 [label="gini = 0.0\nsamples = 8\nvalue = [0, 8]\nclass = Yes Attrition", fillcolor="#399de5"] ;
501 -> 502 ;
503 [label="gini = 0.0\nsamples = 23\nvalue = [23, 0]\nclass = No Attrition", fillcolor="#e58139"] ;
501 -> 503 ;
504 [label="gini = 0.0\nsamples = 132\nvalue = [132, 0]\nclass = No Attrition", fillcolor="#e58139"] ;
500 -> 504 ;
505 [label="MonthlyIncome <= 44315.0\ngini = 0.444\nsamples = 33\nvalue = [22, 11]\nclass = No Attrition", fillcolor="#f2c09c"] ;
499 -> 505 ;
506 [label="Education <= 3.5\ngini = 0.475\nsamples = 18\nvalue = [7, 11]\nclass = Yes Attrition", fillcolor="#b7dbf6"] ;
505 -> 506 ;
507 [label="gini = 0.0\nsamples = 11\nvalue = [0, 11]\nclass = Yes Attrition", fillcolor="#399de5"] ;
506 -> 507 ;
508 [label="gini = 0.0\nsamples = 7\nvalue = [7, 0]\nclass = No Attrition", fillcolor="#e58139"] ;
506 -> 508 ;
509 [label="gini = 0.0\nsamples = 15\nvalue = [15, 0]\nclass = No Attrition", fillcolor="#e58139"] ;
505 -> 509 ;
510 [label="DistanceFromHome <= 6.0\ngini = 0.491\nsamples = 104\nvalue = [59, 45]\nclass = No Attrition", fillcolor="#f9e1d0"] ;
498 -> 510 ;
511 [label="gini = 0.0\nsamples = 35\nvalue = [35, 0]\nclass = No Attrition", fillcolor="#e58139"] ;
510 -> 511 ;
512 [label="TotalWorkingYears <= 8.866\ngini = 0.454\nsamples = 69\nvalue = [24, 45]\nclass = Yes Attrition", fillcolor="#a3d1f3"] ;
510 -> 512 ;
513 [label="DistanceFromHome <= 16.5\ngini = 0.136\nsamples = 41\nvalue = [3, 38]\nclass = Yes Attrition", fillcolor="#49a5e7"] ;
512 -> 513 ;
514 [label="gini = 0.0\nsamples = 38\nvalue = [0, 38]\nclass = Yes Attrition", fillcolor="#399de5"] ;
513 -> 514 ;
515 [label="gini = 0.0\nsamples = 3\nvalue = [3, 0]\nclass = No Attrition", fillcolor="#e58139"] ;
513 -> 515 ;
516 [label="JobInvolvement <= 3.5\ngini = 0.375\nsamples = 28\nvalue = [21, 7]\nclass = No Attrition", fillcolor="#eeab7b"] ;
512 -> 516 ;
517 [label="JobRole_encoded <= 7.5\ngini = 0.159\nsamples = 23\nvalue = [21, 2]\nclass = No Attrition", fillcolor="#e78d4c"] ;
516 -> 517 ;
518 [label="gini = 0.0\nsamples = 21\nvalue = [21, 0]\nclass = No Attrition", fillcolor="#e58139"] ;
517 -> 518 ;
519 [label="gini = 0.0\nsamples = 2\nvalue = [0, 2]\nclass = Yes Attrition", fillcolor="#399de5"] ;
517 -> 519 ;
520 [label="gini = 0.0\nsamples = 5\nvalue = [0, 5]\nclass = Yes Attrition", fillcolor="#399de5"] ;
516 -> 520 ;
521 [label="gini = 0.0\nsamples = 20\nvalue = [0, 20]\nclass = Yes Attrition", fillcolor="#399de5"] ;
497 -> 521 ;
522 [label="PercentSalaryHike <= 24.5\ngini = 0.197\nsamples = 641\nvalue = [570, 71]\nclass = No Attrition", fillcolor="#e89152"] ;
496 -> 522 ;
523 [label="MonthlyIncome <= 66176.5\ngini = 0.18\nsamples = 631\nvalue = [568, 63]\nclass = No Attrition", fillcolor="#e88f4f"] ;
522 -> 523 ;
524 [label="Department_encoded <= 0.5\ngini = 0.072\nsamples = 399\nvalue = [384, 15]\nclass = No Attrition", fillcolor="#e68641"] ;
523 -> 524 ;
525 [label="DistanceFromHome <= 7.5\ngini = 0.492\nsamples = 16\nvalue = [9, 7]\nclass = No Attrition", fillcolor="#f9e3d3"] ;
524 -> 525 ;
526 [label="YearsSinceLastPromotion <= 1.5\ngini = 0.346\nsamples = 9\nvalue = [2, 7]\nclass = Yes Attrition", fillcolor="#72b9ec"] ;
525 -> 526 ;
527 [label="gini = 0.0\nsamples = 7\nvalue = [0, 7]\nclass = Yes Attrition", fillcolor="#399de5"] ;
526 -> 527 ;
528 [label="gini = 0.0\nsamples = 2\nvalue = [2, 0]\nclass = No Attrition", fillcolor="#e58139"] ;
526 -> 528 ;
529 [label="gini = 0.0\nsamples = 7\nvalue = [7, 0]\nclass = No Attrition", fillcolor="#e58139"] ;
525 -> 529 ;
530 [label="Age <= 22.0\ngini = 0.041\nsamples = 383\nvalue = [375, 8]\nclass = No Attrition", fillcolor="#e6843d"] ;
524 -> 530 ;
531 [label="gini = 0.0\nsamples = 1\nvalue = [0, 1]\nclass = Yes Attrition", fillcolor="#399de5"] ;
530 -> 531 ;
532 [label="MonthlyIncome <= 54018.0\ngini = 0.036\nsamples = 382\nvalue = [375, 7]\nclass = No Attrition", fillcolor="#e5833d"] ;
530 -> 532 ;
533 [label="YearsAtCompany <= 15.5\ngini = 0.012\nsamples = 324\nvalue = [322, 2]\nclass = No Attrition", fillcolor="#e5823a"] ;
532 -> 533 ;
534 [label="gini = 0.0\nsamples = 301\nvalue = [301, 0]\nclass = No Attrition", fillcolor="#e58139"] ;
533 -> 534 ;
535 [label="YearsAtCompany <= 16.5\ngini = 0.159\nsamples = 23\nvalue = [21, 2]\nclass = No Attrition", fillcolor="#e78d4c"] ;
533 -> 535 ;
536 [label="gini = 0.0\nsamples = 2\nvalue = [0, 2]\nclass = Yes Attrition", fillcolor="#399de5"] ;
535 -> 536 ;
537 [label="gini = 0.0\nsamples = 21\nvalue = [21, 0]\nclass = No Attrition", fillcolor="#e58139"] ;
535 -> 537 ;
538 [label="PercentSalaryHike <= 11.5\ngini = 0.158\nsamples = 58\nvalue = [53, 5]\nclass = No Attrition", fillcolor="#e78d4c"] ;
532 -> 538 ;
539 [label="gini = 0.0\nsamples = 2\nvalue = [0, 2]\nclass = Yes Attrition", fillcolor="#399de5"] ;
538 -> 539 ;
540 [label="MonthlyIncome <= 54278.0\ngini = 0.101\nsamples = 56\nvalue = [53, 3]\nclass = No Attrition", fillcolor="#e68844"] ;
538 -> 540 ;
541 [label="gini = 0.0\nsamples = 1\nvalue = [0, 1]\nclass = Yes Attrition", fillcolor="#399de5"] ;
540 -> 541 ;
542 [label="DistanceFromHome <= 19.5\ngini = 0.07\nsamples = 55\nvalue = [53, 2]\nclass = No Attrition", fillcolor="#e68640"] ;
540 -> 542 ;
543 [label="gini = 0.0\nsamples = 49\nvalue = [49, 0]\nclass = No Attrition", fillcolor="#e58139"] ;
542 -> 543 ;
544 [label="StockOptionLevel <= 0.5\ngini = 0.444\nsamples = 6\nvalue = [4, 2]\nclass = No Attrition", fillcolor="#f2c09c"] ;
542 -> 544 ;
545 [label="gini = 0.0\nsamples = 4\nvalue = [4, 0]\nclass = No Attrition", fillcolor="#e58139"] ;
544 -> 545 ;
546 [label="gini = 0.0\nsamples = 2\nvalue = [0, 2]\nclass = Yes Attrition", fillcolor="#399de5"] ;
544 -> 546 ;
547 [label="YearsSinceLastPromotion <= 2.5\ngini = 0.328\nsamples = 232\nvalue = [184, 48]\nclass = No Attrition", fillcolor="#eca26d"] ;
523 -> 547 ;
548 [label="MonthlyIncome <= 76590.5\ngini = 0.15\nsamples = 147\nvalue = [135, 12]\nclass = No Attrition", fillcolor="#e78c4b"] ;
547 -> 548 ;
549 [label="Age <= 34.5\ngini = 0.402\nsamples = 43\nvalue = [31, 12]\nclass = No Attrition", fillcolor="#efb286"] ;
548 -> 549 ;
550 [label="Gender_encoded <= 0.5\ngini = 0.375\nsamples = 16\nvalue = [4, 12]\nclass = Yes Attrition", fillcolor="#7bbeee"] ;
549 -> 550 ;
551 [label="gini = 0.0\nsamples = 4\nvalue = [4, 0]\nclass = No Attrition", fillcolor="#e58139"] ;
550 -> 551 ;
552 [label="gini = 0.0\nsamples = 12\nvalue = [0, 12]\nclass = Yes Attrition", fillcolor="#399de5"] ;
550 -> 552 ;
553 [label="gini = 0.0\nsamples = 27\nvalue = [27, 0]\nclass = No Attrition", fillcolor="#e58139"] ;
549 -> 553 ;
554 [label="gini = 0.0\nsamples = 104\nvalue = [104, 0]\nclass = No Attrition", fillcolor="#e58139"] ;
548 -> 554 ;
555 [label="TotalWorkingYears <= 9.5\ngini = 0.488\nsamples = 85\nvalue = [49, 36]\nclass = No Attrition", fillcolor="#f8deca"] ;
547 -> 555 ;
556 [label="Gender_encoded <= 0.5\ngini = 0.339\nsamples = 37\nvalue = [8, 29]\nclass = Yes Attrition", fillcolor="#70b8ec"] ;
555 -> 556 ;
557 [label="gini = 0.0\nsamples = 25\nvalue = [0, 25]\nclass = Yes Attrition", fillcolor="#399de5"] ;
556 -> 557 ;
558 [label="MonthlyIncome <= 133335.0\ngini = 0.444\nsamples = 12\nvalue = [8, 4]\nclass = No Attrition", fillcolor="#f2c09c"] ;
556 -> 558 ;
559 [label="gini = 0.0\nsamples = 8\nvalue = [8, 0]\nclass = No Attrition", fillcolor="#e58139"] ;
558 -> 559 ;
560 [label="gini = 0.0\nsamples = 4\nvalue = [0, 4]\nclass = Yes Attrition", fillcolor="#399de5"] ;
558 -> 560 ;
561 [label="MonthlyIncome <= 71025.5\ngini = 0.249\nsamples = 48\nvalue = [41, 7]\nclass = No Attrition", fillcolor="#e9975b"] ;
555 -> 561 ;
562 [label="gini = 0.0\nsamples = 7\nvalue = [0, 7]\nclass = Yes Attrition", fillcolor="#399de5"] ;
561 -> 562 ;
563 [label="gini = 0.0\nsamples = 41\nvalue = [41, 0]\nclass = No Attrition", fillcolor="#e58139"] ;
561 -> 563 ;
564 [label="JobLevel <= 1.5\ngini = 0.32\nsamples = 10\nvalue = [2, 8]\nclass = Yes Attrition", fillcolor="#6ab6ec"] ;
522 -> 564 ;
565 [label="gini = 0.0\nsamples = 2\nvalue = [2, 0]\nclass = No Attrition", fillcolor="#e58139"] ;
564 -> 565 ;
566 [label="gini = 0.0\nsamples = 8\nvalue = [0, 8]\nclass = Yes Attrition", fillcolor="#399de5"] ;
564 -> 566 ;
}
