digraph Tree {
node [shape=box, style="filled", color="black", fontname="helvetica"] ;
edge [fontname="helvetica"] ;
0 [label="TotalWorkingYears <= 2.5\ngini = 0.267\nsamples = 3087\nvalue = [2597, 490]\nclass = No Attrition", fillcolor="#ea995e"] ;
1 [label="MaritalStatus_encoded <= 0.5\ngini = 0.489\nsamples = 255\nvalue = [146, 109]\nclass = No Attrition", fillcolor="#f8dfcd"] ;
0 -> 1 [labeldistance=2.5, labelangle=45, headlabel="True"] ;
2 [label="EnvironmentSatisfaction <= 1.5\ngini = 0.26\nsamples = 52\nvalue = [44, 8]\nclass = No Attrition", fillcolor="#ea985d"] ;
1 -> 2 ;
3 [label="JobRole_encoded <= 2.5\ngini = 0.49\nsamples = 14\nvalue = [6, 8]\nclass = Yes Attrition", fillcolor="#cee6f8"] ;
2 -> 3 ;
4 [label="gini = 0.0\nsamples = 6\nvalue = [6, 0]\nclass = No Attrition", fillcolor="#e58139"] ;
3 -> 4 ;
5 [label="gini = 0.0\nsamples = 8\nvalue = [0, 8]\nclass = Yes Attrition", fillcolor="#399de5"] ;
3 -> 5 ;
6 [label="gini = 0.0\nsamples = 38\nvalue = [38, 0]\nclass = No Attrition", fillcolor="#e58139"] ;
2 -> 6 ;
7 [label="Age <= 33.5\ngini = 0.5\nsamples = 203\nvalue = [102, 101]\nclass = No Attrition", fillcolor="#fffefd"] ;
1 -> 7 ;
8 [label="YearsAtCompany <= 1.5\ngini = 0.491\nsamples = 169\nvalue = [73, 96]\nclass = Yes Attrition", fillcolor="#d0e8f9"] ;
7 -> 8 ;
9 [label="JobRole_encoded <= 7.5\ngini = 0.449\nsamples = 129\nvalue = [44, 85]\nclass = Yes Attrition", fillcolor="#9fd0f2"] ;
8 -> 9 ;
10 [label="MonthlyIncome <= 19425.0\ngini = 0.398\nsamples = 113\nvalue = [31, 82]\nclass = Yes Attrition", fillcolor="#84c2ef"] ;
9 -> 10 ;
11 [label="gini = 0.0\nsamples = 4\nvalue = [4, 0]\nclass = No Attrition", fillcolor="#e58139"] ;
10 -> 11 ;
12 [label="StockOptionLevel <= 2.5\ngini = 0.373\nsamples = 109\nvalue = [27, 82]\nclass = Yes Attrition", fillcolor="#7abdee"] ;
10 -> 12 ;
13 [label="TrainingTimesLastYear <= 1.0\ngini = 0.329\nsamples = 101\nvalue = [21, 80]\nclass = Yes Attrition", fillcolor="#6db7ec"] ;
12 -> 13 ;
14 [label="gini = 0.0\nsamples = 3\nvalue = [3, 0]\nclass = No Attrition", fillcolor="#e58139"] ;
13 -> 14 ;
15 [label="BusinessTravel_encoded <= 0.5\ngini = 0.3\nsamples = 98\nvalue = [18, 80]\nclass = Yes Attrition", fillcolor="#66b3eb"] ;
13 -> 15 ;
16 [label="JobRole_encoded <= 2.5\ngini = 0.5\nsamples = 10\nvalue = [5, 5]\nclass = No Attrition", fillcolor="#ffffff"] ;
15 -> 16 ;
17 [label="gini = 0.0\nsamples = 5\nvalue = [0, 5]\nclass = Yes Attrition", fillcolor="#399de5"] ;
16 -> 17 ;
18 [label="gini = 0.0\nsamples = 5\nvalue = [5, 0]\nclass = No Attrition", fillcolor="#e58139"] ;
16 -> 18 ;
19 [label="TrainingTimesLastYear <= 4.5\ngini = 0.252\nsamples = 88\nvalue = [13, 75]\nclass = Yes Attrition", fillcolor="#5baeea"] ;
15 -> 19 ;
20 [label="PercentSalaryHike <= 24.0\ngini = 0.186\nsamples = 77\nvalue = [8, 69]\nclass = Yes Attrition", fillcolor="#50a8e8"] ;
19 -> 20 ;
21 [label="EmployeeID <= 75.0\ngini = 0.167\nsamples = 76\nvalue = [7, 69]\nclass = Yes Attrition", fillcolor="#4da7e8"] ;
20 -> 21 ;
22 [label="gini = 0.0\nsamples = 1\nvalue = [1, 0]\nclass = No Attrition", fillcolor="#e58139"] ;
21 -> 22 ;
23 [label="NumCompaniesWorked <= 2.0\ngini = 0.147\nsamples = 75\nvalue = [6, 69]\nclass = Yes Attrition", fillcolor="#4aa6e7"] ;
21 -> 23 ;
24 [label="MonthlyIncome <= 123445.0\ngini = 0.128\nsamples = 73\nvalue = [5, 68]\nclass = Yes Attrition", fillcolor="#48a4e7"] ;
23 -> 24 ;
25 [label="JobInvolvement <= 1.5\ngini = 0.087\nsamples = 66\nvalue = [3, 63]\nclass = Yes Attrition", fillcolor="#42a2e6"] ;
24 -> 25 ;
26 [label="YearsSinceLastPromotion <= 0.5\ngini = 0.32\nsamples = 10\nvalue = [2, 8]\nclass = Yes Attrition", fillcolor="#6ab6ec"] ;
25 -> 26 ;
27 [label="gini = 0.0\nsamples = 8\nvalue = [0, 8]\nclass = Yes Attrition", fillcolor="#399de5"] ;
26 -> 27 ;
28 [label="gini = 0.0\nsamples = 2\nvalue = [2, 0]\nclass = No Attrition", fillcolor="#e58139"] ;
26 -> 28 ;
29 [label="DistanceFromHome <= 21.0\ngini = 0.035\nsamples = 56\nvalue = [1, 55]\nclass = Yes Attrition", fillcolor="#3d9fe5"] ;
25 -> 29 ;
30 [label="gini = 0.0\nsamples = 53\nvalue = [0, 53]\nclass = Yes Attrition", fillcolor="#399de5"] ;
29 -> 30 ;
31 [label="Education <= 2.5\ngini = 0.444\nsamples = 3\nvalue = [1, 2]\nclass = Yes Attrition", fillcolor="#9ccef2"] ;
29 -> 31 ;
32 [label="gini = 0.0\nsamples = 1\nvalue = [1, 0]\nclass = No Attrition", fillcolor="#e58139"] ;
31 -> 32 ;
33 [label="gini = 0.0\nsamples = 2\nvalue = [0, 2]\nclass = Yes Attrition", fillcolor="#399de5"] ;
31 -> 33 ;
34 [label="DistanceFromHome <= 5.0\ngini = 0.408\nsamples = 7\nvalue = [2, 5]\nclass = Yes Attrition", fillcolor="#88c4ef"] ;
24 -> 34 ;
35 [label="gini = 0.0\nsamples = 2\nvalue = [2, 0]\nclass = No Attrition", fillcolor="#e58139"] ;
34 -> 35 ;
36 [label="gini = 0.0\nsamples = 5\nvalue = [0, 5]\nclass = Yes Attrition", fillcolor="#399de5"] ;
34 -> 36 ;
37 [label="MaritalStatus_encoded <= 1.5\ngini = 0.5\nsamples = 2\nvalue = [1, 1]\nclass = No Attrition", fillcolor="#ffffff"] ;
23 -> 37 ;
38 [label="gini = 0.0\nsamples = 1\nvalue = [1, 0]\nclass = No Attrition", fillcolor="#e58139"] ;
37 -> 38 ;
39 [label="gini = 0.0\nsamples = 1\nvalue = [0, 1]\nclass = Yes Attrition", fillcolor="#399de5"] ;
37 -> 39 ;
40 [label="gini = 0.0\nsamples = 1\nvalue = [1, 0]\nclass = No Attrition", fillcolor="#e58139"] ;
20 -> 40 ;
41 [label="JobRole_encoded <= 4.5\ngini = 0.496\nsamples = 11\nvalue = [5, 6]\nclass = Yes Attrition", fillcolor="#deeffb"] ;
19 -> 41 ;
42 [label="gini = 0.0\nsamples = 6\nvalue = [0, 6]\nclass = Yes Attrition", fillcolor="#399de5"] ;
41 -> 42 ;
43 [label="gini = 0.0\nsamples = 5\nvalue = [5, 0]\nclass = No Attrition", fillcolor="#e58139"] ;
41 -> 43 ;
44 [label="EducationField_encoded <= 2.0\ngini = 0.375\nsamples = 8\nvalue = [6, 2]\nclass = No Attrition", fillcolor="#eeab7b"] ;
12 -> 44 ;
45 [label="gini = 0.0\nsamples = 2\nvalue = [0, 2]\nclass = Yes Attrition", fillcolor="#399de5"] ;
44 -> 45 ;
46 [label="gini = 0.0\nsamples = 6\nvalue = [6, 0]\nclass = No Attrition", fillcolor="#e58139"] ;
44 -> 46 ;
47 [label="JobLevel <= 4.0\ngini = 0.305\nsamples = 16\nvalue = [13, 3]\nclass = No Attrition", fillcolor="#eb9e67"] ;
9 -> 47 ;
48 [label="DistanceFromHome <= 19.5\ngini = 0.133\nsamples = 14\nvalue = [13, 1]\nclass = No Attrition", fillcolor="#e78b48"] ;
47 -> 48 ;
49 [label="gini = 0.0\nsamples = 13\nvalue = [13, 0]\nclass = No Attrition", fillcolor="#e58139"] ;
48 -> 49 ;
50 [label="gini = 0.0\nsamples = 1\nvalue = [0, 1]\nclass = Yes Attrition", fillcolor="#399de5"] ;
48 -> 50 ;
51 [label="gini = 0.0\nsamples = 2\nvalue = [0, 2]\nclass = Yes Attrition", fillcolor="#399de5"] ;
47 -> 51 ;
52 [label="Department_encoded <= 1.5\ngini = 0.399\nsamples = 40\nvalue = [29, 11]\nclass = No Attrition", fillcolor="#efb184"] ;
8 -> 52 ;
53 [label="TrainingTimesLastYear <= 5.5\ngini = 0.238\nsamples = 29\nvalue = [25, 4]\nclass = No Attrition", fillcolor="#e99559"] ;
52 -> 53 ;
54 [label="Education <= 1.5\ngini = 0.074\nsamples = 26\nvalue = [25, 1]\nclass = No Attrition", fillcolor="#e68641"] ;
53 -> 54 ;
55 [label="gini = 0.0\nsamples = 1\nvalue = [0, 1]\nclass = Yes Attrition", fillcolor="#399de5"] ;
54 -> 55 ;
56 [label="gini = 0.0\nsamples = 25\nvalue = [25, 0]\nclass = No Attrition", fillcolor="#e58139"] ;
54 -> 56 ;
57 [label="gini = 0.0\nsamples = 3\nvalue = [0, 3]\nclass = Yes Attrition", fillcolor="#399de5"] ;
53 -> 57 ;
58 [label="MonthlyIncome <= 59955.0\ngini = 0.463\nsamples = 11\nvalue = [4, 7]\nclass = Yes Attrition", fillcolor="#aad5f4"] ;
52 -> 58 ;
59 [label="gini = 0.0\nsamples = 7\nvalue = [0, 7]\nclass = Yes Attrition", fillcolor="#399de5"] ;
58 -> 59 ;
60 [label="gini = 0.0\nsamples = 4\nvalue = [4, 0]\nclass = No Attrition", fillcolor="#e58139"] ;
58 -> 60 ;
61 [label="StockOptionLevel <= 2.5\ngini = 0.251\nsamples = 34\nvalue = [29, 5]\nclass = No Attrition", fillcolor="#e9975b"] ;
7 -> 61 ;
62 [label="EnvironmentSatisfaction <= 1.5\ngini = 0.121\nsamples = 31\nvalue = [29, 2]\nclass = No Attrition", fillcolor="#e78a47"] ;
61 -> 62 ;
63 [label="YearsSinceLastPromotion <= 1.0\ngini = 0.5\nsamples = 4\nvalue = [2, 2]\nclass = No Attrition", fillcolor="#ffffff"] ;
62 -> 63 ;
64 [label="gini = 0.0\nsamples = 2\nvalue = [2, 0]\nclass = No Attrition", fillcolor="#e58139"] ;
63 -> 64 ;
65 [label="gini = 0.0\nsamples = 2\nvalue = [0, 2]\nclass = Yes Attrition", fillcolor="#399de5"] ;
63 -> 65 ;
66 [label="gini = 0.0\nsamples = 27\nvalue = [27, 0]\nclass = No Attrition", fillcolor="#e58139"] ;
62 -> 66 ;
67 [label="gini = 0.0\nsamples = 3\nvalue = [0, 3]\nclass = Yes Attrition", fillcolor="#399de5"] ;
61 -> 67 ;
68 [label="NumCompaniesWorked <= 4.5\ngini = 0.233\nsamples = 2832\nvalue = [2451, 381]\nclass = No Attrition", fillcolor="#e99558"] ;
0 -> 68 [labeldistance=2.5, labelangle=-45, headlabel="False"] ;
69 [label="MaritalStatus_encoded <= 1.5\ngini = 0.192\nsamples = 2174\nvalue = [1940, 234]\nclass = No Attrition", fillcolor="#e89051"] ;
68 -> 69 ;
70 [label="YearsAtCompany <= 31.5\ngini = 0.142\nsamples = 1519\nvalue = [1402, 117]\nclass = No Attrition", fillcolor="#e78c4a"] ;
69 -> 70 ;
71 [label="YearsAtCompany <= 3.5\ngini = 0.135\nsamples = 1499\nvalue = [1390, 109]\nclass = No Attrition", fillcolor="#e78b49"] ;
70 -> 71 ;
72 [label="EducationField_encoded <= 0.5\ngini = 0.234\nsamples = 325\nvalue = [281, 44]\nclass = No Attrition", fillcolor="#e99558"] ;
71 -> 72 ;
73 [label="EnvironmentSatisfaction <= 3.5\ngini = 0.444\nsamples = 9\nvalue = [3, 6]\nclass = Yes Attrition", fillcolor="#9ccef2"] ;
72 -> 73 ;
74 [label="gini = 0.0\nsamples = 6\nvalue = [0, 6]\nclass = Yes Attrition", fillcolor="#399de5"] ;
73 -> 74 ;
75 [label="gini = 0.0\nsamples = 3\nvalue = [3, 0]\nclass = No Attrition", fillcolor="#e58139"] ;
73 -> 75 ;
76 [label="JobSatisfaction <= 3.5\ngini = 0.212\nsamples = 316\nvalue = [278, 38]\nclass = No Attrition", fillcolor="#e99254"] ;
72 -> 76 ;
77 [label="Age <= 34.5\ngini = 0.286\nsamples = 214\nvalue = [177, 37]\nclass = No Attrition", fillcolor="#ea9b62"] ;
76 -> 77 ;
78 [label="MaritalStatus_encoded <= 0.5\ngini = 0.441\nsamples = 70\nvalue = [47, 23]\nclass = No Attrition", fillcolor="#f2bf9a"] ;
77 -> 78 ;
79 [label="MonthlyIncome <= 66465.0\ngini = 0.465\nsamples = 19\nvalue = [7, 12]\nclass = Yes Attrition", fillcolor="#acd6f4"] ;
78 -> 79 ;
80 [label="MonthlyIncome <= 40530.0\ngini = 0.42\nsamples = 10\nvalue = [7, 3]\nclass = No Attrition", fillcolor="#f0b78e"] ;
79 -> 80 ;
81 [label="gini = 0.0\nsamples = 3\nvalue = [0, 3]\nclass = Yes Attrition", fillcolor="#399de5"] ;
80 -> 81 ;
82 [label="gini = 0.0\nsamples = 7\nvalue = [7, 0]\nclass = No Attrition", fillcolor="#e58139"] ;
80 -> 82 ;
83 [label="gini = 0.0\nsamples = 9\nvalue = [0, 9]\nclass = Yes Attrition", fillcolor="#399de5"] ;
79 -> 83 ;
84 [label="NumCompaniesWorked <= 2.5\ngini = 0.338\nsamples = 51\nvalue = [40, 11]\nclass = No Attrition", fillcolor="#eca46f"] ;
78 -> 84 ;
85 [label="TotalWorkingYears <= 10.5\ngini = 0.145\nsamples = 38\nvalue = [35, 3]\nclass = No Attrition", fillcolor="#e78c4a"] ;
84 -> 85 ;
86 [label="Age <= 22.5\ngini = 0.102\nsamples = 37\nvalue = [35, 2]\nclass = No Attrition", fillcolor="#e68844"] ;
85 -> 86 ;
87 [label="YearsAtCompany <= 2.5\ngini = 0.5\nsamples = 4\nvalue = [2, 2]\nclass = No Attrition", fillcolor="#ffffff"] ;
86 -> 87 ;
88 [label="gini = 0.0\nsamples = 2\nvalue = [2, 0]\nclass = No Attrition", fillcolor="#e58139"] ;
87 -> 88 ;
89 [label="gini = 0.0\nsamples = 2\nvalue = [0, 2]\nclass = Yes Attrition", fillcolor="#399de5"] ;
87 -> 89 ;
90 [label="gini = 0.0\nsamples = 33\nvalue = [33, 0]\nclass = No Attrition", fillcolor="#e58139"] ;
86 -> 90 ;
91 [label="gini = 0.0\nsamples = 1\nvalue = [0, 1]\nclass = Yes Attrition", fillcolor="#399de5"] ;
85 -> 91 ;
92 [label="JobInvolvement <= 2.5\ngini = 0.473\nsamples = 13\nvalue = [5, 8]\nclass = Yes Attrition", fillcolor="#b5daf5"] ;
84 -> 92 ;
93 [label="gini = 0.0\nsamples = 6\nvalue = [0, 6]\nclass = Yes Attrition", fillcolor="#399de5"] ;
92 -> 93 ;
94 [label="TrainingTimesLastYear <= 3.5\ngini = 0.408\nsamples = 7\nvalue = [5, 2]\nclass = No Attrition", fillcolor="#efb388"] ;
92 -> 94 ;
95 [label="gini = 0.0\nsamples = 5\nvalue = [5, 0]\nclass = No Attrition", fillcolor="#e58139"] ;
94 -> 95 ;
96 [label="gini = 0.0\nsamples = 2\nvalue = [0, 2]\nclass = Yes Attrition", fillcolor="#399de5"] ;
94 -> 96 ;
97 [label="EmployeeID <= 81.5\ngini = 0.176\nsamples = 144\nvalue = [130, 14]\nclass = No Attrition", fillcolor="#e88f4e"] ;
77 -> 97 ;
98 [label="gini = 0.0\nsamples = 2\nvalue = [0, 2]\nclass = Yes Attrition", fillcolor="#399de5"] ;
97 -> 98 ;
99 [label="MonthlyIncome <= 34325.0\ngini = 0.155\nsamples = 142\nvalue = [130, 12]\nclass = No Attrition", fillcolor="#e78d4b"] ;
97 -> 99 ;
100 [label="gini = 0.0\nsamples = 54\nvalue = [54, 0]\nclass = No Attrition", fillcolor="#e58139"] ;
99 -> 100 ;
101 [label="MonthlyIncome <= 35690.0\ngini = 0.236\nsamples = 88\nvalue = [76, 12]\nclass = No Attrition", fillcolor="#e99558"] ;
99 -> 101 ;
102 [label="gini = 0.0\nsamples = 2\nvalue = [0, 2]\nclass = Yes Attrition", fillcolor="#399de5"] ;
101 -> 102 ;
103 [label="PercentSalaryHike <= 11.5\ngini = 0.206\nsamples = 86\nvalue = [76, 10]\nclass = No Attrition", fillcolor="#e89253"] ;
101 -> 103 ;
104 [label="EnvironmentSatisfaction <= 1.5\ngini = 0.494\nsamples = 9\nvalue = [5, 4]\nclass = No Attrition", fillcolor="#fae6d7"] ;
103 -> 104 ;
105 [label="gini = 0.0\nsamples = 4\nvalue = [0, 4]\nclass = Yes Attrition", fillcolor="#399de5"] ;
104 -> 105 ;
106 [label="gini = 0.0\nsamples = 5\nvalue = [5, 0]\nclass = No Attrition", fillcolor="#e58139"] ;
104 -> 106 ;
107 [label="StockOptionLevel <= 1.5\ngini = 0.144\nsamples = 77\nvalue = [71, 6]\nclass = No Attrition", fillcolor="#e78c4a"] ;
103 -> 107 ;
108 [label="EmployeeID <= 4277.5\ngini = 0.083\nsamples = 69\nvalue = [66, 3]\nclass = No Attrition", fillcolor="#e68742"] ;
107 -> 108 ;
109 [label="WorkLifeBalance <= 1.5\ngini = 0.058\nsamples = 67\nvalue = [65, 2]\nclass = No Attrition", fillcolor="#e6853f"] ;
108 -> 109 ;
110 [label="EnvironmentSatisfaction <= 2.5\ngini = 0.444\nsamples = 3\nvalue = [2, 1]\nclass = No Attrition", fillcolor="#f2c09c"] ;
109 -> 110 ;
111 [label="gini = 0.0\nsamples = 2\nvalue = [2, 0]\nclass = No Attrition", fillcolor="#e58139"] ;
110 -> 111 ;
112 [label="gini = 0.0\nsamples = 1\nvalue = [0, 1]\nclass = Yes Attrition", fillcolor="#399de5"] ;
110 -> 112 ;
113 [label="JobInvolvement <= 3.5\ngini = 0.031\nsamples = 64\nvalue = [63, 1]\nclass = No Attrition", fillcolor="#e5833c"] ;
109 -> 113 ;
114 [label="gini = 0.0\nsamples = 57\nvalue = [57, 0]\nclass = No Attrition", fillcolor="#e58139"] ;
113 -> 114 ;
115 [label="PercentSalaryHike <= 12.5\ngini = 0.245\nsamples = 7\nvalue = [6, 1]\nclass = No Attrition", fillcolor="#e9965a"] ;
113 -> 115 ;
116 [label="gini = 0.0\nsamples = 1\nvalue = [0, 1]\nclass = Yes Attrition", fillcolor="#399de5"] ;
115 -> 116 ;
117 [label="gini = 0.0\nsamples = 6\nvalue = [6, 0]\nclass = No Attrition", fillcolor="#e58139"] ;
115 -> 117 ;
118 [label="JobSatisfaction <= 2.0\ngini = 0.5\nsamples = 2\nvalue = [1, 1]\nclass = No Attrition", fillcolor="#ffffff"] ;
108 -> 118 ;
119 [label="gini = 0.0\nsamples = 1\nvalue = [1, 0]\nclass = No Attrition", fillcolor="#e58139"] ;
118 -> 119 ;
120 [label="gini = 0.0\nsamples = 1\nvalue = [0, 1]\nclass = Yes Attrition", fillcolor="#399de5"] ;
118 -> 120 ;
121 [label="MonthlyIncome <= 140630.0\ngini = 0.469\nsamples = 8\nvalue = [5, 3]\nclass = No Attrition", fillcolor="#f5cdb0"] ;
107 -> 121 ;
122 [label="gini = 0.0\nsamples = 5\nvalue = [5, 0]\nclass = No Attrition", fillcolor="#e58139"] ;
121 -> 122 ;
123 [label="gini = 0.0\nsamples = 3\nvalue = [0, 3]\nclass = Yes Attrition", fillcolor="#399de5"] ;
121 -> 123 ;
124 [label="Age <= 23.5\ngini = 0.019\nsamples = 102\nvalue = [101, 1]\nclass = No Attrition", fillcolor="#e5823b"] ;
76 -> 124 ;
125 [label="JobRole_encoded <= 6.5\ngini = 0.5\nsamples = 2\nvalue = [1, 1]\nclass = No Attrition", fillcolor="#ffffff"] ;
124 -> 125 ;
126 [label="gini = 0.0\nsamples = 1\nvalue = [0, 1]\nclass = Yes Attrition", fillcolor="#399de5"] ;
125 -> 126 ;
127 [label="gini = 0.0\nsamples = 1\nvalue = [1, 0]\nclass = No Attrition", fillcolor="#e58139"] ;
125 -> 127 ;
128 [label="gini = 0.0\nsamples = 100\nvalue = [100, 0]\nclass = No Attrition", fillcolor="#e58139"] ;
124 -> 128 ;
129 [label="JobRole_encoded <= 5.5\ngini = 0.105\nsamples = 1174\nvalue = [1109, 65]\nclass = No Attrition", fillcolor="#e78845"] ;
71 -> 129 ;
130 [label="JobRole_encoded <= 0.5\ngini = 0.066\nsamples = 615\nvalue = [594, 21]\nclass = No Attrition", fillcolor="#e68540"] ;
129 -> 130 ;
131 [label="Department_encoded <= 1.5\ngini = 0.179\nsamples = 131\nvalue = [118, 13]\nclass = No Attrition", fillcolor="#e88f4f"] ;
130 -> 131 ;
132 [label="YearsWithCurrManager <= 0.5\ngini = 0.077\nsamples = 100\nvalue = [96, 4]\nclass = No Attrition", fillcolor="#e68641"] ;
131 -> 132 ;
133 [label="EnvironmentSatisfaction <= 2.5\ngini = 0.408\nsamples = 7\nvalue = [5, 2]\nclass = No Attrition", fillcolor="#efb388"] ;
132 -> 133 ;
134 [label="gini = 0.0\nsamples = 5\nvalue = [5, 0]\nclass = No Attrition", fillcolor="#e58139"] ;
133 -> 134 ;
135 [label="gini = 0.0\nsamples = 2\nvalue = [0, 2]\nclass = Yes Attrition", fillcolor="#399de5"] ;
133 -> 135 ;
136 [label="YearsSinceLastPromotion <= 8.5\ngini = 0.042\nsamples = 93\nvalue = [91, 2]\nclass = No Attrition", fillcolor="#e6843d"] ;
132 -> 136 ;
137 [label="gini = 0.0\nsamples = 86\nvalue = [86, 0]\nclass = No Attrition", fillcolor="#e58139"] ;
136 -> 137 ;
138 [label="TotalWorkingYears <= 18.0\ngini = 0.408\nsamples = 7\nvalue = [5, 2]\nclass = No Attrition", fillcolor="#efb388"] ;
136 -> 138 ;
139 [label="gini = 0.0\nsamples = 2\nvalue = [0, 2]\nclass = Yes Attrition", fillcolor="#399de5"] ;
138 -> 139 ;
140 [label="gini = 0.0\nsamples = 5\nvalue = [5, 0]\nclass = No Attrition", fillcolor="#e58139"] ;
138 -> 140 ;
141 [label="Age <= 45.5\ngini = 0.412\nsamples = 31\nvalue = [22, 9]\nclass = No Attrition", fillcolor="#f0b58a"] ;
131 -> 141 ;
142 [label="YearsSinceLastPromotion <= 0.5\ngini = 0.302\nsamples = 27\nvalue = [22, 5]\nclass = No Attrition", fillcolor="#eb9e66"] ;
141 -> 142 ;
143 [label="JobSatisfaction <= 3.5\ngini = 0.469\nsamples = 8\nvalue = [3, 5]\nclass = Yes Attrition", fillcolor="#b0d8f5"] ;
142 -> 143 ;
144 [label="Age <= 38.5\ngini = 0.278\nsamples = 6\nvalue = [1, 5]\nclass = Yes Attrition", fillcolor="#61b1ea"] ;
143 -> 144 ;
145 [label="gini = 0.0\nsamples = 5\nvalue = [0, 5]\nclass = Yes Attrition", fillcolor="#399de5"] ;
144 -> 145 ;
146 [label="gini = 0.0\nsamples = 1\nvalue = [1, 0]\nclass = No Attrition", fillcolor="#e58139"] ;
144 -> 146 ;
147 [label="gini = 0.0\nsamples = 2\nvalue = [2, 0]\nclass = No Attrition", fillcolor="#e58139"] ;
143 -> 147 ;
148 [label="gini = 0.0\nsamples = 19\nvalue = [19, 0]\nclass = No Attrition", fillcolor="#e58139"] ;
142 -> 148 ;
149 [label="gini = 0.0\nsamples = 4\nvalue = [0, 4]\nclass = Yes Attrition", fillcolor="#399de5"] ;
141 -> 149 ;
150 [label="JobInvolvement <= 3.5\ngini = 0.033\nsamples = 484\nvalue = [476, 8]\nclass = No Attrition", fillcolor="#e5833c"] ;
130 -> 150 ;
151 [label="EnvironmentSatisfaction <= 1.5\ngini = 0.022\nsamples = 441\nvalue = [436, 5]\nclass = No Attrition", fillcolor="#e5823b"] ;
150 -> 151 ;
152 [label="DistanceFromHome <= 17.5\ngini = 0.102\nsamples = 74\nvalue = [70, 4]\nclass = No Attrition", fillcolor="#e68844"] ;
151 -> 152 ;
153 [label="gini = 0.0\nsamples = 60\nvalue = [60, 0]\nclass = No Attrition", fillcolor="#e58139"] ;
152 -> 153 ;
154 [label="DistanceFromHome <= 21.5\ngini = 0.408\nsamples = 14\nvalue = [10, 4]\nclass = No Attrition", fillcolor="#efb388"] ;
152 -> 154 ;
155 [label="gini = 0.0\nsamples = 4\nvalue = [0, 4]\nclass = Yes Attrition", fillcolor="#399de5"] ;
154 -> 155 ;
156 [label="gini = 0.0\nsamples = 10\nvalue = [10, 0]\nclass = No Attrition", fillcolor="#e58139"] ;
154 -> 156 ;
157 [label="YearsWithCurrManager <= 0.5\ngini = 0.005\nsamples = 367\nvalue = [366, 1]\nclass = No Attrition", fillcolor="#e5813a"] ;
151 -> 157 ;
158 [label="Age <= 27.0\ngini = 0.111\nsamples = 17\nvalue = [16, 1]\nclass = No Attrition", fillcolor="#e78945"] ;
157 -> 158 ;
159 [label="gini = 0.0\nsamples = 1\nvalue = [0, 1]\nclass = Yes Attrition", fillcolor="#399de5"] ;
158 -> 159 ;
160 [label="gini = 0.0\nsamples = 16\nvalue = [16, 0]\nclass = No Attrition", fillcolor="#e58139"] ;
158 -> 160 ;
161 [label="gini = 0.0\nsamples = 350\nvalue = [350, 0]\nclass = No Attrition", fillcolor="#e58139"] ;
157 -> 161 ;
162 [label="PercentSalaryHike <= 22.5\ngini = 0.13\nsamples = 43\nvalue = [40, 3]\nclass = No Attrition", fillcolor="#e78a48"] ;
150 -> 162 ;
163 [label="BusinessTravel_encoded <= 1.5\ngini = 0.091\nsamples = 42\nvalue = [40, 2]\nclass = No Attrition", fillcolor="#e68743"] ;
162 -> 163 ;
164 [label="Department_encoded <= 1.5\ngini = 0.375\nsamples = 8\nvalue = [6, 2]\nclass = No Attrition", fillcolor="#eeab7b"] ;
163 -> 164 ;
165 [label="gini = 0.0\nsamples = 6\nvalue = [6, 0]\nclass = No Attrition", fillcolor="#e58139"] ;
164 -> 165 ;
166 [label="gini = 0.0\nsamples = 2\nvalue = [0, 2]\nclass = Yes Attrition", fillcolor="#399de5"] ;
164 -> 166 ;
167 [label="gini = 0.0\nsamples = 34\nvalue = [34, 0]\nclass = No Attrition", fillcolor="#e58139"] ;
163 -> 167 ;
168 [label="gini = 0.0\nsamples = 1\nvalue = [0, 1]\nclass = Yes Attrition", fillcolor="#399de5"] ;
162 -> 168 ;
169 [label="YearsSinceLastPromotion <= 14.5\ngini = 0.145\nsamples = 559\nvalue = [515, 44]\nclass = No Attrition", fillcolor="#e78c4a"] ;
129 -> 169 ;
170 [label="Age <= 31.5\ngini = 0.139\nsamples = 557\nvalue = [515, 42]\nclass = No Attrition", fillcolor="#e78b49"] ;
169 -> 170 ;
171 [label="EducationField_encoded <= 3.5\ngini = 0.244\nsamples = 162\nvalue = [139, 23]\nclass = No Attrition", fillcolor="#e9965a"] ;
170 -> 171 ;
172 [label="TrainingTimesLastYear <= 0.5\ngini = 0.133\nsamples = 126\nvalue = [117, 9]\nclass = No Attrition", fillcolor="#e78b48"] ;
171 -> 172 ;
173 [label="DistanceFromHome <= 16.0\ngini = 0.444\nsamples = 3\nvalue = [1, 2]\nclass = Yes Attrition", fillcolor="#9ccef2"] ;
172 -> 173 ;
174 [label="gini = 0.0\nsamples = 1\nvalue = [1, 0]\nclass = No Attrition", fillcolor="#e58139"] ;
173 -> 174 ;
175 [label="gini = 0.0\nsamples = 2\nvalue = [0, 2]\nclass = Yes Attrition", fillcolor="#399de5"] ;
173 -> 175 ;
176 [label="YearsWithCurrManager <= 9.5\ngini = 0.107\nsamples = 123\nvalue = [116, 7]\nclass = No Attrition", fillcolor="#e78945"] ;
172 -> 176 ;
177 [label="EducationField_encoded <= 0.5\ngini = 0.081\nsamples = 119\nvalue = [114, 5]\nclass = No Attrition", fillcolor="#e68742"] ;
176 -> 177 ;
178 [label="YearsAtCompany <= 5.5\ngini = 0.444\nsamples = 3\nvalue = [2, 1]\nclass = No Attrition", fillcolor="#f2c09c"] ;
177 -> 178 ;
179 [label="gini = 0.0\nsamples = 2\nvalue = [2, 0]\nclass = No Attrition", fillcolor="#e58139"] ;
178 -> 179 ;
180 [label="gini = 0.0\nsamples = 1\nvalue = [0, 1]\nclass = Yes Attrition", fillcolor="#399de5"] ;
178 -> 180 ;
181 [label="PercentSalaryHike <= 18.5\ngini = 0.067\nsamples = 116\nvalue = [112, 4]\nclass = No Attrition", fillcolor="#e68640"] ;
177 -> 181 ;
182 [label="YearsSinceLastPromotion <= 5.5\ngini = 0.022\nsamples = 92\nvalue = [91, 1]\nclass = No Attrition", fillcolor="#e5823b"] ;
181 -> 182 ;
183 [label="gini = 0.0\nsamples = 82\nvalue = [82, 0]\nclass = No Attrition", fillcolor="#e58139"] ;
182 -> 183 ;
184 [label="YearsSinceLastPromotion <= 6.5\ngini = 0.18\nsamples = 10\nvalue = [9, 1]\nclass = No Attrition", fillcolor="#e88f4f"] ;
182 -> 184 ;
185 [label="gini = 0.0\nsamples = 1\nvalue = [0, 1]\nclass = Yes Attrition", fillcolor="#399de5"] ;
184 -> 185 ;
186 [label="gini = 0.0\nsamples = 9\nvalue = [9, 0]\nclass = No Attrition", fillcolor="#e58139"] ;
184 -> 186 ;
187 [label="MonthlyIncome <= 44435.0\ngini = 0.219\nsamples = 24\nvalue = [21, 3]\nclass = No Attrition", fillcolor="#e99355"] ;
181 -> 187 ;
188 [label="TotalWorkingYears <= 5.5\ngini = 0.375\nsamples = 4\nvalue = [1, 3]\nclass = Yes Attrition", fillcolor="#7bbeee"] ;
187 -> 188 ;
189 [label="gini = 0.0\nsamples = 1\nvalue = [1, 0]\nclass = No Attrition", fillcolor="#e58139"] ;
188 -> 189 ;
190 [label="gini = 0.0\nsamples = 3\nvalue = [0, 3]\nclass = Yes Attrition", fillcolor="#399de5"] ;
188 -> 190 ;
191 [label="gini = 0.0\nsamples = 20\nvalue = [20, 0]\nclass = No Attrition", fillcolor="#e58139"] ;
187 -> 191 ;
192 [label="YearsAtCompany <= 12.0\ngini = 0.5\nsamples = 4\nvalue = [2, 2]\nclass = No Attrition", fillcolor="#ffffff"] ;
176 -> 192 ;
193 [label="gini = 0.0\nsamples = 2\nvalue = [0, 2]\nclass = Yes Attrition", fillcolor="#399de5"] ;
192 -> 193 ;
194 [label="gini = 0.0\nsamples = 2\nvalue = [2, 0]\nclass = No Attrition", fillcolor="#e58139"] ;
192 -> 194 ;
195 [label="YearsWithCurrManager <= 3.5\ngini = 0.475\nsamples = 36\nvalue = [22, 14]\nclass = No Attrition", fillcolor="#f6d1b7"] ;
171 -> 195 ;
196 [label="gini = 0.0\nsamples = 14\nvalue = [14, 0]\nclass = No Attrition", fillcolor="#e58139"] ;
195 -> 196 ;
197 [label="Department_encoded <= 1.5\ngini = 0.463\nsamples = 22\nvalue = [8, 14]\nclass = Yes Attrition", fillcolor="#aad5f4"] ;
195 -> 197 ;
198 [label="JobLevel <= 3.5\ngini = 0.291\nsamples = 17\nvalue = [3, 14]\nclass = Yes Attrition", fillcolor="#63b2eb"] ;
197 -> 198 ;
199 [label="PercentSalaryHike <= 12.0\ngini = 0.124\nsamples = 15\nvalue = [1, 14]\nclass = Yes Attrition", fillcolor="#47a4e7"] ;
198 -> 199 ;
200 [label="gini = 0.0\nsamples = 1\nvalue = [1, 0]\nclass = No Attrition", fillcolor="#e58139"] ;
199 -> 200 ;
201 [label="gini = 0.0\nsamples = 14\nvalue = [0, 14]\nclass = Yes Attrition", fillcolor="#399de5"] ;
199 -> 201 ;
202 [label="gini = 0.0\nsamples = 2\nvalue = [2, 0]\nclass = No Attrition", fillcolor="#e58139"] ;
198 -> 202 ;
203 [label="gini = 0.0\nsamples = 5\nvalue = [5, 0]\nclass = No Attrition", fillcolor="#e58139"] ;
197 -> 203 ;
204 [label="PercentSalaryHike <= 12.5\ngini = 0.092\nsamples = 395\nvalue = [376, 19]\nclass = No Attrition", fillcolor="#e68743"] ;
170 -> 204 ;
205 [label="YearsWithCurrManager <= 0.5\ngini = 0.204\nsamples = 104\nvalue = [92, 12]\nclass = No Attrition", fillcolor="#e89153"] ;
204 -> 205 ;
206 [label="gini = 0.0\nsamples = 2\nvalue = [0, 2]\nclass = Yes Attrition", fillcolor="#399de5"] ;
205 -> 206 ;
207 [label="JobSatisfaction <= 2.5\ngini = 0.177\nsamples = 102\nvalue = [92, 10]\nclass = No Attrition", fillcolor="#e88f4f"] ;
205 -> 207 ;
208 [label="TotalWorkingYears <= 13.5\ngini = 0.391\nsamples = 30\nvalue = [22, 8]\nclass = No Attrition", fillcolor="#eeaf81"] ;
207 -> 208 ;
209 [label="YearsSinceLastPromotion <= 1.5\ngini = 0.5\nsamples = 16\nvalue = [8, 8]\nclass = No Attrition", fillcolor="#ffffff"] ;
208 -> 209 ;
210 [label="gini = 0.0\nsamples = 8\nvalue = [8, 0]\nclass = No Attrition", fillcolor="#e58139"] ;
209 -> 210 ;
211 [label="gini = 0.0\nsamples = 8\nvalue = [0, 8]\nclass = Yes Attrition", fillcolor="#399de5"] ;
209 -> 211 ;
212 [label="gini = 0.0\nsamples = 14\nvalue = [14, 0]\nclass = No Attrition", fillcolor="#e58139"] ;
208 -> 212 ;
213 [label="JobLevel <= 2.5\ngini = 0.054\nsamples = 72\nvalue = [70, 2]\nclass = No Attrition", fillcolor="#e6853f"] ;
207 -> 213 ;
214 [label="gini = 0.0\nsamples = 60\nvalue = [60, 0]\nclass = No Attrition", fillcolor="#e58139"] ;
213 -> 214 ;
215 [label="Age <= 37.0\ngini = 0.278\nsamples = 12\nvalue = [10, 2]\nclass = No Attrition", fillcolor="#ea9a61"] ;
213 -> 215 ;
216 [label="gini = 0.0\nsamples = 2\nvalue = [0, 2]\nclass = Yes Attrition", fillcolor="#399de5"] ;
215 -> 216 ;
217 [label="gini = 0.0\nsamples = 10\nvalue = [10, 0]\nclass = No Attrition", fillcolor="#e58139"] ;
215 -> 217 ;
218 [label="DistanceFromHome <= 7.5\ngini = 0.047\nsamples = 291\nvalue = [284, 7]\nclass = No Attrition", fillcolor="#e6843e"] ;
204 -> 218 ;
219 [label="Age <= 49.5\ngini = 0.1\nsamples = 132\nvalue = [125, 7]\nclass = No Attrition", fillcolor="#e68844"] ;
218 -> 219 ;
220 [label="YearsWithCurrManager <= 4.5\ngini = 0.056\nsamples = 104\nvalue = [101, 3]\nclass = No Attrition", fillcolor="#e6853f"] ;
219 -> 220 ;
221 [label="YearsWithCurrManager <= 3.5\ngini = 0.17\nsamples = 32\nvalue = [29, 3]\nclass = No Attrition", fillcolor="#e88e4d"] ;
220 -> 221 ;
222 [label="PercentSalaryHike <= 13.5\ngini = 0.067\nsamples = 29\nvalue = [28, 1]\nclass = No Attrition", fillcolor="#e68640"] ;
221 -> 222 ;
223 [label="Gender_encoded <= 0.5\ngini = 0.5\nsamples = 2\nvalue = [1, 1]\nclass = No Attrition", fillcolor="#ffffff"] ;
222 -> 223 ;
224 [label="gini = 0.0\nsamples = 1\nvalue = [0, 1]\nclass = Yes Attrition", fillcolor="#399de5"] ;
223 -> 224 ;
225 [label="gini = 0.0\nsamples = 1\nvalue = [1, 0]\nclass = No Attrition", fillcolor="#e58139"] ;
223 -> 225 ;
226 [label="gini = 0.0\nsamples = 27\nvalue = [27, 0]\nclass = No Attrition", fillcolor="#e58139"] ;
222 -> 226 ;
227 [label="JobSatisfaction <= 1.5\ngini = 0.444\nsamples = 3\nvalue = [1, 2]\nclass = Yes Attrition", fillcolor="#9ccef2"] ;
221 -> 227 ;
228 [label="gini = 0.0\nsamples = 1\nvalue = [1, 0]\nclass = No Attrition", fillcolor="#e58139"] ;
227 -> 228 ;
229 [label="gini = 0.0\nsamples = 2\nvalue = [0, 2]\nclass = Yes Attrition", fillcolor="#399de5"] ;
227 -> 229 ;
230 [label="gini = 0.0\nsamples = 72\nvalue = [72, 0]\nclass = No Attrition", fillcolor="#e58139"] ;
220 -> 230 ;
231 [label="JobRole_encoded <= 7.5\ngini = 0.245\nsamples = 28\nvalue = [24, 4]\nclass = No Attrition", fillcolor="#e9965a"] ;
219 -> 231 ;
232 [label="EmployeeID <= 156.5\ngini = 0.142\nsamples = 26\nvalue = [24, 2]\nclass = No Attrition", fillcolor="#e78c49"] ;
231 -> 232 ;
233 [label="gini = 0.0\nsamples = 1\nvalue = [0, 1]\nclass = Yes Attrition", fillcolor="#399de5"] ;
232 -> 233 ;
234 [label="TotalWorkingYears <= 11.5\ngini = 0.077\nsamples = 25\nvalue = [24, 1]\nclass = No Attrition", fillcolor="#e68641"] ;
232 -> 234 ;
235 [label="Education <= 2.5\ngini = 0.444\nsamples = 3\nvalue = [2, 1]\nclass = No Attrition", fillcolor="#f2c09c"] ;
234 -> 235 ;
236 [label="gini = 0.0\nsamples = 1\nvalue = [0, 1]\nclass = Yes Attrition", fillcolor="#399de5"] ;
235 -> 236 ;
237 [label="gini = 0.0\nsamples = 2\nvalue = [2, 0]\nclass = No Attrition", fillcolor="#e58139"] ;
235 -> 237 ;
238 [label="gini = 0.0\nsamples = 22\nvalue = [22, 0]\nclass = No Attrition", fillcolor="#e58139"] ;
234 -> 238 ;
239 [label="gini = 0.0\nsamples = 2\nvalue = [0, 2]\nclass = Yes Attrition", fillcolor="#399de5"] ;
231 -> 239 ;
240 [label="gini = 0.0\nsamples = 159\nvalue = [159, 0]\nclass = No Attrition", fillcolor="#e58139"] ;
218 -> 240 ;
241 [label="gini = 0.0\nsamples = 2\nvalue = [0, 2]\nclass = Yes Attrition", fillcolor="#399de5"] ;
169 -> 241 ;
242 [label="MonthlyIncome <= 26260.0\ngini = 0.48\nsamples = 20\nvalue = [12, 8]\nclass = No Attrition", fillcolor="#f6d5bd"] ;
70 -> 242 ;
243 [label="gini = 0.0\nsamples = 6\nvalue = [0, 6]\nclass = Yes Attrition", fillcolor="#399de5"] ;
242 -> 243 ;
244 [label="TotalWorkingYears <= 38.0\ngini = 0.245\nsamples = 14\nvalue = [12, 2]\nclass = No Attrition", fillcolor="#e9965a"] ;
242 -> 244 ;
245 [label="gini = 0.0\nsamples = 12\nvalue = [12, 0]\nclass = No Attrition", fillcolor="#e58139"] ;
244 -> 245 ;
246 [label="gini = 0.0\nsamples = 2\nvalue = [0, 2]\nclass = Yes Attrition", fillcolor="#399de5"] ;
244 -> 246 ;
247 [label="JobSatisfaction <= 2.5\ngini = 0.293\nsamples = 655\nvalue = [538, 117]\nclass = No Attrition", fillcolor="#eb9c64"] ;
69 -> 247 ;
248 [label="BusinessTravel_encoded <= 1.5\ngini = 0.405\nsamples = 223\nvalue = [160, 63]\nclass = No Attrition", fillcolor="#efb387"] ;
247 -> 248 ;
249 [label="EducationField_encoded <= 2.5\ngini = 0.5\nsamples = 64\nvalue = [31, 33]\nclass = Yes Attrition", fillcolor="#f3f9fd"] ;
248 -> 249 ;
250 [label="YearsAtCompany <= 6.5\ngini = 0.46\nsamples = 39\nvalue = [25, 14]\nclass = No Attrition", fillcolor="#f4c8a8"] ;
249 -> 250 ;
251 [label="PercentSalaryHike <= 13.5\ngini = 0.375\nsamples = 16\nvalue = [4, 12]\nclass = Yes Attrition", fillcolor="#7bbeee"] ;
250 -> 251 ;
252 [label="gini = 0.0\nsamples = 4\nvalue = [4, 0]\nclass = No Attrition", fillcolor="#e58139"] ;
251 -> 252 ;
253 [label="gini = 0.0\nsamples = 12\nvalue = [0, 12]\nclass = Yes Attrition", fillcolor="#399de5"] ;
251 -> 253 ;
254 [label="YearsWithCurrManager <= 11.5\ngini = 0.159\nsamples = 23\nvalue = [21, 2]\nclass = No Attrition", fillcolor="#e78d4c"] ;
250 -> 254 ;
255 [label="DistanceFromHome <= 15.0\ngini = 0.087\nsamples = 22\nvalue = [21, 1]\nclass = No Attrition", fillcolor="#e68742"] ;
254 -> 255 ;
256 [label="gini = 0.0\nsamples = 19\nvalue = [19, 0]\nclass = No Attrition", fillcolor="#e58139"] ;
255 -> 256 ;
257 [label="TrainingTimesLastYear <= 3.5\ngini = 0.444\nsamples = 3\nvalue = [2, 1]\nclass = No Attrition", fillcolor="#f2c09c"] ;
255 -> 257 ;
258 [label="gini = 0.0\nsamples = 2\nvalue = [2, 0]\nclass = No Attrition", fillcolor="#e58139"] ;
257 -> 258 ;
259 [label="gini = 0.0\nsamples = 1\nvalue = [0, 1]\nclass = Yes Attrition", fillcolor="#399de5"] ;
257 -> 259 ;
260 [label="gini = 0.0\nsamples = 1\nvalue = [0, 1]\nclass = Yes Attrition", fillcolor="#399de5"] ;
254 -> 260 ;
261 [label="DistanceFromHome <= 17.5\ngini = 0.365\nsamples = 25\nvalue = [6, 19]\nclass = Yes Attrition", fillcolor="#78bced"] ;
249 -> 261 ;
262 [label="YearsWithCurrManager <= 8.0\ngini = 0.1\nsamples = 19\nvalue = [1, 18]\nclass = Yes Attrition", fillcolor="#44a2e6"] ;
261 -> 262 ;
263 [label="gini = 0.0\nsamples = 18\nvalue = [0, 18]\nclass = Yes Attrition", fillcolor="#399de5"] ;
262 -> 263 ;
264 [label="gini = 0.0\nsamples = 1\nvalue = [1, 0]\nclass = No Attrition", fillcolor="#e58139"] ;
262 -> 264 ;
265 [label="Age <= 33.5\ngini = 0.278\nsamples = 6\nvalue = [5, 1]\nclass = No Attrition", fillcolor="#ea9a61"] ;
261 -> 265 ;
266 [label="gini = 0.0\nsamples = 1\nvalue = [0, 1]\nclass = Yes Attrition", fillcolor="#399de5"] ;
265 -> 266 ;
267 [label="gini = 0.0\nsamples = 5\nvalue = [5, 0]\nclass = No Attrition", fillcolor="#e58139"] ;
265 -> 267 ;
268 [label="TrainingTimesLastYear <= 1.5\ngini = 0.306\nsamples = 159\nvalue = [129, 30]\nclass = No Attrition", fillcolor="#eb9e67"] ;
248 -> 268 ;
269 [label="DistanceFromHome <= 4.5\ngini = 0.48\nsamples = 15\nvalue = [6, 9]\nclass = Yes Attrition", fillcolor="#bddef6"] ;
268 -> 269 ;
270 [label="gini = 0.0\nsamples = 6\nvalue = [6, 0]\nclass = No Attrition", fillcolor="#e58139"] ;
269 -> 270 ;
271 [label="gini = 0.0\nsamples = 9\nvalue = [0, 9]\nclass = Yes Attrition", fillcolor="#399de5"] ;
269 -> 271 ;
272 [label="YearsSinceLastPromotion <= 13.5\ngini = 0.249\nsamples = 144\nvalue = [123, 21]\nclass = No Attrition", fillcolor="#e9975b"] ;
268 -> 272 ;
273 [label="JobInvolvement <= 1.5\ngini = 0.223\nsamples = 141\nvalue = [123, 18]\nclass = No Attrition", fillcolor="#e99356"] ;
272 -> 273 ;
274 [label="NumCompaniesWorked <= 2.5\ngini = 0.49\nsamples = 7\nvalue = [3, 4]\nclass = Yes Attrition", fillcolor="#cee6f8"] ;
273 -> 274 ;
275 [label="gini = 0.0\nsamples = 4\nvalue = [0, 4]\nclass = Yes Attrition", fillcolor="#399de5"] ;
274 -> 275 ;
276 [label="gini = 0.0\nsamples = 3\nvalue = [3, 0]\nclass = No Attrition", fillcolor="#e58139"] ;
274 -> 276 ;
277 [label="WorkLifeBalance <= 1.5\ngini = 0.187\nsamples = 134\nvalue = [120, 14]\nclass = No Attrition", fillcolor="#e89050"] ;
273 -> 277 ;
278 [label="Education <= 3.5\ngini = 0.444\nsamples = 15\nvalue = [10, 5]\nclass = No Attrition", fillcolor="#f2c09c"] ;
277 -> 278 ;
279 [label="Age <= 33.0\ngini = 0.408\nsamples = 7\nvalue = [2, 5]\nclass = Yes Attrition", fillcolor="#88c4ef"] ;
278 -> 279 ;
280 [label="gini = 0.0\nsamples = 2\nvalue = [2, 0]\nclass = No Attrition", fillcolor="#e58139"] ;
279 -> 280 ;
281 [label="gini = 0.0\nsamples = 5\nvalue = [0, 5]\nclass = Yes Attrition", fillcolor="#399de5"] ;
279 -> 281 ;
282 [label="gini = 0.0\nsamples = 8\nvalue = [8, 0]\nclass = No Attrition", fillcolor="#e58139"] ;
278 -> 282 ;
283 [label="EnvironmentSatisfaction <= 1.5\ngini = 0.14\nsamples = 119\nvalue = [110, 9]\nclass = No Attrition", fillcolor="#e78b49"] ;
277 -> 283 ;
284 [label="YearsAtCompany <= 13.5\ngini = 0.401\nsamples = 18\nvalue = [13, 5]\nclass = No Attrition", fillcolor="#efb185"] ;
283 -> 284 ;
285 [label="TotalWorkingYears <= 7.5\ngini = 0.231\nsamples = 15\nvalue = [13, 2]\nclass = No Attrition", fillcolor="#e99457"] ;
284 -> 285 ;
286 [label="gini = 0.0\nsamples = 2\nvalue = [0, 2]\nclass = Yes Attrition", fillcolor="#399de5"] ;
285 -> 286 ;
287 [label="gini = 0.0\nsamples = 13\nvalue = [13, 0]\nclass = No Attrition", fillcolor="#e58139"] ;
285 -> 287 ;
288 [label="gini = 0.0\nsamples = 3\nvalue = [0, 3]\nclass = Yes Attrition", fillcolor="#399de5"] ;
284 -> 288 ;
289 [label="NumCompaniesWorked <= 0.5\ngini = 0.076\nsamples = 101\nvalue = [97, 4]\nclass = No Attrition", fillcolor="#e68641"] ;
283 -> 289 ;
290 [label="PerformanceRating <= 3.5\ngini = 0.298\nsamples = 22\nvalue = [18, 4]\nclass = No Attrition", fillcolor="#eb9d65"] ;
289 -> 290 ;
291 [label="gini = 0.0\nsamples = 13\nvalue = [13, 0]\nclass = No Attrition", fillcolor="#e58139"] ;
290 -> 291 ;
292 [label="PercentSalaryHike <= 21.5\ngini = 0.494\nsamples = 9\nvalue = [5, 4]\nclass = No Attrition", fillcolor="#fae6d7"] ;
290 -> 292 ;
293 [label="gini = 0.0\nsamples = 4\nvalue = [0, 4]\nclass = Yes Attrition", fillcolor="#399de5"] ;
292 -> 293 ;
294 [label="gini = 0.0\nsamples = 5\nvalue = [5, 0]\nclass = No Attrition", fillcolor="#e58139"] ;
292 -> 294 ;
295 [label="gini = 0.0\nsamples = 79\nvalue = [79, 0]\nclass = No Attrition", fillcolor="#e58139"] ;
289 -> 295 ;
296 [label="gini = 0.0\nsamples = 3\nvalue = [0, 3]\nclass = Yes Attrition", fillcolor="#399de5"] ;
272 -> 296 ;
297 [label="Department_encoded <= 0.5\ngini = 0.219\nsamples = 432\nvalue = [378, 54]\nclass = No Attrition", fillcolor="#e99355"] ;
247 -> 297 ;
298 [label="JobLevel <= 2.5\ngini = 0.482\nsamples = 32\nvalue = [19, 13]\nclass = No Attrition", fillcolor="#f7d7c0"] ;
297 -> 298 ;
299 [label="gini = 0.0\nsamples = 13\nvalue = [13, 0]\nclass = No Attrition", fillcolor="#e58139"] ;
298 -> 299 ;
300 [label="MonthlyIncome <= 42130.0\ngini = 0.432\nsamples = 19\nvalue = [6, 13]\nclass = Yes Attrition", fillcolor="#94caf1"] ;
298 -> 300 ;
301 [label="Education <= 2.5\ngini = 0.375\nsamples = 8\nvalue = [6, 2]\nclass = No Attrition", fillcolor="#eeab7b"] ;
300 -> 301 ;
302 [label="gini = 0.0\nsamples = 2\nvalue = [0, 2]\nclass = Yes Attrition", fillcolor="#399de5"] ;
301 -> 302 ;
303 [label="gini = 0.0\nsamples = 6\nvalue = [6, 0]\nclass = No Attrition", fillcolor="#e58139"] ;
301 -> 303 ;
304 [label="gini = 0.0\nsamples = 11\nvalue = [0, 11]\nclass = Yes Attrition", fillcolor="#399de5"] ;
300 -> 304 ;
305 [label="YearsSinceLastPromotion <= 5.5\ngini = 0.184\nsamples = 400\nvalue = [359, 41]\nclass = No Attrition", fillcolor="#e88f50"] ;
297 -> 305 ;
306 [label="MonthlyIncome <= 187270.0\ngini = 0.137\nsamples = 339\nvalue = [314, 25]\nclass = No Attrition", fillcolor="#e78b49"] ;
305 -> 306 ;
307 [label="Education <= 2.5\ngini = 0.119\nsamples = 332\nvalue = [311, 21]\nclass = No Attrition", fillcolor="#e78a46"] ;
306 -> 307 ;
308 [label="PercentSalaryHike <= 18.5\ngini = 0.268\nsamples = 88\nvalue = [74, 14]\nclass = No Attrition", fillcolor="#ea995e"] ;
307 -> 308 ;
309 [label="DistanceFromHome <= 22.0\ngini = 0.138\nsamples = 67\nvalue = [62, 5]\nclass = No Attrition", fillcolor="#e78b49"] ;
308 -> 309 ;
310 [label="Age <= 53.0\ngini = 0.089\nsamples = 64\nvalue = [61, 3]\nclass = No Attrition", fillcolor="#e68743"] ;
309 -> 310 ;
311 [label="TrainingTimesLastYear <= 5.5\ngini = 0.061\nsamples = 63\nvalue = [61, 2]\nclass = No Attrition", fillcolor="#e6853f"] ;
310 -> 311 ;
312 [label="gini = 0.0\nsamples = 58\nvalue = [58, 0]\nclass = No Attrition", fillcolor="#e58139"] ;
311 -> 312 ;
313 [label="TotalWorkingYears <= 7.5\ngini = 0.48\nsamples = 5\nvalue = [3, 2]\nclass = No Attrition", fillcolor="#f6d5bd"] ;
311 -> 313 ;
314 [label="gini = 0.0\nsamples = 2\nvalue = [0, 2]\nclass = Yes Attrition", fillcolor="#399de5"] ;
313 -> 314 ;
315 [label="gini = 0.0\nsamples = 3\nvalue = [3, 0]\nclass = No Attrition", fillcolor="#e58139"] ;
313 -> 315 ;
316 [label="gini = 0.0\nsamples = 1\nvalue = [0, 1]\nclass = Yes Attrition", fillcolor="#399de5"] ;
310 -> 316 ;
317 [label="Department_encoded <= 1.5\ngini = 0.444\nsamples = 3\nvalue = [1, 2]\nclass = Yes Attrition", fillcolor="#9ccef2"] ;
309 -> 317 ;
318 [label="gini = 0.0\nsamples = 1\nvalue = [1, 0]\nclass = No Attrition", fillcolor="#e58139"] ;
317 -> 318 ;
319 [label="gini = 0.0\nsamples = 2\nvalue = [0, 2]\nclass = Yes Attrition", fillcolor="#399de5"] ;
317 -> 319 ;
320 [label="JobRole_encoded <= 4.0\ngini = 0.49\nsamples = 21\nvalue = [12, 9]\nclass = No Attrition", fillcolor="#f8e0ce"] ;
308 -> 320 ;
321 [label="gini = 0.0\nsamples = 8\nvalue = [8, 0]\nclass = No Attrition", fillcolor="#e58139"] ;
320 -> 321 ;
322 [label="TotalWorkingYears <= 9.5\ngini = 0.426\nsamples = 13\nvalue = [4, 9]\nclass = Yes Attrition", fillcolor="#91c9f1"] ;
320 -> 322 ;
323 [label="gini = 0.0\nsamples = 7\nvalue = [0, 7]\nclass = Yes Attrition", fillcolor="#399de5"] ;
322 -> 323 ;
324 [label="Age <= 34.0\ngini = 0.444\nsamples = 6\nvalue = [4, 2]\nclass = No Attrition", fillcolor="#f2c09c"] ;
322 -> 324 ;
325 [label="gini = 0.0\nsamples = 2\nvalue = [0, 2]\nclass = Yes Attrition", fillcolor="#399de5"] ;
324 -> 325 ;
326 [label="gini = 0.0\nsamples = 4\nvalue = [4, 0]\nclass = No Attrition", fillcolor="#e58139"] ;
324 -> 326 ;
327 [label="MonthlyIncome <= 17600.0\ngini = 0.056\nsamples = 244\nvalue = [237, 7]\nclass = No Attrition", fillcolor="#e6853f"] ;
307 -> 327 ;
328 [label="JobInvolvement <= 3.5\ngini = 0.469\nsamples = 8\nvalue = [5, 3]\nclass = No Attrition", fillcolor="#f5cdb0"] ;
327 -> 328 ;
329 [label="gini = 0.0\nsamples = 5\nvalue = [5, 0]\nclass = No Attrition", fillcolor="#e58139"] ;
328 -> 329 ;
330 [label="gini = 0.0\nsamples = 3\nvalue = [0, 3]\nclass = Yes Attrition", fillcolor="#399de5"] ;
328 -> 330 ;
331 [label="EmployeeID <= 135.0\ngini = 0.033\nsamples = 236\nvalue = [232, 4]\nclass = No Attrition", fillcolor="#e5833c"] ;
327 -> 331 ;
332 [label="StockOptionLevel <= 2.5\ngini = 0.278\nsamples = 6\nvalue = [5, 1]\nclass = No Attrition", fillcolor="#ea9a61"] ;
331 -> 332 ;
333 [label="gini = 0.0\nsamples = 5\nvalue = [5, 0]\nclass = No Attrition", fillcolor="#e58139"] ;
332 -> 333 ;
334 [label="gini = 0.0\nsamples = 1\nvalue = [0, 1]\nclass = Yes Attrition", fillcolor="#399de5"] ;
332 -> 334 ;
335 [label="NumCompaniesWorked <= 3.5\ngini = 0.026\nsamples = 230\nvalue = [227, 3]\nclass = No Attrition", fillcolor="#e5833c"] ;
331 -> 335 ;
336 [label="JobRole_encoded <= 6.5\ngini = 0.01\nsamples = 202\nvalue = [201, 1]\nclass = No Attrition", fillcolor="#e5823a"] ;
335 -> 336 ;
337 [label="gini = 0.0\nsamples = 174\nvalue = [174, 0]\nclass = No Attrition", fillcolor="#e58139"] ;
336 -> 337 ;
338 [label="Age <= 29.5\ngini = 0.069\nsamples = 28\nvalue = [27, 1]\nclass = No Attrition", fillcolor="#e68640"] ;
336 -> 338 ;
339 [label="gini = 0.0\nsamples = 1\nvalue = [0, 1]\nclass = Yes Attrition", fillcolor="#399de5"] ;
338 -> 339 ;
340 [label="gini = 0.0\nsamples = 27\nvalue = [27, 0]\nclass = No Attrition", fillcolor="#e58139"] ;
338 -> 340 ;
341 [label="JobLevel <= 1.5\ngini = 0.133\nsamples = 28\nvalue = [26, 2]\nclass = No Attrition", fillcolor="#e78b48"] ;
335 -> 341 ;
342 [label="gini = 0.0\nsamples = 2\nvalue = [0, 2]\nclass = Yes Attrition", fillcolor="#399de5"] ;
341 -> 342 ;
343 [label="gini = 0.0\nsamples = 26\nvalue = [26, 0]\nclass = No Attrition", fillcolor="#e58139"] ;
341 -> 343 ;
344 [label="YearsWithCurrManager <= 3.5\ngini = 0.49\nsamples = 7\nvalue = [3, 4]\nclass = Yes Attrition", fillcolor="#cee6f8"] ;
306 -> 344 ;
345 [label="gini = 0.0\nsamples = 4\nvalue = [0, 4]\nclass = Yes Attrition", fillcolor="#399de5"] ;
344 -> 345 ;
346 [label="gini = 0.0\nsamples = 3\nvalue = [3, 0]\nclass = No Attrition", fillcolor="#e58139"] ;
344 -> 346 ;
347 [label="YearsSinceLastPromotion <= 7.5\ngini = 0.387\nsamples = 61\nvalue = [45, 16]\nclass = No Attrition", fillcolor="#eeae7f"] ;
305 -> 347 ;
348 [label="Department_encoded <= 1.5\ngini = 0.49\nsamples = 28\nvalue = [12, 16]\nclass = Yes Attrition", fillcolor="#cee6f8"] ;
347 -> 348 ;
349 [label="NumCompaniesWorked <= 0.5\ngini = 0.278\nsamples = 18\nvalue = [3, 15]\nclass = Yes Attrition", fillcolor="#61b1ea"] ;
348 -> 349 ;
350 [label="gini = 0.0\nsamples = 3\nvalue = [3, 0]\nclass = No Attrition", fillcolor="#e58139"] ;
349 -> 350 ;
351 [label="gini = 0.0\nsamples = 15\nvalue = [0, 15]\nclass = Yes Attrition", fillcolor="#399de5"] ;
349 -> 351 ;
352 [label="EmployeeID <= 3651.5\ngini = 0.18\nsamples = 10\nvalue = [9, 1]\nclass = No Attrition", fillcolor="#e88f4f"] ;
348 -> 352 ;
353 [label="gini = 0.0\nsamples = 9\nvalue = [9, 0]\nclass = No Attrition", fillcolor="#e58139"] ;
352 -> 353 ;
354 [label="gini = 0.0\nsamples = 1\nvalue = [0, 1]\nclass = Yes Attrition", fillcolor="#399de5"] ;
352 -> 354 ;
355 [label="gini = 0.0\nsamples = 33\nvalue = [33, 0]\nclass = No Attrition", fillcolor="#e58139"] ;
347 -> 355 ;
356 [label="Age <= 33.5\ngini = 0.347\nsamples = 658\nvalue = [511, 147]\nclass = No Attrition", fillcolor="#eca572"] ;
68 -> 356 ;
357 [label="NumCompaniesWorked <= 7.5\ngini = 0.474\nsamples = 184\nvalue = [113, 71]\nclass = No Attrition", fillcolor="#f5d0b5"] ;
356 -> 357 ;
358 [label="MaritalStatus_encoded <= 1.5\ngini = 0.5\nsamples = 119\nvalue = [60, 59]\nclass = No Attrition", fillcolor="#fffdfc"] ;
357 -> 358 ;
359 [label="EnvironmentSatisfaction <= 2.5\ngini = 0.458\nsamples = 76\nvalue = [49, 27]\nclass = No Attrition", fillcolor="#f3c6a6"] ;
358 -> 359 ;
360 [label="JobRole_encoded <= 1.0\ngini = 0.444\nsamples = 27\nvalue = [9, 18]\nclass = Yes Attrition", fillcolor="#9ccef2"] ;
359 -> 360 ;
361 [label="gini = 0.0\nsamples = 6\nvalue = [6, 0]\nclass = No Attrition", fillcolor="#e58139"] ;
360 -> 361 ;
362 [label="MonthlyIncome <= 77605.0\ngini = 0.245\nsamples = 21\nvalue = [3, 18]\nclass = Yes Attrition", fillcolor="#5aade9"] ;
360 -> 362 ;
363 [label="gini = 0.0\nsamples = 18\nvalue = [0, 18]\nclass = Yes Attrition", fillcolor="#399de5"] ;
362 -> 363 ;
364 [label="gini = 0.0\nsamples = 3\nvalue = [3, 0]\nclass = No Attrition", fillcolor="#e58139"] ;
362 -> 364 ;
365 [label="JobSatisfaction <= 3.5\ngini = 0.3\nsamples = 49\nvalue = [40, 9]\nclass = No Attrition", fillcolor="#eb9d66"] ;
359 -> 365 ;
366 [label="MonthlyIncome <= 20895.0\ngini = 0.062\nsamples = 31\nvalue = [30, 1]\nclass = No Attrition", fillcolor="#e68540"] ;
365 -> 366 ;
367 [label="gini = 0.0\nsamples = 1\nvalue = [0, 1]\nclass = Yes Attrition", fillcolor="#399de5"] ;
366 -> 367 ;
368 [label="gini = 0.0\nsamples = 30\nvalue = [30, 0]\nclass = No Attrition", fillcolor="#e58139"] ;
366 -> 368 ;
369 [label="DistanceFromHome <= 5.5\ngini = 0.494\nsamples = 18\nvalue = [10, 8]\nclass = No Attrition", fillcolor="#fae6d7"] ;
365 -> 369 ;
370 [label="gini = 0.0\nsamples = 9\nvalue = [9, 0]\nclass = No Attrition", fillcolor="#e58139"] ;
369 -> 370 ;
371 [label="NumCompaniesWorked <= 6.5\ngini = 0.198\nsamples = 9\nvalue = [1, 8]\nclass = Yes Attrition", fillcolor="#52a9e8"] ;
369 -> 371 ;
372 [label="gini = 0.0\nsamples = 8\nvalue = [0, 8]\nclass = Yes Attrition", fillcolor="#399de5"] ;
371 -> 372 ;
373 [label="gini = 0.0\nsamples = 1\nvalue = [1, 0]\nclass = No Attrition", fillcolor="#e58139"] ;
371 -> 373 ;
374 [label="EducationField_encoded <= 3.5\ngini = 0.381\nsamples = 43\nvalue = [11, 32]\nclass = Yes Attrition", fillcolor="#7dbfee"] ;
358 -> 374 ;
375 [label="TrainingTimesLastYear <= 4.5\ngini = 0.234\nsamples = 37\nvalue = [5, 32]\nclass = Yes Attrition", fillcolor="#58ace9"] ;
374 -> 375 ;
376 [label="gini = 0.0\nsamples = 32\nvalue = [0, 32]\nclass = Yes Attrition", fillcolor="#399de5"] ;
375 -> 376 ;
377 [label="gini = 0.0\nsamples = 5\nvalue = [5, 0]\nclass = No Attrition", fillcolor="#e58139"] ;
375 -> 377 ;
378 [label="gini = 0.0\nsamples = 6\nvalue = [6, 0]\nclass = No Attrition", fillcolor="#e58139"] ;
374 -> 378 ;
379 [label="Age <= 26.5\ngini = 0.301\nsamples = 65\nvalue = [53, 12]\nclass = No Attrition", fillcolor="#eb9e66"] ;
357 -> 379 ;
380 [label="YearsAtCompany <= 3.0\ngini = 0.278\nsamples = 6\nvalue = [1, 5]\nclass = Yes Attrition", fillcolor="#61b1ea"] ;
379 -> 380 ;
381 [label="gini = 0.0\nsamples = 5\nvalue = [0, 5]\nclass = Yes Attrition", fillcolor="#399de5"] ;
380 -> 381 ;
382 [label="gini = 0.0\nsamples = 1\nvalue = [1, 0]\nclass = No Attrition", fillcolor="#e58139"] ;
380 -> 382 ;
383 [label="PercentSalaryHike <= 21.5\ngini = 0.209\nsamples = 59\nvalue = [52, 7]\nclass = No Attrition", fillcolor="#e89254"] ;
379 -> 383 ;
384 [label="MonthlyIncome <= 16695.0\ngini = 0.077\nsamples = 50\nvalue = [48, 2]\nclass = No Attrition", fillcolor="#e68641"] ;
383 -> 384 ;
385 [label="gini = 0.0\nsamples = 2\nvalue = [0, 2]\nclass = Yes Attrition", fillcolor="#399de5"] ;
384 -> 385 ;
386 [label="gini = 0.0\nsamples = 48\nvalue = [48, 0]\nclass = No Attrition", fillcolor="#e58139"] ;
384 -> 386 ;
387 [label="TrainingTimesLastYear <= 3.5\ngini = 0.494\nsamples = 9\nvalue = [4, 5]\nclass = Yes Attrition", fillcolor="#d7ebfa"] ;
383 -> 387 ;
388 [label="gini = 0.0\nsamples = 4\nvalue = [4, 0]\nclass = No Attrition", fillcolor="#e58139"] ;
387 -> 388 ;
389 [label="gini = 0.0\nsamples = 5\nvalue = [0, 5]\nclass = Yes Attrition", fillcolor="#399de5"] ;
387 -> 389 ;
390 [label="WorkLifeBalance <= 1.5\ngini = 0.269\nsamples = 474\nvalue = [398, 76]\nclass = No Attrition", fillcolor="#ea995f"] ;
356 -> 390 ;
391 [label="PercentSalaryHike <= 11.5\ngini = 0.49\nsamples = 42\nvalue = [24, 18]\nclass = No Attrition", fillcolor="#f8e0ce"] ;
390 -> 391 ;
392 [label="gini = 0.0\nsamples = 8\nvalue = [0, 8]\nclass = Yes Attrition", fillcolor="#399de5"] ;
391 -> 392 ;
393 [label="JobRole_encoded <= 5.0\ngini = 0.415\nsamples = 34\nvalue = [24, 10]\nclass = No Attrition", fillcolor="#f0b58b"] ;
391 -> 393 ;
394 [label="Age <= 37.5\ngini = 0.172\nsamples = 21\nvalue = [19, 2]\nclass = No Attrition", fillcolor="#e88e4e"] ;
393 -> 394 ;
395 [label="gini = 0.0\nsamples = 2\nvalue = [0, 2]\nclass = Yes Attrition", fillcolor="#399de5"] ;
394 -> 395 ;
396 [label="gini = 0.0\nsamples = 19\nvalue = [19, 0]\nclass = No Attrition", fillcolor="#e58139"] ;
394 -> 396 ;
397 [label="Age <= 43.0\ngini = 0.473\nsamples = 13\nvalue = [5, 8]\nclass = Yes Attrition", fillcolor="#b5daf5"] ;
393 -> 397 ;
398 [label="gini = 0.0\nsamples = 6\nvalue = [0, 6]\nclass = Yes Attrition", fillcolor="#399de5"] ;
397 -> 398 ;
399 [label="YearsSinceLastPromotion <= 5.0\ngini = 0.408\nsamples = 7\nvalue = [5, 2]\nclass = No Attrition", fillcolor="#efb388"] ;
397 -> 399 ;
400 [label="gini = 0.0\nsamples = 5\nvalue = [5, 0]\nclass = No Attrition", fillcolor="#e58139"] ;
399 -> 400 ;
401 [label="gini = 0.0\nsamples = 2\nvalue = [0, 2]\nclass = Yes Attrition", fillcolor="#399de5"] ;
399 -> 401 ;
402 [label="EnvironmentSatisfaction <= 2.5\ngini = 0.232\nsamples = 432\nvalue = [374, 58]\nclass = No Attrition", fillcolor="#e99558"] ;
390 -> 402 ;
403 [label="NumCompaniesWorked <= 8.5\ngini = 0.36\nsamples = 153\nvalue = [117, 36]\nclass = No Attrition", fillcolor="#eda876"] ;
402 -> 403 ;
404 [label="MonthlyIncome <= 32465.0\ngini = 0.307\nsamples = 132\nvalue = [107, 25]\nclass = No Attrition", fillcolor="#eb9e67"] ;
403 -> 404 ;
405 [label="gini = 0.0\nsamples = 48\nvalue = [48, 0]\nclass = No Attrition", fillcolor="#e58139"] ;
404 -> 405 ;
406 [label="MonthlyIncome <= 48755.0\ngini = 0.418\nsamples = 84\nvalue = [59, 25]\nclass = No Attrition", fillcolor="#f0b68d"] ;
404 -> 406 ;
407 [label="EnvironmentSatisfaction <= 1.5\ngini = 0.444\nsamples = 21\nvalue = [7, 14]\nclass = Yes Attrition", fillcolor="#9ccef2"] ;
406 -> 407 ;
408 [label="gini = 0.0\nsamples = 11\nvalue = [0, 11]\nclass = Yes Attrition", fillcolor="#399de5"] ;
407 -> 408 ;
409 [label="PerformanceRating <= 3.5\ngini = 0.42\nsamples = 10\nvalue = [7, 3]\nclass = No Attrition", fillcolor="#f0b78e"] ;
407 -> 409 ;
410 [label="gini = 0.0\nsamples = 7\nvalue = [7, 0]\nclass = No Attrition", fillcolor="#e58139"] ;
409 -> 410 ;
411 [label="gini = 0.0\nsamples = 3\nvalue = [0, 3]\nclass = Yes Attrition", fillcolor="#399de5"] ;
409 -> 411 ;
412 [label="EducationField_encoded <= 2.5\ngini = 0.288\nsamples = 63\nvalue = [52, 11]\nclass = No Attrition", fillcolor="#ea9c63"] ;
406 -> 412 ;
413 [label="MonthlyIncome <= 103730.0\ngini = 0.431\nsamples = 35\nvalue = [24, 11]\nclass = No Attrition", fillcolor="#f1bb94"] ;
412 -> 413 ;
414 [label="TotalWorkingYears <= 9.5\ngini = 0.293\nsamples = 28\nvalue = [23, 5]\nclass = No Attrition", fillcolor="#eb9c64"] ;
413 -> 414 ;
415 [label="YearsSinceLastPromotion <= 1.0\ngini = 0.444\nsamples = 6\nvalue = [2, 4]\nclass = Yes Attrition", fillcolor="#9ccef2"] ;
414 -> 415 ;
416 [label="gini = 0.0\nsamples = 4\nvalue = [0, 4]\nclass = Yes Attrition", fillcolor="#399de5"] ;
415 -> 416 ;
417 [label="gini = 0.0\nsamples = 2\nvalue = [2, 0]\nclass = No Attrition", fillcolor="#e58139"] ;
415 -> 417 ;
418 [label="JobRole_encoded <= 1.0\ngini = 0.087\nsamples = 22\nvalue = [21, 1]\nclass = No Attrition", fillcolor="#e68742"] ;
414 -> 418 ;
419 [label="gini = 0.0\nsamples = 1\nvalue = [0, 1]\nclass = Yes Attrition", fillcolor="#399de5"] ;
418 -> 419 ;
420 [label="gini = 0.0\nsamples = 21\nvalue = [21, 0]\nclass = No Attrition", fillcolor="#e58139"] ;
418 -> 420 ;
421 [label="JobRole_encoded <= 6.5\ngini = 0.245\nsamples = 7\nvalue = [1, 6]\nclass = Yes Attrition", fillcolor="#5aade9"] ;
413 -> 421 ;
422 [label="gini = 0.0\nsamples = 6\nvalue = [0, 6]\nclass = Yes Attrition", fillcolor="#399de5"] ;
421 -> 422 ;
423 [label="gini = 0.0\nsamples = 1\nvalue = [1, 0]\nclass = No Attrition", fillcolor="#e58139"] ;
421 -> 423 ;
424 [label="gini = 0.0\nsamples = 28\nvalue = [28, 0]\nclass = No Attrition", fillcolor="#e58139"] ;
412 -> 424 ;
425 [label="MonthlyIncome <= 27725.0\ngini = 0.499\nsamples = 21\nvalue = [10, 11]\nclass = Yes Attrition", fillcolor="#edf6fd"] ;
403 -> 425 ;
426 [label="gini = 0.0\nsamples = 7\nvalue = [0, 7]\nclass = Yes Attrition", fillcolor="#399de5"] ;
425 -> 426 ;
427 [label="Age <= 48.0\ngini = 0.408\nsamples = 14\nvalue = [10, 4]\nclass = No Attrition", fillcolor="#efb388"] ;
425 -> 427 ;
428 [label="gini = 0.0\nsamples = 10\nvalue = [10, 0]\nclass = No Attrition", fillcolor="#e58139"] ;
427 -> 428 ;
429 [label="gini = 0.0\nsamples = 4\nvalue = [0, 4]\nclass = Yes Attrition", fillcolor="#399de5"] ;
427 -> 429 ;
430 [label="Age <= 54.5\ngini = 0.145\nsamples = 279\nvalue = [257, 22]\nclass = No Attrition", fillcolor="#e78c4a"] ;
402 -> 430 ;
431 [label="YearsAtCompany <= 0.5\ngini = 0.103\nsamples = 256\nvalue = [242, 14]\nclass = No Attrition", fillcolor="#e78844"] ;
430 -> 431 ;
432 [label="WorkLifeBalance <= 2.5\ngini = 0.444\nsamples = 3\nvalue = [1, 2]\nclass = Yes Attrition", fillcolor="#9ccef2"] ;
431 -> 432 ;
433 [label="gini = 0.0\nsamples = 1\nvalue = [1, 0]\nclass = No Attrition", fillcolor="#e58139"] ;
432 -> 433 ;
434 [label="gini = 0.0\nsamples = 2\nvalue = [0, 2]\nclass = Yes Attrition", fillcolor="#399de5"] ;
432 -> 434 ;
435 [label="JobRole_encoded <= 7.5\ngini = 0.09\nsamples = 253\nvalue = [241, 12]\nclass = No Attrition", fillcolor="#e68743"] ;
431 -> 435 ;
436 [label="Age <= 35.5\ngini = 0.071\nsamples = 245\nvalue = [236, 9]\nclass = No Attrition", fillcolor="#e68641"] ;
435 -> 436 ;
437 [label="MonthlyIncome <= 25035.0\ngini = 0.278\nsamples = 30\nvalue = [25, 5]\nclass = No Attrition", fillcolor="#ea9a61"] ;
436 -> 437 ;
438 [label="gini = 0.0\nsamples = 3\nvalue = [0, 3]\nclass = Yes Attrition", fillcolor="#399de5"] ;
437 -> 438 ;
439 [label="JobInvolvement <= 1.5\ngini = 0.137\nsamples = 27\nvalue = [25, 2]\nclass = No Attrition", fillcolor="#e78b49"] ;
437 -> 439 ;
440 [label="StockOptionLevel <= 1.0\ngini = 0.444\nsamples = 3\nvalue = [1, 2]\nclass = Yes Attrition", fillcolor="#9ccef2"] ;
439 -> 440 ;
441 [label="gini = 0.0\nsamples = 2\nvalue = [0, 2]\nclass = Yes Attrition", fillcolor="#399de5"] ;
440 -> 441 ;
442 [label="gini = 0.0\nsamples = 1\nvalue = [1, 0]\nclass = No Attrition", fillcolor="#e58139"] ;
440 -> 442 ;
443 [label="gini = 0.0\nsamples = 24\nvalue = [24, 0]\nclass = No Attrition", fillcolor="#e58139"] ;
439 -> 443 ;
444 [label="StockOptionLevel <= 2.5\ngini = 0.037\nsamples = 215\nvalue = [211, 4]\nclass = No Attrition", fillcolor="#e5833d"] ;
436 -> 444 ;
445 [label="DistanceFromHome <= 1.5\ngini = 0.019\nsamples = 209\nvalue = [207, 2]\nclass = No Attrition", fillcolor="#e5823b"] ;
444 -> 445 ;
446 [label="Age <= 36.5\ngini = 0.124\nsamples = 30\nvalue = [28, 2]\nclass = No Attrition", fillcolor="#e78a47"] ;
445 -> 446 ;
447 [label="gini = 0.0\nsamples = 1\nvalue = [0, 1]\nclass = Yes Attrition", fillcolor="#399de5"] ;
446 -> 447 ;
448 [label="EducationField_encoded <= 3.5\ngini = 0.067\nsamples = 29\nvalue = [28, 1]\nclass = No Attrition", fillcolor="#e68640"] ;
446 -> 448 ;
449 [label="gini = 0.0\nsamples = 26\nvalue = [26, 0]\nclass = No Attrition", fillcolor="#e58139"] ;
448 -> 449 ;
450 [label="TotalWorkingYears <= 7.0\ngini = 0.444\nsamples = 3\nvalue = [2, 1]\nclass = No Attrition", fillcolor="#f2c09c"] ;
448 -> 450 ;
451 [label="gini = 0.0\nsamples = 1\nvalue = [0, 1]\nclass = Yes Attrition", fillcolor="#399de5"] ;
450 -> 451 ;
452 [label="gini = 0.0\nsamples = 2\nvalue = [2, 0]\nclass = No Attrition", fillcolor="#e58139"] ;
450 -> 452 ;
453 [label="gini = 0.0\nsamples = 179\nvalue = [179, 0]\nclass = No Attrition", fillcolor="#e58139"] ;
445 -> 453 ;
454 [label="TotalWorkingYears <= 10.0\ngini = 0.444\nsamples = 6\nvalue = [4, 2]\nclass = No Attrition", fillcolor="#f2c09c"] ;
444 -> 454 ;
455 [label="gini = 0.0\nsamples = 2\nvalue = [0, 2]\nclass = Yes Attrition", fillcolor="#399de5"] ;
454 -> 455 ;
456 [label="gini = 0.0\nsamples = 4\nvalue = [4, 0]\nclass = No Attrition", fillcolor="#e58139"] ;
454 -> 456 ;
457 [label="PercentSalaryHike <= 19.0\ngini = 0.469\nsamples = 8\nvalue = [5, 3]\nclass = No Attrition", fillcolor="#f5cdb0"] ;
435 -> 457 ;
458 [label="gini = 0.0\nsamples = 5\nvalue = [5, 0]\nclass = No Attrition", fillcolor="#e58139"] ;
457 -> 458 ;
459 [label="gini = 0.0\nsamples = 3\nvalue = [0, 3]\nclass = Yes Attrition", fillcolor="#399de5"] ;
457 -> 459 ;
460 [label="PercentSalaryHike <= 13.5\ngini = 0.454\nsamples = 23\nvalue = [15, 8]\nclass = No Attrition", fillcolor="#f3c4a3"] ;
430 -> 460 ;
461 [label="TrainingTimesLastYear <= 4.5\ngini = 0.375\nsamples = 8\nvalue = [2, 6]\nclass = Yes Attrition", fillcolor="#7bbeee"] ;
460 -> 461 ;
462 [label="gini = 0.0\nsamples = 6\nvalue = [0, 6]\nclass = Yes Attrition", fillcolor="#399de5"] ;
461 -> 462 ;
463 [label="gini = 0.0\nsamples = 2\nvalue = [2, 0]\nclass = No Attrition", fillcolor="#e58139"] ;
461 -> 463 ;
464 [label="TotalWorkingYears <= 38.0\ngini = 0.231\nsamples = 15\nvalue = [13, 2]\nclass = No Attrition", fillcolor="#e99457"] ;
460 -> 464 ;
465 [label="gini = 0.0\nsamples = 13\nvalue = [13, 0]\nclass = No Attrition", fillcolor="#e58139"] ;
464 -> 465 ;
466 [label="gini = 0.0\nsamples = 2\nvalue = [0, 2]\nclass = Yes Attrition", fillcolor="#399de5"] ;
464 -> 466 ;
}
